Language model created by QuickLM on Fri Aug 25 09:51:07 EDT 2017
Copyright (c) 1996-2010 Carnegie Mellon University and Alexander I. Rudnicky

The model is in standard ARPA format, designed by Doug Paul while he was at MITRE.

The code that was used to produce this language model is available in Open Source.
Please visit http://www.speech.cs.cmu.edu/tools/ for more information

The (fixed) discount mass is 0.5. The backoffs are computed using the ratio method.
This model based on a corpus of 406 sentences and 181 words

\data\
ngram 1=181
ngram 2=473
ngram 3=627

\1-grams:
-1.1317 </s> -0.3010
-1.1317 <s> -0.2459
-2.7860 A -0.2949
-3.7402 ADRIAN -0.2677
-3.4392 AFRICA -0.2677
-3.4392 AFTERNOON -0.2677
-2.9621 AGAIN -0.2677
-3.2631 ALEXANDER -0.2677
-3.2631 ALEXIS -0.2677
-3.0412 ALINA -0.2677
-3.7402 ALL -0.2677
-1.6949 AM -0.2841
-3.4392 AMERICA -0.2677
-3.7402 ANDREA -0.2677
-3.2631 ANDREI -0.2677
-2.6263 ARE -0.2947
-3.1381 ARTHUR -0.2677
-3.4392 ASIA -0.2677
-3.2631 ASIL -0.2677
-3.7402 AT -0.3010
-3.1381 AUSTRALIA -0.2677
-3.2631 AWAY -0.2952
-3.0412 BAD -0.2677
-3.2631 BE -0.3008
-3.7402 BEER -0.2677
-3.2631 BELGIUM -0.2677
-1.8057 CAKE -0.2672
-1.9768 CALL -0.2957
-2.3785 CAN -0.2774
-3.4392 CHINA -0.2677
-3.1381 CHRIS -0.2677
-2.3785 COME -0.2972
-3.4392 CONSTANTIN -0.2677
-2.8951 CONVERSATION -0.2677
-2.4392 COULD -0.2774
-3.7402 COURSE -0.2677
-3.4392 CUT -0.2942
-2.8951 DECREASE -0.2952
-3.2631 DID -0.2945
-3.4392 DIDNT -0.2662
-3.1381 DO -0.2945
-3.7402 DOES -0.3006
-3.7402 DOING -0.2677
-3.4392 DOMINIC -0.2677
-2.9621 DONT -0.2659
-3.7402 DRINK -0.2677
-2.8951 DROP -0.2952
-2.7860 EIGHT -0.2893
-2.5941 EIGTHY -0.2890
-3.7402 ELEVEN -0.2949
-3.1381 ELIAS -0.2677
-3.4392 EUROPE -0.2677
-3.2631 EVERYTHING -0.2976
-2.7402 FEELING -0.2666
-3.2631 FERENC -0.2677
-3.7402 FERESHTA -0.2677
-3.2631 FEROZ -0.2677
-2.9621 FEW -0.2955
-3.7402 FIFTEEN -0.2949
-2.6263 FIFTY -0.2881
-3.4392 FIND -0.3007
-2.7402 FIVE -0.2893
-2.7860 FORTY -0.2910
-2.7402 FOUR -0.2893
-3.7402 FRANKLIN -0.2677
-2.0590 FROM -0.2639
-3.4392 GAYANE -0.2677
-3.4392 GEORG -0.2677
-3.4392 GERMANY -0.2677
-2.4849 GET -0.2931
-3.7402 GHANA -0.2677
-2.7860 GIVE -0.2888
-2.8371 GOOD -0.2675
-3.7402 GOODBYE -0.2677
-3.2631 GREECE -0.2677
-3.2631 HAGEN -0.2677
-3.1381 HAPPEN -0.2677
-3.2631 HAVE -0.3003
-3.7402 HELLO -0.2677
-3.1381 HELP -0.2957
-3.7402 HENDRIK -0.2677
-2.5941 HOW -0.2891
-3.7402 HUNDRED -0.2949
-1.4078 I -0.2829
-3.1381 INCREASE -0.2969
-3.2631 INDIAN -0.2677
-2.1067 IS -0.2605
-3.0412 IT -0.3002
-3.7402 JAPAN -0.2677
-3.7402 JASMINE -0.2677
-3.0412 KEVIN -0.2677
-3.4392 KIND -0.2677
-3.4392 KOREA -0.2677
-3.7402 LATER -0.2677
-3.0412 LENA -0.2677
-2.7402 LESS -0.2955
-2.4392 LIKE -0.2855
-3.1381 LISSET -0.2677
-3.4392 LOWER -0.2969
-3.1381 LUKAS -0.2677
-3.7402 MAKE -0.2677
-3.7402 MALIA -0.2677
-3.1381 MAREIKE -0.2677
-3.2631 MAY -0.2774
-1.9141 ME -0.2574
-3.7402 MEET -0.2950
-3.2631 MICHAEL -0.2677
-2.8371 MORE -0.2952
-3.7402 MORNING -0.2677
-3.7402 MUCH -0.3008
-2.0242 MY -0.2967
-2.1720 NAME -0.2640
-2.2631 NEED -0.2835
-3.7402 NICE -0.2989
-2.6988 NINE -0.2893
-3.7402 NINETEEN -0.2949
-3.2631 NINETY -0.2935
-3.7402 NO -0.2677
-3.2631 NORWAY -0.2677
-2.9621 NOT -0.2652
-1.8889 OF -0.2941
-3.0412 OFFER -0.2942
-3.0412 OK -0.2677
-1.8371 OLD -0.2666
-2.8371 ONE -0.2943
-2.5098 ORDER -0.2677
-3.7402 OTTHEIN -0.2677
-3.1381 OUR -0.3005
-2.9621 PASCALE -0.2677
-3.2631 PATRICK -0.2677
-2.2631 PEOPLE -0.2964
-1.8951 PIECE -0.2954
-3.1381 PLEASURE -0.2989
-3.7402 RAFAEL -0.2677
-2.7860 REDUCE -0.2952
-3.2631 RUSSIA -0.2677
-3.7402 SAY -0.3004
-3.2631 SEAT -0.2677
-3.1381 SEE -0.2950
-2.6610 SEVEN -0.2893
-3.7402 SEVENTEEN -0.2949
-2.8951 SEVENTY -0.2934
-3.7402 SHOULD -0.2837
-3.2631 SIT -0.2677
-2.7402 SIX -0.2893
-2.9621 SIXTY -0.2973
-2.4180 SOME -0.2955
-3.4392 SOUTH -0.3009
-3.7402 SPAIN -0.2677
-3.4392 SUD -0.3009
-3.4392 SWEDEN -0.2677
-3.2631 SWITZERLAND -0.2677
-3.1381 TAKE -0.3007
-3.1381 TEN -0.2955
-3.7402 THANK -0.2950
-3.2631 THE -0.3005
-3.4392 THIRD -0.2955
-3.0412 THIRTY -0.2976
-2.8951 THREE -0.2893
-3.2631 TIME -0.2677
-2.3088 TO -0.2963
-3.4392 TOBIAS -0.2677
-3.7402 TOGO -0.2677
-3.7402 TOO -0.3010
-3.7402 TWELVE -0.2949
-3.0412 TWENTY -0.2976
-2.8951 TWO -0.2893
-3.7402 UKRAINE -0.2677
-3.2631 UNDERSTAND -0.2677
-2.5361 WANT -0.2857
-2.9621 WAS -0.2998
-3.7402 WELLCOME -0.2677
-2.8951 WHAT -0.2955
-2.9621 WHERE -0.2978
-3.4392 WHY -0.2676
-3.2631 WITH -0.2950
-2.3600 WOULD -0.2934
-1.8537 YEARS -0.2947
-3.4392 YES -0.2677
-1.8594 YOU -0.2530
-3.4392 YOUR -0.2981

\2-grams:
-2.9096 <s> ARE -0.0902
-1.4624 <s> CALL 0.0000
-1.5873 <s> CAN 0.0000
-1.6085 <s> COULD 0.0000
-2.4324 <s> EVERYTHING 0.0000
-2.4324 <s> GOOD -0.2109
-2.9096 <s> GOODBYE 0.0000
-2.9096 <s> HELLO 0.0000
-1.7634 <s> HOW 0.0000
-0.5894 <s> I -0.0120
-2.3075 <s> IT -0.0792
-2.4324 <s> MAY 0.0000
-1.3655 <s> MY -0.1228
-2.9096 <s> NICE 0.0000
-2.9096 <s> NO 0.0000
-2.9096 <s> NOT -0.2632
-2.9096 <s> OF -0.2980
-2.9096 <s> ONE -0.2430
-1.4324 <s> PEOPLE 0.0000
-2.4324 <s> SEE 0.0000
-2.9096 <s> THANK 0.0000
-2.0645 <s> WHAT 0.0000
-2.1314 <s> WHERE 0.0000
-2.6085 <s> WHY 0.0000
-2.3075 <s> WOULD -0.2632
-2.6085 <s> YES 0.0000
-2.4324 <s> YOU -0.2924
-0.9542 A PIECE 0.0000
-0.6532 A PLEASURE 0.0000
-0.7782 A SEAT 0.0000
-0.3010 ADRIAN </s> -0.3010
-0.3010 AFRICA </s> -0.3010
-0.3010 AFTERNOON </s> -0.3010
-0.3010 AGAIN </s> -0.3010
-0.3010 ALEXANDER </s> -0.3010
-0.3010 ALEXIS </s> -0.3010
-0.3010 ALINA </s> -0.3010
-0.3010 ALL </s> -0.3010
-2.0453 AM BAD 0.0000
-2.3464 AM EIGHT -0.0872
-1.2002 AM EIGTHY -0.0000
-2.3464 AM ELEVEN 0.0000
-1.6474 AM FEELING -0.1139
-2.3464 AM FIFTEEN 0.0000
-1.2324 AM FIFTY 0.0000
-2.3464 AM FIVE -0.1461
-1.3921 AM FORTY 0.0000
-0.9846 AM FROM -0.0969
-2.3464 AM GOOD -0.1383
-2.3464 AM HUNDRED 0.0000
-2.3464 AM NINE -0.1347
-2.3464 AM NINETEEN 0.0000
-1.8692 AM NINETY 0.0000
-2.0453 AM NOT -0.2218
-2.3464 AM OK 0.0000
-2.3464 AM ONE -0.0969
-1.8692 AM SEVEN -0.0348
-2.3464 AM SEVENTEEN 0.0000
-1.5013 AM SEVENTY 0.0000
-2.0453 AM SIX -0.0792
-1.5682 AM SIXTY 0.0000
-1.6474 AM THIRTY 0.0000
-2.3464 AM TWELVE 0.0000
-1.6474 AM TWENTY 0.0000
-0.3010 AMERICA </s> -0.3010
-0.3010 ANDREA </s> -0.3010
-0.3010 ANDREI </s> -0.3010
-1.1139 ARE KIND 0.0000
-1.4150 ARE WELLCOME 0.0000
-0.4150 ARE YOU -0.2298
-0.3010 ARTHUR </s> -0.3010
-0.3010 ASIA </s> -0.3010
-0.3010 ASIL </s> -0.3010
-0.3010 AT ALL 0.0000
-0.3010 AUSTRALIA </s> -0.3010
-0.4771 AWAY MY -0.2235
-0.7782 AWAY SOME 0.0000
-0.3010 BAD </s> -0.3010
-0.3010 BE WITH 0.0000
-0.3010 BEER </s> -0.3010
-0.3010 BELGIUM </s> -0.3010
-0.3324 CAKE </s> -0.3010
-1.4574 CAKE AGAIN 0.0000
-0.3010 CALL ME -0.0313
-1.3617 CAN I -0.2949
-0.3405 CAN YOU -0.1684
-0.3010 CHINA </s> -0.3010
-0.3010 CHRIS </s> -0.3010
-0.3010 COME FROM -0.0896
-0.3010 CONSTANTIN </s> -0.3010
-0.3010 CONVERSATION </s> -0.3010
-1.6021 COULD I -0.2980
-0.3233 COULD YOU -0.1911
-0.3010 COURSE </s> -0.3010
-0.3010 CUT CAKE -0.0293
-0.6690 DECREASE MY -0.2235
-0.5441 DECREASE SOME 0.0000
-0.4771 DID NOT -0.2218
-0.7782 DID YOU -0.2953
-0.6021 DIDNT </s> -0.3010
-0.6021 DIDNT GET -0.2361
-0.9031 DO NOT -0.2632
-0.4260 DO YOU -0.2894
-0.3010 DOES IT -0.2553
-0.3010 DOING </s> -0.3010
-0.3010 DOMINIC </s> -0.3010
-1.0792 DONT </s> -0.3010
-0.7782 DONT GET -0.2361
-0.6021 DONT UNDERSTAND 0.0000
-0.3010 DRINK </s> -0.3010
-0.5441 DROP MY -0.2235
-0.6690 DROP SOME 0.0000
-0.9542 EIGHT PIECE 0.0000
-0.4102 EIGHT YEARS 0.0000
-1.1461 EIGTHY EIGHT -0.0872
-1.4472 EIGTHY FIVE -0.1461
-1.1461 EIGTHY FOUR -0.0414
-1.4472 EIGTHY ONE -0.0969
-0.9700 EIGTHY SEVEN -0.0348
-1.1461 EIGTHY SIX -0.0792
-1.4472 EIGTHY THREE -0.1963
-1.4472 EIGTHY TWO -0.0580
-1.4472 EIGTHY YEARS 0.0000
-0.3010 ELEVEN YEARS 0.0000
-0.3010 ELIAS </s> -0.3010
-0.3010 EUROPE </s> -0.3010
-0.3010 EVERYTHING IS -0.2856
-0.8239 FEELING </s> -0.3010
-0.8239 FEELING BAD 0.0000
-0.6990 FEELING GOOD -0.1383
-0.3010 FERENC </s> -0.3010
-0.3010 FERESHTA </s> -0.3010
-0.3010 FEROZ </s> -0.3010
-0.3010 FEW PIECE 0.0000
-0.3010 FIFTEEN YEARS 0.0000
-1.4150 FIFTY EIGHT -0.0872
-1.4150 FIFTY FIVE -0.1461
-1.4150 FIFTY FOUR -0.0414
-1.1139 FIFTY NINE -0.1347
-1.1139 FIFTY ONE -0.0969
-1.4150 FIFTY SEVEN -0.0348
-1.1139 FIFTY SIX -0.0792
-1.4150 FIFTY THREE -0.1963
-1.4150 FIFTY TWO -0.0580
-1.4150 FIFTY YEARS 0.0000
-0.3010 FIND OUR 0.0000
-0.6990 FIVE PIECE 0.0000
-0.5229 FIVE YEARS 0.0000
-1.2553 FORTY EIGHT -0.0872
-1.2553 FORTY FIVE -0.1461
-1.2553 FORTY FOUR -0.0414
-1.2553 FORTY SEVEN -0.0348
-0.7782 FORTY TWO -0.0580
-0.9542 FORTY YEARS 0.0000
-1.3010 FOUR PIECE 0.0000
-0.3468 FOUR YEARS 0.0000
-0.3010 FRANKLIN </s> -0.3010
-1.3802 FROM </s> -0.3010
-1.6812 FROM AMERICA 0.0000
-1.6812 FROM ASIA 0.0000
-1.3802 FROM AUSTRALIA 0.0000
-1.5051 FROM BELGIUM 0.0000
-1.6812 FROM CHINA 0.0000
-1.6812 FROM EUROPE 0.0000
-1.6812 FROM GERMANY 0.0000
-1.9823 FROM GHANA 0.0000
-1.5051 FROM GREECE 0.0000
-1.5051 FROM INDIAN 0.0000
-1.9823 FROM JAPAN 0.0000
-1.9823 FROM MALIA 0.0000
-1.5051 FROM NORWAY 0.0000
-1.5051 FROM RUSSIA 0.0000
-1.6812 FROM SOUTH 0.0000
-1.9823 FROM SPAIN 0.0000
-1.6812 FROM SUD 0.0000
-1.6812 FROM SWEDEN 0.0000
-1.5051 FROM SWITZERLAND 0.0000
-1.9823 FROM TOGO 0.0000
-1.9823 FROM UKRAINE 0.0000
-0.3010 GAYANE </s> -0.3010
-0.3010 GEORG </s> -0.3010
-0.3010 GERMANY </s> -0.3010
-0.9542 GET FEW 0.0000
-0.8573 GET LESS 0.0000
-0.9542 GET MORE -0.0969
-0.8573 GET YOU -0.2527
-0.3010 GHANA </s> -0.3010
-0.6532 GIVE CAKE -0.0293
-0.5563 GIVE ME -0.2845
-0.5051 GOOD </s> -0.3010
-0.9031 GOOD AFTERNOON 0.0000
-1.2041 GOOD MORNING 0.0000
-0.3010 GOODBYE </s> -0.3010
-0.3010 GREECE </s> -0.3010
-0.3010 HAGEN </s> -0.3010
-0.3010 HAPPEN </s> -0.3010
-0.3010 HAVE A -0.2218
-0.3010 HELLO </s> -0.3010
-0.3010 HELP ME -0.2811
-0.3010 HENDRIK </s> -0.3010
-0.8451 HOW ARE -0.0902
-1.4472 HOW DID -0.2218
-1.4472 HOW DO -0.0969
-0.9700 HOW IS -0.2856
-0.9700 HOW OLD -0.2928
-1.1461 HOW WAS -0.2218
-0.3010 HUNDRED YEARS 0.0000
-0.5881 I AM 0.0000
-1.3112 I COME 0.0000
-2.3324 I DID -0.1249
-2.3324 I DIDNT 0.0000
-2.6335 I DO -0.2430
-1.8553 I DONT 0.0000
-2.1563 I HAVE 0.0000
-1.1563 I NEED 0.0000
-2.1563 I SIT 0.0000
-1.4293 I WANT 0.0000
-1.3324 I WOULD -0.0669
-0.3010 INCREASE MY -0.2235
-0.3010 INDIAN </s> -0.3010
-1.9345 IS </s> -0.3010
-1.6335 IS ALEXANDER 0.0000
-1.6335 IS ALEXIS 0.0000
-1.6335 IS ALINA 0.0000
-1.9345 IS ANDREA 0.0000
-1.9345 IS ANDREI 0.0000
-1.4574 IS ASIL 0.0000
-1.6335 IS CHRIS 0.0000
-1.6335 IS CONSTANTIN 0.0000
-1.9345 IS DOMINIC 0.0000
-1.6335 IS ELIAS 0.0000
-1.9345 IS GAYANE 0.0000
-1.9345 IS HAGEN 0.0000
-1.9345 IS HENDRIK 0.0000
-1.6335 IS KEVIN 0.0000
-1.6335 IS LENA 0.0000
-1.9345 IS LISSET 0.0000
-1.6335 IS LUKAS 0.0000
-1.9345 IS MAREIKE 0.0000
-1.4574 IS OK 0.0000
-1.9345 IS OTTHEIN 0.0000
-1.9345 IS OUR 0.0000
-1.6335 IS PASCALE 0.0000
-1.9345 IS PATRICK 0.0000
-1.6335 IS THE 0.0000
-1.9345 IS TOBIAS 0.0000
-1.6335 IS YOUR 0.0000
-1.0000 IT TAKE -0.2430
-0.3979 IT WAS -0.1249
-0.3010 JAPAN </s> -0.3010
-0.3010 JASMINE </s> -0.3010
-0.3010 KEVIN </s> -0.3010
-0.3010 KIND </s> -0.3010
-0.3010 KOREA </s> -0.3010
-0.3010 LATER </s> -0.3010
-0.3010 LENA </s> -0.3010
-0.3010 LESS PIECE 0.0000
-1.3010 LIKE CAKE -0.0293
-1.1249 LIKE FIVE -0.2041
-1.6021 LIKE LESS 0.0000
-1.6021 LIKE NINE -0.2139
-1.6021 LIKE SIX -0.2553
-1.3010 LIKE SOME 0.0000
-1.6021 LIKE TEN 0.0000
-1.6021 LIKE THREE -0.1549
-0.7570 LIKE TO -0.2121
-1.6021 LIKE TWO -0.2688
-0.3010 LISSET </s> -0.3010
-0.3010 LOWER MY -0.2235
-0.3010 LUKAS </s> -0.3010
-0.3010 MAKE </s> -0.3010
-0.3010 MALIA </s> -0.3010
-0.3010 MAREIKE </s> -0.3010
-0.4771 MAY I -0.2949
-0.7782 MAY YOU -0.2953
-1.3490 ME </s> -0.3010
-2.1271 ME ADRIAN 0.0000
-2.1271 ME ALEXANDER 0.0000
-2.1271 ME ALEXIS 0.0000
-1.6500 ME ALINA 0.0000
-1.8261 ME ANDREI 0.0000
-1.5250 ME ARTHUR 0.0000
-1.8261 ME CHRIS 0.0000
-2.1271 ME DOMINIC 0.0000
-1.8261 ME ELIAS 0.0000
-1.6500 ME FERENC 0.0000
-2.1271 ME FERESHTA 0.0000
-1.6500 ME FEROZ 0.0000
-1.8261 ME FEW 0.0000
-2.1271 ME FRANKLIN 0.0000
-2.1271 ME GAYANE 0.0000
-1.8261 ME GEORG 0.0000
-1.8261 ME HAGEN 0.0000
-2.1271 ME JASMINE 0.0000
-1.6500 ME KEVIN 0.0000
-1.6500 ME LENA 0.0000
-2.1271 ME LESS 0.0000
-1.6500 ME LISSET 0.0000
-1.8261 ME LUKAS 0.0000
-1.6500 ME MAREIKE 0.0000
-1.6500 ME MICHAEL 0.0000
-1.5250 ME PASCALE 0.0000
-1.8261 ME PATRICK 0.0000
-2.1271 ME RAFAEL 0.0000
-1.8261 ME SOME 0.0000
-2.1271 ME TOBIAS 0.0000
-0.3010 MEET YOU -0.2527
-0.3010 MICHAEL </s> -0.3010
-0.4260 MORE PIECE 0.0000
-0.9031 MORE TIME 0.0000
-0.3010 MORNING </s> -0.3010
-0.3010 MUCH TIME 0.0000
-0.4730 MY NAME -0.0229
-0.7866 MY ORDER 0.0000
-1.5682 NAME </s> -0.3010
-0.3252 NAME IS -0.0741
-1.7782 NEED A -0.2499
-1.7782 NEED BEER 0.0000
-1.4771 NEED CAKE -0.0293
-1.7782 NEED DRINK 0.0000
-1.7782 NEED EIGHT -0.2499
-1.7782 NEED LESS 0.0000
-1.7782 NEED MORE -0.0969
-1.4771 NEED NINE -0.2139
-1.7782 NEED SEVEN -0.2825
-1.7782 NEED SIX -0.2553
-1.4771 NEED SOME 0.0000
-1.7782 NEED TEN 0.0000
-1.4771 NEED THIRD 0.0000
-1.4771 NEED THREE -0.1549
-0.7368 NEED TO -0.1368
-0.3010 NICE TO -0.2929
-0.7404 NINE PIECE 0.0000
-0.4973 NINE YEARS 0.0000
-0.3010 NINETEEN YEARS 0.0000
-0.7782 NINETY FOUR -0.0414
-0.7782 NINETY THREE -0.1963
-0.7782 NINETY YEARS 0.0000
-0.3010 NO </s> -0.3010
-0.3010 NORWAY </s> -0.3010
-1.0792 NOT </s> -0.3010
-1.0792 NOT AT 0.0000
-0.7782 NOT FEELING -0.2041
-0.7782 NOT GET -0.2361
-0.3072 OF CAKE 0.0000
-2.1523 OF COURSE 0.0000
-0.3010 OFFER CAKE -0.0293
-0.3010 OK </s> -0.3010
-0.3176 OLD </s> -0.3010
-1.7270 OLD ARE -0.0902
-0.9031 ONE MORE -0.2430
-0.4260 ONE YEARS 0.0000
-0.3010 ORDER </s> -0.3010
-0.3010 OTTHEIN </s> -0.3010
-0.3010 OUR CONVERSATION 0.0000
-0.3010 PASCALE </s> -0.3010
-0.3010 PATRICK </s> -0.3010
-0.3010 PEOPLE CALL 0.0000
-0.3010 PIECE OF -0.0061
-0.3010 PLEASURE TO -0.2676
-0.3010 RAFAEL </s> -0.3010
-0.9542 REDUCE MY -0.2235
-0.4102 REDUCE SOME 0.0000
-0.3010 RUSSIA </s> -0.3010
-0.3010 SAY ONE -0.2430
-0.3010 SEAT </s> -0.3010
-0.3010 SEE YOU -0.2495
-1.3802 SEVEN PIECE 0.0000
-0.3388 SEVEN YEARS 0.0000
-0.3010 SEVENTEEN YEARS 0.0000
-1.1461 SEVENTY EIGHT -0.0872
-0.6690 SEVENTY FOUR -0.0414
-0.6690 SEVENTY YEARS 0.0000
-0.3010 SHOULD I -0.2980
-0.3010 SIT </s> -0.3010
-1.0000 SIX PIECE 0.0000
-0.3979 SIX YEARS 0.0000
-1.0792 SIXTY EIGHT -0.0872
-1.0792 SIXTY NINE -0.1347
-0.7782 SIXTY ONE -0.0969
-1.0792 SIXTY SEVEN -0.0348
-1.0792 SIXTY TWO -0.0580
-0.3010 SOME PIECE 0.0000
-0.3010 SOUTH AFRICA 0.0000
-0.3010 SPAIN </s> -0.3010
-0.3010 SUD KOREA 0.0000
-0.3010 SWEDEN </s> -0.3010
-0.3010 SWITZERLAND </s> -0.3010
-0.4260 TAKE AWAY 0.0000
-0.9031 TAKE TOO 0.0000
-0.3010 TEN PIECE 0.0000
-0.3010 THANK YOU -0.2527
-0.3010 THE CONVERSATION 0.0000
-0.3010 THIRD PIECE 0.0000
-1.0000 THIRTY FIVE -0.1461
-1.0000 THIRTY FOUR -0.0414
-0.6990 THIRTY NINE -0.1347
-1.0000 THIRTY SEVEN -0.0348
-0.5441 THREE PIECE 0.0000
-0.6690 THREE YEARS 0.0000
-0.3010 TIME </s> -0.3010
-1.2553 TO BE 0.0000
-0.9542 TO DECREASE 0.0000
-1.7324 TO DROP -0.1963
-1.1303 TO GET -0.1065
-1.1303 TO INCREASE 0.0000
-1.4314 TO LOWER 0.0000
-1.7324 TO MEET 0.0000
-1.1303 TO REDUCE -0.0872
-1.7324 TO SEE 0.0000
-1.7324 TO TAKE -0.0969
-0.3010 TOBIAS </s> -0.3010
-0.3010 TOGO </s> -0.3010
-0.3010 TOO MUCH 0.0000
-0.3010 TWELVE YEARS 0.0000
-1.0000 TWENTY FIVE -0.1461
-1.0000 TWENTY NINE -0.1347
-1.0000 TWENTY SEVEN -0.0348
-0.6990 TWENTY SIX -0.0792
-1.1461 TWO PIECE 0.0000
-0.3680 TWO YEARS 0.0000
-0.3010 UKRAINE </s> -0.3010
-0.3010 UNDERSTAND </s> -0.3010
-1.5051 WANT A -0.2499
-1.5051 WANT CAKE -0.0293
-1.5051 WANT EIGHT -0.2499
-1.5051 WANT FIVE -0.2041
-1.5051 WANT FOUR -0.2788
-1.2041 WANT LESS 0.0000
-1.5051 WANT MORE -0.0969
-1.5051 WANT NINE -0.2139
-1.2041 WANT TEN 0.0000
-1.5051 WANT THREE -0.1549
-0.9031 WANT TO -0.2021
-0.4771 WAS A -0.1919
-1.0792 WAS OUR 0.0000
-1.0792 WAS THE 0.0000
-0.3010 WELLCOME </s> -0.3010
-1.1461 WHAT CAN -0.0362
-0.5441 WHAT HAPPEN 0.0000
-0.8451 WHAT IS -0.2908
-0.7782 WHERE ARE -0.0902
-1.0792 WHERE CAN -0.2817
-0.7782 WHERE DO -0.0969
-1.0792 WHERE SHOULD 0.0000
-0.6021 WHY </s> -0.3010
-0.6021 WHY DOES 0.0000
-0.3010 WITH YOU -0.2527
-0.3802 WOULD LIKE 0.0000
-1.0792 WOULD YOU -0.2591
-0.3010 YEARS OLD -0.0160
-0.3010 YES </s> -0.3010
-0.9777 YOU </s> -0.3010
-1.7047 YOU ARE -0.2478
-1.8808 YOU COME 0.0000
-1.8808 YOU CUT 0.0000
-2.1818 YOU DECREASE -0.1549
-2.1818 YOU DOING 0.0000
-1.4037 YOU DROP 0.0000
-1.7047 YOU FEELING -0.2304
-1.8808 YOU FIND 0.0000
-1.8808 YOU FROM -0.2825
-1.2276 YOU GET -0.1065
-1.2276 YOU GIVE 0.0000
-1.5798 YOU HELP 0.0000
-2.1818 YOU LATER 0.0000
-2.1818 YOU MAKE 0.0000
-1.4829 YOU OFFER 0.0000
-2.1818 YOU OK 0.0000
-1.4829 YOU REDUCE 0.0000
-2.1818 YOU SAY 0.0000
-1.8808 YOU TAKE -0.0969
-0.3010 YOUR NAME -0.2891

\3-grams:
-0.3010 <s> ARE YOU
-0.3010 <s> CALL ME
-1.6232 <s> CAN I
-0.3222 <s> CAN YOU
-1.6021 <s> COULD I
-0.3233 <s> COULD YOU
-0.3010 <s> EVERYTHING IS
-0.4771 <s> GOOD AFTERNOON
-0.7782 <s> GOOD MORNING
-0.3010 <s> GOODBYE </s>
-0.3010 <s> HELLO </s>
-0.8451 <s> HOW ARE
-1.4472 <s> HOW DID
-1.4472 <s> HOW DO
-0.9700 <s> HOW IS
-0.9700 <s> HOW OLD
-1.1461 <s> HOW WAS
-0.5759 <s> I AM
-1.2990 <s> I COME
-2.3201 <s> I DID
-2.3201 <s> I DIDNT
-2.6212 <s> I DO
-1.8430 <s> I DONT
-1.1441 <s> I NEED
-1.4171 <s> I WANT
-1.3201 <s> I WOULD
-0.3010 <s> IT WAS
-0.4771 <s> MAY I
-0.7782 <s> MAY YOU
-0.3010 <s> MY NAME
-0.3010 <s> NICE TO
-0.3010 <s> NO </s>
-0.3010 <s> NOT AT
-0.3010 <s> OF COURSE
-0.3010 <s> ONE MORE
-0.3010 <s> PEOPLE CALL
-0.3010 <s> SEE YOU
-0.3010 <s> THANK YOU
-1.1461 <s> WHAT CAN
-0.5441 <s> WHAT HAPPEN
-0.8451 <s> WHAT IS
-0.7782 <s> WHERE ARE
-1.0792 <s> WHERE CAN
-0.7782 <s> WHERE DO
-1.0792 <s> WHERE SHOULD
-0.6021 <s> WHY </s>
-0.6021 <s> WHY DOES
-0.3010 <s> WOULD YOU
-0.3010 <s> YES </s>
-0.3010 <s> YOU ARE
-0.3010 A PIECE OF
-0.3010 A PLEASURE TO
-0.3010 A SEAT </s>
-0.3010 AM BAD </s>
-0.3010 AM EIGHT YEARS
-1.1461 AM EIGTHY EIGHT
-1.4472 AM EIGTHY FIVE
-1.1461 AM EIGTHY FOUR
-1.4472 AM EIGTHY ONE
-0.9700 AM EIGTHY SEVEN
-1.1461 AM EIGTHY SIX
-1.4472 AM EIGTHY THREE
-1.4472 AM EIGTHY TWO
-1.4472 AM EIGTHY YEARS
-0.3010 AM ELEVEN YEARS
-0.5229 AM FEELING BAD
-0.6990 AM FEELING GOOD
-0.3010 AM FIFTEEN YEARS
-1.4150 AM FIFTY EIGHT
-1.4150 AM FIFTY FIVE
-1.4150 AM FIFTY FOUR
-1.1139 AM FIFTY NINE
-1.1139 AM FIFTY ONE
-1.4150 AM FIFTY SEVEN
-1.1139 AM FIFTY SIX
-1.4150 AM FIFTY THREE
-1.4150 AM FIFTY TWO
-1.4150 AM FIFTY YEARS
-0.3010 AM FIVE YEARS
-1.2553 AM FORTY EIGHT
-1.2553 AM FORTY FIVE
-1.2553 AM FORTY FOUR
-1.2553 AM FORTY SEVEN
-0.7782 AM FORTY TWO
-0.9542 AM FORTY YEARS
-1.3617 AM FROM ASIA
-1.3617 AM FROM AUSTRALIA
-1.6628 AM FROM CHINA
-1.3617 AM FROM EUROPE
-1.3617 AM FROM GERMANY
-1.6628 AM FROM GREECE
-1.3617 AM FROM INDIAN
-1.6628 AM FROM JAPAN
-1.3617 AM FROM NORWAY
-1.6628 AM FROM RUSSIA
-1.6628 AM FROM SOUTH
-1.6628 AM FROM SUD
-1.3617 AM FROM SWEDEN
-1.6628 AM FROM SWITZERLAND
-1.6628 AM FROM TOGO
-1.6628 AM FROM UKRAINE
-0.3010 AM GOOD </s>
-0.3010 AM HUNDRED YEARS
-0.3010 AM NINE YEARS
-0.3010 AM NINETEEN YEARS
-0.7782 AM NINETY FOUR
-0.7782 AM NINETY THREE
-0.7782 AM NINETY YEARS
-0.3010 AM NOT FEELING
-0.3010 AM OK </s>
-0.3010 AM ONE YEARS
-0.3010 AM SEVEN YEARS
-0.3010 AM SEVENTEEN YEARS
-1.1461 AM SEVENTY EIGHT
-0.6690 AM SEVENTY FOUR
-0.6690 AM SEVENTY YEARS
-0.3010 AM SIX YEARS
-1.0792 AM SIXTY EIGHT
-1.0792 AM SIXTY NINE
-0.7782 AM SIXTY ONE
-1.0792 AM SIXTY SEVEN
-1.0792 AM SIXTY TWO
-1.0000 AM THIRTY FIVE
-1.0000 AM THIRTY FOUR
-0.6990 AM THIRTY NINE
-1.0000 AM THIRTY SEVEN
-0.3010 AM TWELVE YEARS
-1.0000 AM TWENTY FIVE
-1.0000 AM TWENTY NINE
-1.0000 AM TWENTY SEVEN
-0.6990 AM TWENTY SIX
-0.3010 ARE KIND </s>
-0.3010 ARE WELLCOME </s>
-0.8239 ARE YOU </s>
-1.3010 ARE YOU DOING
-0.8239 ARE YOU FEELING
-1.0000 ARE YOU FROM
-1.3010 ARE YOU OK
-0.3010 AT ALL </s>
-0.3010 AWAY MY ORDER
-0.3010 AWAY SOME PIECE
-0.3010 BE WITH YOU
-0.3010 CAKE AGAIN </s>
-1.7634 CALL ME </s>
-2.0645 CALL ME ADRIAN
-2.0645 CALL ME ALEXANDER
-2.0645 CALL ME ALEXIS
-1.5873 CALL ME ALINA
-1.7634 CALL ME ANDREI
-1.4624 CALL ME ARTHUR
-1.7634 CALL ME CHRIS
-2.0645 CALL ME DOMINIC
-1.7634 CALL ME ELIAS
-1.5873 CALL ME FERENC
-2.0645 CALL ME FERESHTA
-1.5873 CALL ME FEROZ
-2.0645 CALL ME FRANKLIN
-2.0645 CALL ME GAYANE
-1.7634 CALL ME GEORG
-1.7634 CALL ME HAGEN
-2.0645 CALL ME JASMINE
-1.5873 CALL ME KEVIN
-1.5873 CALL ME LENA
-1.5873 CALL ME LISSET
-1.7634 CALL ME LUKAS
-1.5873 CALL ME MAREIKE
-1.5873 CALL ME MICHAEL
-1.4624 CALL ME PASCALE
-1.7634 CALL ME PATRICK
-2.0645 CALL ME RAFAEL
-2.0645 CALL ME TOBIAS
-0.6021 CAN I HAVE
-0.6021 CAN I SIT
-1.3222 CAN YOU DROP
-0.9243 CAN YOU GET
-1.1461 CAN YOU GIVE
-1.0212 CAN YOU HELP
-1.6232 CAN YOU MAKE
-1.3222 CAN YOU OFFER
-1.1461 CAN YOU REDUCE
-1.6232 CAN YOU SAY
-1.3617 COME FROM </s>
-1.3617 COME FROM AMERICA
-1.3617 COME FROM AUSTRALIA
-1.1856 COME FROM BELGIUM
-1.6628 COME FROM CHINA
-1.6628 COME FROM GHANA
-1.3617 COME FROM GREECE
-1.6628 COME FROM INDIAN
-1.6628 COME FROM MALIA
-1.6628 COME FROM NORWAY
-1.3617 COME FROM RUSSIA
-1.6628 COME FROM SOUTH
-1.6628 COME FROM SPAIN
-1.6628 COME FROM SUD
-1.3617 COME FROM SWITZERLAND
-0.3010 COULD I HAVE
-1.5798 COULD YOU CUT
-1.5798 COULD YOU DECREASE
-0.9777 COULD YOU DROP
-0.9777 COULD YOU GET
-0.8808 COULD YOU GIVE
-1.2788 COULD YOU REDUCE
-1.2788 COULD YOU TAKE
-0.3010 CUT CAKE </s>
-0.3010 DECREASE MY ORDER
-0.3010 DECREASE SOME PIECE
-0.3010 DID NOT GET
-0.3010 DID YOU FIND
-0.3010 DIDNT GET YOU
-0.3010 DO NOT </s>
-0.4771 DO YOU COME
-0.7782 DO YOU FIND
-0.3010 DOES IT TAKE
-0.3010 DONT GET YOU
-0.3010 DONT UNDERSTAND </s>
-0.3010 DROP MY ORDER
-0.3010 DROP SOME PIECE
-0.3010 EIGHT PIECE OF
-0.3010 EIGHT YEARS OLD
-0.3010 EIGTHY EIGHT YEARS
-0.3010 EIGTHY FIVE YEARS
-0.3010 EIGTHY FOUR YEARS
-0.3010 EIGTHY ONE YEARS
-0.3010 EIGTHY SEVEN YEARS
-0.3010 EIGTHY SIX YEARS
-0.3010 EIGTHY THREE YEARS
-0.3010 EIGTHY TWO YEARS
-0.3010 EIGTHY YEARS OLD
-0.3010 ELEVEN YEARS OLD
-0.3010 EVERYTHING IS OK
-0.3010 FEELING BAD </s>
-0.3010 FEELING GOOD </s>
-0.3010 FEW PIECE OF
-0.3010 FIFTEEN YEARS OLD
-0.3010 FIFTY EIGHT YEARS
-0.3010 FIFTY FIVE YEARS
-0.3010 FIFTY FOUR YEARS
-0.3010 FIFTY NINE YEARS
-0.3010 FIFTY ONE YEARS
-0.3010 FIFTY SEVEN YEARS
-0.3010 FIFTY SIX YEARS
-0.3010 FIFTY THREE YEARS
-0.3010 FIFTY TWO YEARS
-0.3010 FIFTY YEARS OLD
-0.3010 FIND OUR CONVERSATION
-0.3010 FIVE PIECE OF
-0.3010 FIVE YEARS OLD
-0.3010 FORTY EIGHT YEARS
-0.3010 FORTY FIVE YEARS
-0.3010 FORTY FOUR YEARS
-0.3010 FORTY SEVEN YEARS
-0.3010 FORTY TWO YEARS
-0.3010 FORTY YEARS OLD
-0.3010 FOUR PIECE OF
-0.3010 FOUR YEARS OLD
-0.3010 FROM AMERICA </s>
-0.3010 FROM ASIA </s>
-0.3010 FROM AUSTRALIA </s>
-0.3010 FROM BELGIUM </s>
-0.3010 FROM CHINA </s>
-0.3010 FROM EUROPE </s>
-0.3010 FROM GERMANY </s>
-0.3010 FROM GHANA </s>
-0.3010 FROM GREECE </s>
-0.3010 FROM INDIAN </s>
-0.3010 FROM JAPAN </s>
-0.3010 FROM MALIA </s>
-0.3010 FROM NORWAY </s>
-0.3010 FROM RUSSIA </s>
-0.3010 FROM SOUTH AFRICA
-0.3010 FROM SPAIN </s>
-0.3010 FROM SUD KOREA
-0.3010 FROM SWEDEN </s>
-0.3010 FROM SWITZERLAND </s>
-0.3010 FROM TOGO </s>
-0.3010 FROM UKRAINE </s>
-0.3010 GET FEW PIECE
-0.3010 GET LESS PIECE
-0.3010 GET MORE PIECE
-0.3010 GET YOU </s>
-0.3010 GIVE CAKE </s>
-0.6990 GIVE ME FEW
-1.0000 GIVE ME LESS
-0.6990 GIVE ME SOME
-0.3010 GOOD AFTERNOON </s>
-0.3010 GOOD MORNING </s>
-0.3010 HAVE A SEAT
-0.3010 HELP ME </s>
-0.3010 HOW ARE YOU
-0.3010 HOW DID YOU
-0.3010 HOW DO YOU
-0.7782 HOW IS OUR
-0.4771 HOW IS THE
-0.3010 HOW OLD ARE
-0.6021 HOW WAS OUR
-0.6021 HOW WAS THE
-0.3010 HUNDRED YEARS OLD
-2.0453 I AM BAD
-2.3464 I AM EIGHT
-1.2002 I AM EIGTHY
-2.3464 I AM ELEVEN
-1.6474 I AM FEELING
-2.3464 I AM FIFTEEN
-1.2324 I AM FIFTY
-2.3464 I AM FIVE
-1.3921 I AM FORTY
-0.9846 I AM FROM
-2.3464 I AM GOOD
-2.3464 I AM HUNDRED
-2.3464 I AM NINE
-2.3464 I AM NINETEEN
-1.8692 I AM NINETY
-2.0453 I AM NOT
-2.3464 I AM OK
-2.3464 I AM ONE
-1.8692 I AM SEVEN
-2.3464 I AM SEVENTEEN
-1.5013 I AM SEVENTY
-2.0453 I AM SIX
-1.5682 I AM SIXTY
-1.6474 I AM THIRTY
-2.3464 I AM TWELVE
-1.6474 I AM TWENTY
-0.3010 I COME FROM
-0.3010 I DID NOT
-0.6021 I DIDNT </s>
-0.6021 I DIDNT GET
-0.3010 I DO NOT
-1.0792 I DONT </s>
-0.7782 I DONT GET
-0.6021 I DONT UNDERSTAND
-0.3010 I HAVE A
-1.7782 I NEED A
-1.7782 I NEED BEER
-1.4771 I NEED CAKE
-1.7782 I NEED DRINK
-1.7782 I NEED EIGHT
-1.7782 I NEED LESS
-1.7782 I NEED MORE
-1.4771 I NEED NINE
-1.7782 I NEED SEVEN
-1.7782 I NEED SIX
-1.4771 I NEED SOME
-1.7782 I NEED TEN
-1.4771 I NEED THIRD
-1.4771 I NEED THREE
-0.7368 I NEED TO
-0.3010 I SIT </s>
-1.5051 I WANT A
-1.5051 I WANT CAKE
-1.5051 I WANT EIGHT
-1.5051 I WANT FIVE
-1.5051 I WANT FOUR
-1.2041 I WANT LESS
-1.5051 I WANT MORE
-1.5051 I WANT NINE
-1.2041 I WANT TEN
-1.5051 I WANT THREE
-0.9031 I WANT TO
-0.3010 I WOULD LIKE
-0.3010 INCREASE MY ORDER
-0.3010 IS ALEXANDER </s>
-0.3010 IS ALEXIS </s>
-0.3010 IS ALINA </s>
-0.3010 IS ANDREA </s>
-0.3010 IS ANDREI </s>
-0.3010 IS ASIL </s>
-0.3010 IS CHRIS </s>
-0.3010 IS CONSTANTIN </s>
-0.3010 IS DOMINIC </s>
-0.3010 IS ELIAS </s>
-0.3010 IS GAYANE </s>
-0.3010 IS HAGEN </s>
-0.3010 IS HENDRIK </s>
-0.3010 IS KEVIN </s>
-0.3010 IS LENA </s>
-0.3010 IS LISSET </s>
-0.3010 IS LUKAS </s>
-0.3010 IS MAREIKE </s>
-0.3010 IS OK </s>
-0.3010 IS OTTHEIN </s>
-0.3010 IS OUR CONVERSATION
-0.3010 IS PASCALE </s>
-0.3010 IS PATRICK </s>
-0.3010 IS THE CONVERSATION
-0.3010 IS TOBIAS </s>
-0.3010 IS YOUR NAME
-0.3010 IT TAKE TOO
-0.3010 IT WAS A
-0.3010 LESS PIECE OF
-0.3010 LIKE CAKE </s>
-0.3010 LIKE FIVE PIECE
-0.3010 LIKE LESS PIECE
-0.3010 LIKE NINE PIECE
-0.3010 LIKE SIX PIECE
-0.3010 LIKE SOME PIECE
-0.3010 LIKE TEN PIECE
-0.3010 LIKE THREE PIECE
-0.5441 LIKE TO INCREASE
-1.1461 LIKE TO LOWER
-0.8451 LIKE TO REDUCE
-0.3010 LIKE TWO PIECE
-0.3010 LOWER MY ORDER
-0.6021 MAY I HAVE
-0.6021 MAY I SIT
-0.3010 MAY YOU CUT
-0.3010 ME ADRIAN </s>
-0.3010 ME ALEXANDER </s>
-0.3010 ME ALEXIS </s>
-0.3010 ME ALINA </s>
-0.3010 ME ANDREI </s>
-0.3010 ME ARTHUR </s>
-0.3010 ME CHRIS </s>
-0.3010 ME DOMINIC </s>
-0.3010 ME ELIAS </s>
-0.3010 ME FERENC </s>
-0.3010 ME FERESHTA </s>
-0.3010 ME FEROZ </s>
-0.3010 ME FEW PIECE
-0.3010 ME FRANKLIN </s>
-0.3010 ME GAYANE </s>
-0.3010 ME GEORG </s>
-0.3010 ME HAGEN </s>
-0.3010 ME JASMINE </s>
-0.3010 ME KEVIN </s>
-0.3010 ME LENA </s>
-0.3010 ME LESS PIECE
-0.3010 ME LISSET </s>
-0.3010 ME LUKAS </s>
-0.3010 ME MAREIKE </s>
-0.3010 ME MICHAEL </s>
-0.3010 ME PASCALE </s>
-0.3010 ME PATRICK </s>
-0.3010 ME RAFAEL </s>
-0.3010 ME SOME PIECE
-0.3010 ME TOBIAS </s>
-0.3010 MEET YOU </s>
-0.3010 MORE PIECE OF
-0.3010 MORE TIME </s>
-0.3010 MUCH TIME </s>
-0.3010 MY NAME IS
-0.3010 MY ORDER </s>
-1.8451 NAME IS </s>
-1.5441 NAME IS ALEXANDER
-1.5441 NAME IS ALEXIS
-1.5441 NAME IS ALINA
-1.8451 NAME IS ANDREA
-1.8451 NAME IS ANDREI
-1.3680 NAME IS ASIL
-1.5441 NAME IS CHRIS
-1.5441 NAME IS CONSTANTIN
-1.8451 NAME IS DOMINIC
-1.5441 NAME IS ELIAS
-1.8451 NAME IS GAYANE
-1.8451 NAME IS HAGEN
-1.8451 NAME IS HENDRIK
-1.5441 NAME IS KEVIN
-1.5441 NAME IS LENA
-1.8451 NAME IS LISSET
-1.5441 NAME IS LUKAS
-1.8451 NAME IS MAREIKE
-1.8451 NAME IS OTTHEIN
-1.5441 NAME IS PASCALE
-1.8451 NAME IS PATRICK
-1.8451 NAME IS TOBIAS
-0.3010 NEED A PIECE
-0.3010 NEED BEER </s>
-0.3010 NEED CAKE </s>
-0.3010 NEED DRINK </s>
-0.3010 NEED EIGHT PIECE
-0.3010 NEED LESS PIECE
-0.3010 NEED MORE PIECE
-0.3010 NEED NINE PIECE
-0.3010 NEED SEVEN PIECE
-0.3010 NEED SIX PIECE
-0.3010 NEED SOME PIECE
-0.3010 NEED TEN PIECE
-0.3010 NEED THIRD PIECE
-0.3010 NEED THREE PIECE
-0.7404 NEED TO DECREASE
-0.8653 NEED TO GET
-1.3424 NEED TO LOWER
-1.0414 NEED TO REDUCE
-1.3424 NEED TO TAKE
-0.3010 NICE TO SEE
-0.3010 NINE PIECE OF
-0.3010 NINE YEARS OLD
-0.3010 NINETEEN YEARS OLD
-0.3010 NINETY FOUR YEARS
-0.3010 NINETY THREE YEARS
-0.3010 NINETY YEARS OLD
-0.3010 NOT AT ALL
-0.3010 NOT FEELING GOOD
-0.3010 NOT GET YOU
-0.3399 OF CAKE </s>
-1.3680 OF CAKE AGAIN
-0.3010 OF COURSE </s>
-0.3010 OFFER CAKE </s>
-0.3010 OLD ARE YOU
-0.3010 ONE MORE TIME
-0.3010 ONE YEARS OLD
-0.3010 OUR CONVERSATION </s>
-0.3010 PEOPLE CALL ME
-0.3010 PIECE OF CAKE
-0.4260 PLEASURE TO BE
-0.9031 PLEASURE TO MEET
-0.3010 REDUCE MY ORDER
-0.3010 REDUCE SOME PIECE
-0.3010 SAY ONE MORE
-0.4260 SEE YOU </s>
-0.9031 SEE YOU LATER
-0.3010 SEVEN PIECE OF
-0.3010 SEVEN YEARS OLD
-0.3010 SEVENTEEN YEARS OLD
-0.3010 SEVENTY EIGHT YEARS
-0.3010 SEVENTY FOUR YEARS
-0.3010 SEVENTY YEARS OLD
-0.3010 SHOULD I SIT
-0.3010 SIX PIECE OF
-0.3010 SIX YEARS OLD
-0.3010 SIXTY EIGHT YEARS
-0.3010 SIXTY NINE YEARS
-0.3010 SIXTY ONE YEARS
-0.3010 SIXTY SEVEN YEARS
-0.3010 SIXTY TWO YEARS
-0.3010 SOME PIECE OF
-0.3010 SOUTH AFRICA </s>
-0.3010 SUD KOREA </s>
-0.4771 TAKE AWAY MY
-0.7782 TAKE AWAY SOME
-0.3010 TAKE TOO MUCH
-0.3010 TEN PIECE OF
-0.3010 THANK YOU </s>
-0.3010 THE CONVERSATION </s>
-0.3010 THIRD PIECE OF
-0.3010 THIRTY FIVE YEARS
-0.3010 THIRTY FOUR YEARS
-0.3010 THIRTY NINE YEARS
-0.3010 THIRTY SEVEN YEARS
-0.3010 THREE PIECE OF
-0.3010 THREE YEARS OLD
-0.3010 TO BE WITH
-0.6021 TO DECREASE MY
-0.6021 TO DECREASE SOME
-0.3010 TO DROP SOME
-0.9031 TO GET FEW
-0.9031 TO GET LESS
-0.6021 TO GET MORE
-0.3010 TO INCREASE MY
-0.3010 TO LOWER MY
-0.3010 TO MEET YOU
-0.3010 TO REDUCE SOME
-0.3010 TO SEE YOU
-0.3010 TO TAKE AWAY
-0.3010 TOO MUCH TIME
-0.3010 TWELVE YEARS OLD
-0.3010 TWENTY FIVE YEARS
-0.3010 TWENTY NINE YEARS
-0.3010 TWENTY SEVEN YEARS
-0.3010 TWENTY SIX YEARS
-0.3010 TWO PIECE OF
-0.3010 TWO YEARS OLD
-0.3010 WANT A PIECE
-0.3010 WANT CAKE </s>
-0.3010 WANT EIGHT PIECE
-0.3010 WANT FIVE PIECE
-0.3010 WANT FOUR PIECE
-0.3010 WANT LESS PIECE
-0.3010 WANT MORE PIECE
-0.3010 WANT NINE PIECE
-0.3010 WANT TEN PIECE
-0.3010 WANT THREE PIECE
-0.6021 WANT TO DECREASE
-0.9031 WANT TO DROP
-0.9031 WANT TO GET
-0.3010 WAS A PLEASURE
-0.3010 WAS OUR CONVERSATION
-0.3010 WAS THE CONVERSATION
-0.3010 WHAT CAN YOU
-0.3010 WHAT HAPPEN </s>
-0.3010 WHAT IS YOUR
-0.3010 WHERE ARE YOU
-0.3010 WHERE CAN I
-0.3010 WHERE DO YOU
-0.3010 WHERE SHOULD I
-0.3010 WHY DOES IT
-0.3010 WITH YOU </s>
-1.3010 WOULD LIKE CAKE
-1.1249 WOULD LIKE FIVE
-1.6021 WOULD LIKE LESS
-1.6021 WOULD LIKE NINE
-1.6021 WOULD LIKE SIX
-1.3010 WOULD LIKE SOME
-1.6021 WOULD LIKE TEN
-1.6021 WOULD LIKE THREE
-0.7570 WOULD LIKE TO
-1.6021 WOULD LIKE TWO
-0.9031 WOULD YOU GIVE
-0.4260 WOULD YOU OFFER
-0.3010 YEARS OLD </s>
-0.4771 YOU ARE KIND
-0.7782 YOU ARE WELLCOME
-0.3010 YOU COME FROM
-0.3010 YOU CUT CAKE
-0.3010 YOU DECREASE SOME
-0.3010 YOU DOING </s>
-0.4771 YOU DROP MY
-0.7782 YOU DROP SOME
-0.3010 YOU FEELING </s>
-0.3010 YOU FIND OUR
-0.3010 YOU FROM </s>
-0.7782 YOU GET FEW
-0.6532 YOU GET LESS
-0.9542 YOU GET MORE
-0.6532 YOU GIVE CAKE
-0.5563 YOU GIVE ME
-0.3010 YOU HELP ME
-0.3010 YOU LATER </s>
-0.3010 YOU MAKE </s>
-0.3010 YOU OFFER CAKE
-0.3010 YOU OK </s>
-0.6990 YOU REDUCE MY
-0.5229 YOU REDUCE SOME
-0.3010 YOU SAY ONE
-0.3010 YOU TAKE AWAY
-0.3010 YOUR NAME </s>

\end\
