Language model created by QuickLM on Mon Jun 19 04:45:27 EDT 2017
Copyright (c) 1996-2010 Carnegie Mellon University and Alexander I. Rudnicky

The model is in standard ARPA format, designed by Doug Paul while he was at MITRE.

The code that was used to produce this language model is available in Open Source.
Please visit http://www.speech.cs.cmu.edu/tools/ for more information

The (fixed) discount mass is 0.5. The backoffs are computed using the ratio method.
This model based on a corpus of 528 sentences and 212 words

\data\
ngram 1=212
ngram 2=611
ngram 3=844

\1-grams:
-1.0880 </s> -0.3010
-1.0880 <s> -0.2470
-3.1117 A -0.2987
-3.8106 ABSOLUTELY -0.2640
-3.3335 ADRIAN -0.2640
-3.2086 AFRICA -0.2640
-3.3335 AFTERNOON -0.2640
-3.8106 AGE -0.2640
-3.3335 ALEXANDER -0.2640
-3.2086 ALEXIS -0.2640
-3.3335 ALINA -0.2640
-3.8106 ALL -0.2640
-1.5905 AM -0.2371
-3.5096 AMERICA -0.2640
-3.3335 ANDREA -0.2640
-3.0325 ANDREI -0.2640
-2.6645 ARE -0.2970
-3.0325 ARTHUR -0.2640
-3.5096 ASIA -0.2640
-3.0325 ASIL -0.2640
-3.8106 AT -0.3010
-3.5096 AUSTRALIA -0.2640
-2.9655 BAD -0.2640
-3.8106 BE -0.3010
-3.5096 BEER -0.2640
-3.5096 BELGIUM -0.2640
-3.5096 BYE -0.2640
-2.1385 CAKE -0.2640
-1.8422 CALL -0.2947
-3.5096 CAMEROON -0.2640
-2.7315 CAN -0.2582
-3.8106 CANNOT -0.2640
-3.8106 CANT -0.2640
-3.3335 CHINA -0.2640
-3.3335 CHRIS -0.2640
-3.5096 CLEAR -0.2640
-2.2309 COME -0.2959
-3.3335 CONSTANTIN -0.2640
-2.7692 CONVERSATION -0.2640
-2.9655 COULD -0.2582
-3.8106 COULDNT -0.2640
-3.8106 COURSE -0.2640
-3.2086 CUT -0.2979
-3.3335 DANIEL -0.2640
-2.7315 DID -0.2582
-2.9655 DIDNT -0.2633
-2.8106 DO -0.2582
-3.8106 DOES -0.3004
-3.8106 DOING -0.2640
-3.0325 DOMINIC -0.2640
-2.9075 DONT -0.2632
-3.3335 DRINK -0.2640
-3.5096 EGYPT -0.2640
-2.7315 EIGHT -0.2920
-3.8106 EIGHTEEN -0.2942
-2.8106 EIGTHY -0.2865
-3.8106 ELEVEN -0.2942
-3.0325 ELIAS -0.2640
-3.5096 ENGLAND -0.2640
-3.5096 ENJOY -0.3004
-3.5096 EUROPE -0.2640
-3.8106 EVENING -0.2640
-3.2086 EVERYTHING -0.2590
-2.7315 FEELING -0.2620
-3.0325 FERENC -0.2640
-3.3335 FERESHTA -0.2640
-3.0325 FEROZ -0.2640
-3.8106 FIFTEEN -0.2942
-2.8106 FIFTY -0.2865
-3.1117 FIND -0.2996
-2.7315 FIVE -0.2920
-3.8106 FOOD -0.2640
-2.7692 FORTY -0.2865
-2.6967 FOUR -0.2920
-3.0325 FRANKLIN -0.2640
-1.9298 FROM -0.2584
-3.3335 GAYANE -0.2640
-3.3335 GEORG -0.2640
-3.3335 GERMANY -0.2640
-3.0325 GET -0.2972
-3.5096 GHANA -0.2640
-3.2086 GIVE -0.2979
-3.5096 GOING -0.2640
-2.4884 GOOD -0.2633
-3.8106 GOODBYE -0.2640
-3.5096 GREECE -0.2640
-3.3335 HAGEN -0.2640
-3.8106 HAPPEN -0.2640
-3.8106 HEALTHY -0.2640
-3.3335 HELLO -0.2640
-3.5096 HELP -0.2571
-3.3335 HENDRIK -0.2640
-2.5096 HOW -0.2865
-3.8106 HUNDRED -0.2942
-1.3588 I -0.2791
-3.8106 ILL -0.2640
-3.8106 INDIA -0.2640
-3.5096 INDIAN -0.2640
-1.9846 IS -0.2482
-2.8564 IT -0.2960
-3.5096 ITALY -0.2640
-3.5096 JAPAN -0.2640
-3.2086 JASMINE -0.2640
-3.5096 KENYA -0.2640
-3.1117 KEVIN -0.2640
-3.8106 KIND -0.2640
-3.5096 KOREA -0.2640
-3.8106 LATER -0.2640
-3.8106 LEAVING -0.2640
-3.3335 LENA -0.2640
-2.7692 LIKE -0.2905
-3.2086 LISSET -0.2640
-3.3335 LUKAS -0.2640
-3.8106 MAKE -0.2640
-3.8106 MALI -0.2640
-3.8106 MALIA -0.2640
-3.2086 MAREIKE -0.2640
-3.3335 MAY -0.2972
-1.8375 ME -0.2534
-3.5096 MEET -0.2972
-3.8106 MENTION -0.2640
-3.0325 MICHAEL -0.2640
-3.3335 MIHAI -0.2640
-3.2086 MORE -0.3007
-3.3335 MORNING -0.2640
-3.5096 MOROCCO -0.2640
-3.8106 MUCH -0.3007
-2.0864 MY -0.2974
-2.0782 NAME -0.2591
-2.4884 NEED -0.2897
-3.5096 NETHERLANDS -0.2640
-3.5096 NICE -0.3008
-3.8106 NIGHT -0.2640
-2.6967 NINE -0.2920
-3.8106 NINETEEN -0.2942
-2.8106 NINETY -0.2865
-3.1117 NO -0.2640
-3.5096 NORWAY -0.2640
-2.4682 NOT -0.2604
-2.2921 OF -0.2978
-3.1117 OFFER -0.2606
-3.0325 OK -0.2640
-1.7936 OLD -0.2630
-2.6967 ONE -0.2939
-3.2086 OTTHEIN -0.2640
-3.1117 OUR -0.3003
-3.2086 PASCALE -0.2640
-3.3335 PATRICK -0.2640
-3.8106 PEOLE -0.2947
-2.1574 PEOPLE -0.2947
-2.3055 PIECE -0.2988
-3.5096 PLEASURE -0.3008
-3.5096 POLAND -0.2640
-3.5096 POSSIBLE -0.2640
-3.3335 RAFAEL -0.2640
-3.2086 REPEAT -0.2640
-3.5096 ROMANIA -0.2640
-3.1117 RUSSIA -0.2640
-3.3335 SASCHA -0.2640
-3.5096 SAY -0.3002
-3.3335 SEBASTIAN -0.2640
-3.3335 SEE -0.2972
-3.5096 SENEGAL -0.2640
-2.6967 SEVEN -0.2920
-3.8106 SEVENTEEN -0.2942
-2.7692 SEVENTY -0.2865
-3.8106 SICK -0.2640
-2.7315 SIX -0.2920
-3.8106 SIXTEEN -0.2942
-2.8106 SIXTY -0.2865
-3.8106 SOMETHING -0.2640
-3.5096 SOUTH -0.3008
-3.5096 SPAIN -0.2640
-3.5096 SUD -0.3009
-3.5096 SWEDEN -0.2640
-3.5096 SWITZERLAND -0.2640
-3.8106 TAKE -0.3010
-3.2086 TEN -0.2920
-3.8106 THANK -0.2972
-3.1117 THE -0.3003
-3.8106 THIRTEEN -0.2942
-2.8106 THIRTY -0.2865
-2.7315 THREE -0.2920
-3.1117 TIME -0.2640
-3.2086 TO -0.3006
-3.3335 TOBIAS -0.2640
-3.5096 TOGO -0.2640
-3.8106 TOO -0.3010
-3.5096 TUNISIA -0.2640
-3.5096 TURKEY -0.2640
-3.8106 TWELVE -0.2942
-2.8106 TWENTY -0.2865
-2.7315 TWO -0.2920
-3.5096 UKRAINE -0.2640
-3.5096 UNCLEAR -0.2640
-3.2086 UNDERSTAND -0.2640
-2.7692 WANT -0.2905
-3.0325 WAS -0.2613
-3.8106 WASNT -0.2640
-3.5096 WATER -0.2640
-3.8106 WELLCOME -0.2640
-3.0325 WHAT -0.2949
-3.5096 WHERE -0.2994
-3.8106 WHO -0.3001
-3.3335 WHY -0.2623
-3.5096 WISH -0.3008
-3.8106 WITH -0.2972
-2.6645 WOULD -0.2964
-1.8063 YEARS -0.2940
-3.5096 YES -0.2640
-2.0548 YOU -0.2501
-3.3335 YOUR -0.2972

\2-grams:
-3.0237 <s> ABSOLUTELY 0.0000
-3.0237 <s> ARE -0.0580
-1.3516 <s> CALL 0.0000
-2.1206 <s> CAN -0.0669
-2.3247 <s> COULD -0.1091
-2.7226 <s> DID -0.2218
-3.0237 <s> DONT -0.2730
-2.7226 <s> EVERYTHING -0.1761
-2.0237 <s> GOOD -0.1829
-3.0237 <s> GOODBYE 0.0000
-2.5465 <s> HELLO 0.0000
-1.7226 <s> HOW 0.0000
-0.5719 <s> I 0.0000
-2.1206 <s> IT -0.0458
-2.5465 <s> MAY 0.0000
-1.2994 <s> MY 0.0000
-2.7226 <s> NICE 0.0000
-2.3247 <s> NO 0.0000
-3.0237 <s> NOT -0.2910
-3.0237 <s> OF -0.2944
-2.7226 <s> ONE -0.2285
-3.0237 <s> PEOLE 0.0000
-1.3705 <s> PEOPLE 0.0000
-2.7226 <s> SEE 0.0000
-3.0237 <s> THANK 0.0000
-2.2455 <s> WHAT 0.0000
-2.7226 <s> WHERE 0.0000
-3.0237 <s> WHO 0.0000
-2.5465 <s> WHY 0.0000
-3.0237 <s> WISH -0.1761
-2.5465 <s> WOULD -0.2518
-2.7226 <s> YES 0.0000
-2.7226 <s> YOU -0.2933
-0.5229 A PIECE 0.0000
-0.6990 A PLEASURE 0.0000
-0.3010 ABSOLUTELY </s> -0.3010
-0.3010 ADRIAN </s> -0.3010
-0.3010 AFRICA </s> -0.3010
-0.3010 AFTERNOON </s> -0.3010
-0.3010 AGE </s> -0.3010
-0.3010 ALEXANDER </s> -0.3010
-0.3010 ALEXIS </s> -0.3010
-0.3010 ALINA </s> -0.3010
-0.3010 ALL </s> -0.3010
-2.5211 AM </s> -0.3010
-1.9191 AM BAD 0.0000
-2.5211 AM EIGHT -0.0969
-2.5211 AM EIGHTEEN 0.0000
-1.5211 AM EIGTHY 0.0000
-2.5211 AM ELEVEN 0.0000
-1.7430 AM FEELING -0.0969
-2.5211 AM FIFTEEN 0.0000
-1.5211 AM FIFTY 0.0000
-2.5211 AM FIVE -0.0969
-1.4797 AM FORTY 0.0000
-2.5211 AM FOUR -0.1165
-0.9529 AM FROM -0.0168
-2.5211 AM GOING 0.0000
-2.0440 AM GOOD -0.1691
-2.5211 AM HEALTHY 0.0000
-2.5211 AM HUNDRED 0.0000
-2.5211 AM ILL 0.0000
-2.5211 AM LEAVING 0.0000
-2.5211 AM NINE -0.1165
-2.5211 AM NINETEEN 0.0000
-1.5211 AM NINETY 0.0000
-1.7430 AM NOT -0.1047
-2.0440 AM OK 0.0000
-2.5211 AM ONE -0.1165
-2.5211 AM SEVEN -0.0902
-2.5211 AM SEVENTEEN 0.0000
-1.4797 AM SEVENTY 0.0000
-2.5211 AM SICK 0.0000
-2.5211 AM SIX -0.0969
-2.5211 AM SIXTEEN 0.0000
-1.5211 AM SIXTY 0.0000
-2.5211 AM TEN -0.2430
-2.5211 AM THIRTEEN 0.0000
-1.5211 AM THIRTY 0.0000
-2.5211 AM THREE -0.0969
-2.5211 AM TWELVE 0.0000
-1.5211 AM TWENTY 0.0000
-2.5211 AM TWO -0.0969
-0.3010 AMERICA </s> -0.3010
-0.3010 ANDREA </s> -0.3010
-0.3010 ANDREI </s> -0.3010
-1.4472 ARE KIND 0.0000
-1.4472 ARE WELLCOME 0.0000
-0.3680 ARE YOU -0.1984
-0.3010 ARTHUR </s> -0.3010
-0.3010 ASIA </s> -0.3010
-0.3010 ASIL </s> -0.3010
-0.3010 AT ALL 0.0000
-0.3010 AUSTRALIA </s> -0.3010
-0.3010 BAD </s> -0.3010
-0.3010 BE WITH 0.0000
-0.3010 BEER </s> -0.3010
-0.3010 BELGIUM </s> -0.3010
-0.3010 BYE </s> -0.3010
-0.3010 CAKE </s> -0.3010
-0.3010 CALL ME 0.0000
-0.3010 CAMEROON </s> -0.3010
-1.3802 CAN </s> -0.3010
-1.3802 CAN NOT -0.1761
-0.3802 CAN YOU -0.2079
-0.3010 CANNOT </s> -0.3010
-0.3010 CANT </s> -0.3010
-0.3010 CHINA </s> -0.3010
-0.3010 CHRIS </s> -0.3010
-0.3010 CLEAR </s> -0.3010
-0.3010 COME FROM -0.0113
-0.3010 CONSTANTIN </s> -0.3010
-0.3010 CONVERSATION </s> -0.3010
-1.1461 COULD </s> -0.3010
-1.1461 COULD NOT -0.1761
-0.4472 COULD YOU -0.2309
-0.3010 COULDNT </s> -0.3010
-0.3010 COURSE </s> -0.3010
-0.3010 CUT CAKE 0.0000
-0.3010 DANIEL </s> -0.3010
-0.9031 DID </s> -0.3010
-0.6812 DID NOT -0.1489
-0.7782 DID YOU -0.2735
-0.6690 DIDNT </s> -0.3010
-0.8451 DIDNT GET 0.0000
-0.8451 DIDNT UNDERSTAND 0.0000
-1.0000 DO </s> -0.3010
-0.8239 DO NOT -0.1761
-0.6021 DO YOU -0.2570
-0.3010 DOES IT -0.2762
-0.3010 DOING </s> -0.3010
-0.3010 DOMINIC </s> -0.3010
-0.7270 DONT </s> -0.3010
-0.9031 DONT GET 0.0000
-1.2041 DONT MENTION 0.0000
-0.9031 DONT UNDERSTAND 0.0000
-0.3010 DRINK </s> -0.3010
-0.3010 EGYPT </s> -0.3010
-0.9031 EIGHT PIECE 0.0000
-0.4260 EIGHT YEARS 0.0000
-0.3010 EIGHTEEN YEARS 0.0000
-1.3010 EIGTHY EIGHT -0.0969
-1.3010 EIGTHY FIVE -0.0969
-1.3010 EIGTHY FOUR -0.1165
-1.3010 EIGTHY NINE -0.1165
-1.3010 EIGTHY ONE -0.1165
-1.3010 EIGTHY SEVEN -0.0902
-1.3010 EIGTHY SIX -0.0969
-1.3010 EIGTHY THREE -0.0969
-1.3010 EIGTHY TWO -0.0969
-1.3010 EIGTHY YEARS 0.0000
-0.3010 ELEVEN YEARS 0.0000
-0.3010 ELIAS </s> -0.3010
-0.3010 ENGLAND </s> -0.3010
-0.6021 ENJOY OUR 0.0000
-0.6021 ENJOY THE 0.0000
-0.3010 EUROPE </s> -0.3010
-0.3010 EVENING </s> -0.3010
-0.9031 EVERYTHING </s> -0.3010
-0.9031 EVERYTHING GOING 0.0000
-0.6021 EVERYTHING IS -0.2945
-0.9031 FEELING </s> -0.3010
-0.9031 FEELING BAD 0.0000
-0.6021 FEELING GOOD -0.1691
-0.3010 FERENC </s> -0.3010
-0.3010 FERESHTA </s> -0.3010
-0.3010 FEROZ </s> -0.3010
-0.3010 FIFTEEN YEARS 0.0000
-1.3010 FIFTY EIGHT -0.0969
-1.3010 FIFTY FIVE -0.0969
-1.3010 FIFTY FOUR -0.1165
-1.3010 FIFTY NINE -0.1165
-1.3010 FIFTY ONE -0.1165
-1.3010 FIFTY SEVEN -0.0902
-1.3010 FIFTY SIX -0.0969
-1.3010 FIFTY THREE -0.0969
-1.3010 FIFTY TWO -0.0969
-1.3010 FIFTY YEARS 0.0000
-1.0000 FIND CONVERSATION 0.0000
-0.6990 FIND OUR 0.0000
-0.6990 FIND THE 0.0000
-0.9031 FIVE PIECE 0.0000
-0.4260 FIVE YEARS 0.0000
-0.3010 FOOD </s> -0.3010
-1.3424 FORTY EIGHT -0.0969
-1.3424 FORTY FIVE -0.0969
-1.3424 FORTY FOUR -0.1165
-1.3424 FORTY NINE -0.1165
-1.3424 FORTY ONE -0.1165
-1.3424 FORTY SEVEN -0.0902
-1.3424 FORTY SIX -0.0969
-1.3424 FORTY THREE -0.0969
-1.3424 FORTY TWO -0.0969
-1.0414 FORTY YEARS 0.0000
-0.8129 FOUR PIECE 0.0000
-0.4607 FOUR YEARS 0.0000
-0.3010 FRANKLIN </s> -0.3010
-1.8808 FROM </s> -0.3010
-1.8808 FROM AFRICA 0.0000
-1.8808 FROM AMERICA 0.0000
-1.8808 FROM ASIA 0.0000
-1.8808 FROM AUSTRALIA 0.0000
-1.8808 FROM BELGIUM 0.0000
-1.8808 FROM CAMEROON 0.0000
-1.7047 FROM CHINA 0.0000
-1.8808 FROM EGYPT 0.0000
-1.8808 FROM ENGLAND 0.0000
-1.8808 FROM EUROPE 0.0000
-1.7047 FROM GERMANY 0.0000
-1.8808 FROM GHANA 0.0000
-1.8808 FROM GREECE 0.0000
-2.1818 FROM INDIA 0.0000
-1.8808 FROM INDIAN 0.0000
-1.8808 FROM ITALY 0.0000
-1.8808 FROM JAPAN 0.0000
-1.8808 FROM KENYA 0.0000
-2.1818 FROM MALI 0.0000
-2.1818 FROM MALIA 0.0000
-1.8808 FROM MOROCCO 0.0000
-1.8808 FROM NETHERLANDS 0.0000
-1.8808 FROM NORWAY 0.0000
-1.8808 FROM POLAND 0.0000
-1.8808 FROM ROMANIA 0.0000
-1.4829 FROM RUSSIA 0.0000
-1.8808 FROM SENEGAL 0.0000
-1.8808 FROM SOUTH 0.0000
-1.8808 FROM SPAIN 0.0000
-1.8808 FROM SUD 0.0000
-1.8808 FROM SWEDEN 0.0000
-1.8808 FROM SWITZERLAND 0.0000
-1.8808 FROM TOGO 0.0000
-1.8808 FROM TUNISIA 0.0000
-1.8808 FROM TURKEY 0.0000
-1.8808 FROM UKRAINE 0.0000
-0.3010 GAYANE </s> -0.3010
-0.3010 GEORG </s> -0.3010
-0.3010 GERMANY </s> -0.3010
-0.3010 GET YOU -0.2264
-0.3010 GHANA </s> -0.3010
-0.3010 GIVE CAKE 0.0000
-0.3010 GOING </s> -0.3010
-0.5819 GOOD </s> -0.3010
-1.1461 GOOD AFTERNOON 0.0000
-1.3222 GOOD BYE 0.0000
-1.6232 GOOD EVENING 0.0000
-1.1461 GOOD MORNING 0.0000
-1.6232 GOOD NIGHT 0.0000
-0.3010 GOODBYE </s> -0.3010
-0.3010 GREECE </s> -0.3010
-0.3010 HAGEN </s> -0.3010
-0.3010 HAPPEN </s> -0.3010
-0.3010 HEALTHY </s> -0.3010
-0.3010 HELLO </s> -0.3010
-0.6021 HELP </s> -0.3010
-0.6021 HELP ME -0.2940
-0.3010 HENDRIK </s> -0.3010
-0.8239 HOW ARE -0.0580
-1.3010 HOW DID -0.2218
-1.1249 HOW DO -0.1761
-1.0000 HOW IS -0.2879
-1.1249 HOW OLD -0.2947
-1.3010 HOW WAS -0.2218
-0.3010 HUNDRED YEARS 0.0000
-0.5327 I AM -0.0000
-2.4518 I CAN -0.2632
-2.7528 I CANNOT 0.0000
-2.7528 I CANT 0.0000
-1.1846 I COME 0.0000
-2.4518 I COULD -0.2341
-2.7528 I COULDNT 0.0000
-1.8497 I DID -0.1249
-1.9077 I DIDNT 0.0000
-2.1508 I DO -0.1761
-1.9077 I DONT -0.0512
-1.4306 I NEED 0.0000
-1.7114 I WANT 0.0000
-2.4518 I WAS -0.2218
-2.7528 I WASNT 0.0000
-2.7528 I WISH -0.1761
-1.7114 I WOULD -0.0843
-0.3010 ILL </s> -0.3010
-0.3010 INDIA </s> -0.3010
-0.3010 INDIAN </s> -0.3010
-2.1271 IS </s> -0.3010
-2.1271 IS ADRIAN 0.0000
-2.1271 IS ALEXANDER 0.0000
-1.8261 IS ALEXIS 0.0000
-2.1271 IS ALINA 0.0000
-2.1271 IS ANDREA 0.0000
-1.8261 IS ANDREI 0.0000
-1.8261 IS ARTHUR 0.0000
-1.8261 IS ASIL 0.0000
-2.1271 IS CHRIS 0.0000
-2.1271 IS CONSTANTIN 0.0000
-2.1271 IS DANIEL 0.0000
-1.8261 IS DOMINIC 0.0000
-1.8261 IS ELIAS 0.0000
-1.8261 IS EVERYTHING -0.1761
-1.8261 IS FERENC 0.0000
-2.1271 IS FERESHTA 0.0000
-1.8261 IS FEROZ 0.0000
-1.8261 IS FRANKLIN 0.0000
-2.1271 IS GAYANE 0.0000
-2.1271 IS GEORG 0.0000
-2.1271 IS GOOD -0.1691
-2.1271 IS HAGEN 0.0000
-2.1271 IS HENDRIK 0.0000
-1.8261 IS JASMINE 0.0000
-1.8261 IS KEVIN 0.0000
-2.1271 IS LENA 0.0000
-1.8261 IS LISSET 0.0000
-2.1271 IS LUKAS 0.0000
-1.8261 IS MAREIKE 0.0000
-1.8261 IS MICHAEL 0.0000
-2.1271 IS MIHAI 0.0000
-1.6500 IS NOT -0.2704
-2.1271 IS OK 0.0000
-1.8261 IS OTTHEIN 0.0000
-2.1271 IS OUR 0.0000
-1.8261 IS PASCALE 0.0000
-2.1271 IS PATRICK 0.0000
-2.1271 IS POSSIBLE 0.0000
-2.1271 IS RAFAEL 0.0000
-2.1271 IS SASCHA 0.0000
-2.1271 IS SEBASTIAN 0.0000
-2.1271 IS THE 0.0000
-2.1271 IS TOBIAS 0.0000
-1.8261 IS UNCLEAR 0.0000
-1.8261 IS YOUR -0.1249
-0.4771 IT IS -0.2811
-1.2553 IT TAKE 0.0000
-0.9542 IT WAS -0.2218
-0.3010 ITALY </s> -0.3010
-0.3010 JAPAN </s> -0.3010
-0.3010 JASMINE </s> -0.3010
-0.3010 KENYA </s> -0.3010
-0.3010 KEVIN </s> -0.3010
-0.3010 KIND </s> -0.3010
-0.3010 KOREA </s> -0.3010
-0.3010 LATER </s> -0.3010
-0.3010 LEAVING </s> -0.3010
-0.3010 LENA </s> -0.3010
-1.3424 LIKE A -0.1461
-1.3424 LIKE CAKE 0.0000
-1.3424 LIKE EIGHT -0.2430
-1.3424 LIKE FIVE -0.2430
-1.3424 LIKE FOUR -0.2285
-1.3424 LIKE NINE -0.2285
-1.3424 LIKE SEVEN -0.2478
-1.3424 LIKE SIX -0.2430
-1.3424 LIKE TEN -0.0969
-1.3424 LIKE THREE -0.2430
-1.3424 LIKE TWO -0.2430
-0.3010 LISSET </s> -0.3010
-0.3010 LUKAS </s> -0.3010
-0.3010 MAKE </s> -0.3010
-0.3010 MALI </s> -0.3010
-0.3010 MALIA </s> -0.3010
-0.3010 MAREIKE </s> -0.3010
-0.3010 MAY YOU -0.2484
-1.7970 ME </s> -0.3010
-1.9731 ME ADRIAN 0.0000
-1.9731 ME ALEXANDER 0.0000
-1.9731 ME ALEXIS 0.0000
-1.9731 ME ALINA 0.0000
-1.9731 ME ANDREA 0.0000
-1.6721 ME ANDREI 0.0000
-1.6721 ME ARTHUR 0.0000
-1.6721 ME ASIL 0.0000
-1.9731 ME CHRIS 0.0000
-1.9731 ME CONSTANTIN 0.0000
-1.9731 ME DANIEL 0.0000
-1.6721 ME DOMINIC 0.0000
-1.6721 ME ELIAS 0.0000
-1.6721 ME FERENC 0.0000
-1.9731 ME FERESHTA 0.0000
-1.6721 ME FEROZ 0.0000
-1.6721 ME FRANKLIN 0.0000
-1.9731 ME GAYANE 0.0000
-1.9731 ME GEORG 0.0000
-1.9731 ME HAGEN 0.0000
-1.9731 ME HENDRIK 0.0000
-1.9731 ME JASMINE 0.0000
-1.7970 ME KEVIN 0.0000
-1.9731 ME LENA 0.0000
-1.9731 ME LISSET 0.0000
-1.9731 ME LUKAS 0.0000
-1.9731 ME MAREIKE 0.0000
-1.6721 ME MICHAEL 0.0000
-1.9731 ME MIHAI 0.0000
-1.9731 ME OTTHEIN 0.0000
-1.9731 ME PASCALE 0.0000
-1.9731 ME PATRICK 0.0000
-1.9731 ME RAFAEL 0.0000
-1.9731 ME SASCHA 0.0000
-1.9731 ME SEBASTIAN 0.0000
-1.9731 ME TOBIAS 0.0000
-0.3010 MEET YOU -0.2264
-0.3010 MENTION </s> -0.3010
-0.3010 MICHAEL </s> -0.3010
-0.3010 MIHAI </s> -0.3010
-0.3010 MORE TIME 0.0000
-0.3010 MORNING </s> -0.3010
-0.3010 MOROCCO </s> -0.3010
-0.3010 MUCH TIME 0.0000
-0.3010 MY NAME -0.0080
-2.0334 NAME </s> -0.3010
-0.3091 NAME IS -0.0824
-1.6232 NEED A -0.1461
-1.3222 NEED BEER 0.0000
-1.6232 NEED CAKE 0.0000
-1.3222 NEED DRINK 0.0000
-1.6232 NEED EIGHT -0.2430
-1.6232 NEED FIVE -0.2430
-1.3222 NEED FOUR -0.2285
-1.3222 NEED NINE -0.2285
-1.6232 NEED SEVEN -0.2478
-1.6232 NEED SIX -0.2430
-1.6232 NEED SOMETHING 0.0000
-1.6232 NEED TEN -0.0969
-1.6232 NEED THREE -0.2430
-1.6232 NEED TWO -0.2430
-1.3222 NEED WATER 0.0000
-1.6232 NEED YOUR -0.2218
-0.3010 NETHERLANDS </s> -0.3010
-0.3010 NICE TO -0.0969
-0.3010 NIGHT </s> -0.3010
-0.8129 NINE PIECE 0.0000
-0.4607 NINE YEARS 0.0000
-0.3010 NINETEEN YEARS 0.0000
-1.3010 NINETY EIGHT -0.0969
-1.3010 NINETY FIVE -0.0969
-1.3010 NINETY FOUR -0.1165
-1.3010 NINETY NINE -0.1165
-1.3010 NINETY ONE -0.1165
-1.3010 NINETY SEVEN -0.0902
-1.3010 NINETY SIX -0.0969
-1.3010 NINETY THREE -0.0969
-1.3010 NINETY TWO -0.0969
-1.3010 NINETY YEARS 0.0000
-0.3010 NO </s> -0.3010
-0.3010 NORWAY </s> -0.3010
-0.6021 NOT </s> -0.3010
-1.6435 NOT AT 0.0000
-1.3424 NOT CLEAR 0.0000
-1.1663 NOT FEELING -0.1761
-1.3424 NOT GET 0.0000
-1.6435 NOT GOOD -0.1691
-1.6435 NOT OK 0.0000
-1.6435 NOT POSSIBLE 0.0000
-0.3144 OF CAKE 0.0000
-1.8195 OF COURSE 0.0000
-1.0000 OFFER </s> -0.3010
-0.3979 OFFER CAKE 0.0000
-0.3010 OK </s> -0.3010
-0.3137 OLD </s> -0.3010
-1.8409 OLD ARE -0.0580
-0.8129 ONE MORE 0.0000
-0.4607 ONE YEARS 0.0000
-0.3010 OTTHEIN </s> -0.3010
-0.3010 OUR CONVERSATION 0.0000
-0.3010 PASCALE </s> -0.3010
-0.3010 PATRICK </s> -0.3010
-0.3010 PEOLE CALL 0.0000
-0.3010 PEOPLE CALL 0.0000
-0.3010 PIECE OF -0.0130
-0.3010 PLEASURE TO -0.0969
-0.3010 POLAND </s> -0.3010
-0.3010 POSSIBLE </s> -0.3010
-0.3010 RAFAEL </s> -0.3010
-0.3010 REPEAT </s> -0.3010
-0.3010 ROMANIA </s> -0.3010
-0.3010 RUSSIA </s> -0.3010
-0.3010 SASCHA </s> -0.3010
-0.3010 SAY ONE -0.2285
-0.3010 SEBASTIAN </s> -0.3010
-0.3010 SEE YOU -0.2218
-0.3010 SENEGAL </s> -0.3010
-0.9379 SEVEN PIECE 0.0000
-0.4150 SEVEN YEARS 0.0000
-0.3010 SEVENTEEN YEARS 0.0000
-1.3424 SEVENTY EIGHT -0.0969
-1.3424 SEVENTY FIVE -0.0969
-1.3424 SEVENTY FOUR -0.1165
-1.3424 SEVENTY NINE -0.1165
-1.3424 SEVENTY ONE -0.1165
-1.0414 SEVENTY SEVEN -0.0902
-1.3424 SEVENTY SIX -0.0969
-1.3424 SEVENTY THREE -0.0969
-1.3424 SEVENTY TWO -0.0969
-1.3424 SEVENTY YEARS 0.0000
-0.3010 SICK </s> -0.3010
-0.9031 SIX PIECE 0.0000
-0.4260 SIX YEARS 0.0000
-0.3010 SIXTEEN YEARS 0.0000
-1.3010 SIXTY EIGHT -0.0969
-1.3010 SIXTY FIVE -0.0969
-1.3010 SIXTY FOUR -0.1165
-1.3010 SIXTY NINE -0.1165
-1.3010 SIXTY ONE -0.1165
-1.3010 SIXTY SEVEN -0.0902
-1.3010 SIXTY SIX -0.0969
-1.3010 SIXTY THREE -0.0969
-1.3010 SIXTY TWO -0.0969
-1.3010 SIXTY YEARS 0.0000
-0.3010 SOMETHING </s> -0.3010
-0.3010 SOUTH AFRICA 0.0000
-0.3010 SPAIN </s> -0.3010
-0.3010 SUD KOREA 0.0000
-0.3010 SWEDEN </s> -0.3010
-0.3010 SWITZERLAND </s> -0.3010
-0.3010 TAKE TOO 0.0000
-0.4260 TEN PIECE 0.0000
-0.9031 TEN YEARS 0.0000
-0.3010 THANK YOU -0.2264
-0.3010 THE CONVERSATION 0.0000
-0.3010 THIRTEEN YEARS 0.0000
-1.3010 THIRTY EIGHT -0.0969
-1.3010 THIRTY FIVE -0.0969
-1.3010 THIRTY FOUR -0.1165
-1.3010 THIRTY NINE -0.1165
-1.3010 THIRTY ONE -0.1165
-1.3010 THIRTY SEVEN -0.0902
-1.3010 THIRTY SIX -0.0969
-1.3010 THIRTY THREE -0.0969
-1.3010 THIRTY TWO -0.0969
-1.3010 THIRTY YEARS 0.0000
-0.9031 THREE PIECE 0.0000
-0.4260 THREE YEARS 0.0000
-0.3010 TIME </s> -0.3010
-0.9031 TO BE 0.0000
-0.6021 TO MEET 0.0000
-0.9031 TO SEE 0.0000
-0.3010 TOBIAS </s> -0.3010
-0.3010 TOGO </s> -0.3010
-0.3010 TOO MUCH 0.0000
-0.3010 TUNISIA </s> -0.3010
-0.3010 TURKEY </s> -0.3010
-0.3010 TWELVE YEARS 0.0000
-1.3010 TWENTY EIGHT -0.0969
-1.3010 TWENTY FIVE -0.0969
-1.3010 TWENTY FOUR -0.1165
-1.3010 TWENTY NINE -0.1165
-1.3010 TWENTY ONE -0.1165
-1.3010 TWENTY SEVEN -0.0902
-1.3010 TWENTY SIX -0.0969
-1.3010 TWENTY THREE -0.0969
-1.3010 TWENTY TWO -0.0969
-1.3010 TWENTY YEARS 0.0000
-0.9031 TWO PIECE 0.0000
-0.4260 TWO YEARS 0.0000
-0.3010 UKRAINE </s> -0.3010
-0.3010 UNCLEAR </s> -0.3010
-0.3010 UNDERSTAND </s> -0.3010
-1.3424 WANT A -0.1461
-1.3424 WANT CAKE 0.0000
-1.3424 WANT EIGHT -0.2430
-1.3424 WANT FIVE -0.2430
-1.3424 WANT FOUR -0.2285
-1.3424 WANT NINE -0.2285
-1.3424 WANT SEVEN -0.2478
-1.3424 WANT SIX -0.2430
-1.3424 WANT TEN -0.0969
-1.3424 WANT THREE -0.2430
-1.3424 WANT TWO -0.2430
-1.0792 WAS </s> -0.3010
-0.7782 WAS A -0.2041
-1.0792 WAS NOT -0.1761
-1.0792 WAS OUR 0.0000
-1.0792 WAS THE 0.0000
-0.3010 WASNT </s> -0.3010
-0.3010 WATER </s> -0.3010
-0.3010 WELLCOME </s> -0.3010
-0.7782 WHAT CAN -0.0669
-1.0792 WHAT DO -0.1761
-1.0792 WHAT HAPPEN 0.0000
-0.7782 WHAT IS -0.2945
-0.6021 WHERE ARE -0.0580
-0.6021 WHERE DO -0.1761
-0.3010 WHO ARE -0.0580
-0.7782 WHY </s> -0.3010
-0.7782 WHY DOES 0.0000
-0.7782 WHY NOT -0.1761
-0.6021 WISH DRINK 0.0000
-0.6021 WISH FOOD 0.0000
-0.3010 WITH YOU -0.2264
-0.4058 WOULD LIKE 0.0000
-0.9700 WOULD YOU -0.2484
-0.3010 YEARS OLD -0.0124
-0.3010 YES </s> -0.3010
-0.8016 YOU </s> -0.3010
-1.7559 YOU ARE -0.2688
-2.0569 YOU COME 0.0000
-1.4548 YOU CUT 0.0000
-2.0569 YOU DO -0.2553
-2.0569 YOU DOING 0.0000
-1.7559 YOU ENJOY 0.0000
-1.5798 YOU FEELING -0.2430
-1.3579 YOU FIND 0.0000
-2.0569 YOU FROM -0.2953
-1.4548 YOU GIVE 0.0000
-2.0569 YOU HELP -0.1761
-2.0569 YOU LATER 0.0000
-2.0569 YOU MAKE 0.0000
-1.3579 YOU OFFER 0.0000
-2.0569 YOU OK 0.0000
-1.4548 YOU REPEAT 0.0000
-1.7559 YOU SAY 0.0000
-0.7782 YOUR AGE 0.0000
-0.7782 YOUR HELP -0.1761
-0.7782 YOUR NAME -0.2970

\3-grams:
-0.3010 <s> ABSOLUTELY </s>
-0.3010 <s> ARE YOU
-0.3010 <s> CALL ME
-0.3010 <s> CAN YOU
-0.3010 <s> COULD YOU
-0.3010 <s> DID YOU
-0.3010 <s> DONT MENTION
-0.3010 <s> EVERYTHING IS
-0.8239 <s> GOOD AFTERNOON
-1.0000 <s> GOOD BYE
-1.3010 <s> GOOD EVENING
-0.8239 <s> GOOD MORNING
-1.3010 <s> GOOD NIGHT
-0.3010 <s> GOODBYE </s>
-0.3010 <s> HELLO </s>
-0.8239 <s> HOW ARE
-1.3010 <s> HOW DID
-1.1249 <s> HOW DO
-1.0000 <s> HOW IS
-1.1249 <s> HOW OLD
-1.3010 <s> HOW WAS
-0.5327 <s> I AM
-2.4518 <s> I CAN
-2.7528 <s> I CANNOT
-2.7528 <s> I CANT
-1.1846 <s> I COME
-2.4518 <s> I COULD
-2.7528 <s> I COULDNT
-1.8497 <s> I DID
-1.9077 <s> I DIDNT
-2.1508 <s> I DO
-1.9077 <s> I DONT
-1.4306 <s> I NEED
-1.7114 <s> I WANT
-2.4518 <s> I WAS
-2.7528 <s> I WASNT
-2.7528 <s> I WISH
-1.7114 <s> I WOULD
-0.4260 <s> IT IS
-0.9031 <s> IT WAS
-0.3010 <s> MAY YOU
-0.3010 <s> MY NAME
-0.3010 <s> NICE TO
-0.3010 <s> NO </s>
-0.3010 <s> NOT AT
-0.3010 <s> OF COURSE
-0.3010 <s> ONE MORE
-0.3010 <s> PEOLE CALL
-0.3010 <s> PEOPLE CALL
-0.3010 <s> SEE YOU
-0.3010 <s> THANK YOU
-0.7782 <s> WHAT CAN
-1.0792 <s> WHAT DO
-1.0792 <s> WHAT HAPPEN
-0.7782 <s> WHAT IS
-0.6021 <s> WHERE ARE
-0.6021 <s> WHERE DO
-0.3010 <s> WHO ARE
-0.7782 <s> WHY </s>
-0.7782 <s> WHY DOES
-0.7782 <s> WHY NOT
-0.3010 <s> WISH FOOD
-0.3010 <s> WOULD YOU
-0.3010 <s> YES </s>
-0.3010 <s> YOU ARE
-0.3010 A PIECE OF
-0.3010 A PLEASURE TO
-0.3010 AM BAD </s>
-0.3010 AM EIGHT YEARS
-0.3010 AM EIGHTEEN YEARS
-1.3010 AM EIGTHY EIGHT
-1.3010 AM EIGTHY FIVE
-1.3010 AM EIGTHY FOUR
-1.3010 AM EIGTHY NINE
-1.3010 AM EIGTHY ONE
-1.3010 AM EIGTHY SEVEN
-1.3010 AM EIGTHY SIX
-1.3010 AM EIGTHY THREE
-1.3010 AM EIGTHY TWO
-1.3010 AM EIGTHY YEARS
-0.3010 AM ELEVEN YEARS
-0.6021 AM FEELING BAD
-0.6021 AM FEELING GOOD
-0.3010 AM FIFTEEN YEARS
-1.3010 AM FIFTY EIGHT
-1.3010 AM FIFTY FIVE
-1.3010 AM FIFTY FOUR
-1.3010 AM FIFTY NINE
-1.3010 AM FIFTY ONE
-1.3010 AM FIFTY SEVEN
-1.3010 AM FIFTY SIX
-1.3010 AM FIFTY THREE
-1.3010 AM FIFTY TWO
-1.3010 AM FIFTY YEARS
-0.3010 AM FIVE YEARS
-1.3424 AM FORTY EIGHT
-1.3424 AM FORTY FIVE
-1.3424 AM FORTY FOUR
-1.3424 AM FORTY NINE
-1.3424 AM FORTY ONE
-1.3424 AM FORTY SEVEN
-1.3424 AM FORTY SIX
-1.3424 AM FORTY THREE
-1.3424 AM FORTY TWO
-1.0414 AM FORTY YEARS
-0.3010 AM FOUR YEARS
-1.8692 AM FROM AFRICA
-1.8692 AM FROM AMERICA
-1.8692 AM FROM ASIA
-1.8692 AM FROM AUSTRALIA
-1.8692 AM FROM BELGIUM
-1.8692 AM FROM CAMEROON
-1.8692 AM FROM CHINA
-1.8692 AM FROM EGYPT
-1.8692 AM FROM ENGLAND
-1.8692 AM FROM EUROPE
-1.8692 AM FROM GERMANY
-1.8692 AM FROM GHANA
-1.8692 AM FROM GREECE
-1.8692 AM FROM INDIA
-1.8692 AM FROM INDIAN
-1.8692 AM FROM ITALY
-1.8692 AM FROM JAPAN
-1.8692 AM FROM KENYA
-1.8692 AM FROM MALI
-1.8692 AM FROM MOROCCO
-1.8692 AM FROM NETHERLANDS
-1.8692 AM FROM NORWAY
-1.8692 AM FROM POLAND
-1.8692 AM FROM ROMANIA
-1.3921 AM FROM RUSSIA
-1.8692 AM FROM SENEGAL
-1.8692 AM FROM SOUTH
-1.8692 AM FROM SPAIN
-1.8692 AM FROM SUD
-1.8692 AM FROM SWEDEN
-1.8692 AM FROM SWITZERLAND
-1.8692 AM FROM TOGO
-1.8692 AM FROM TUNISIA
-1.8692 AM FROM TURKEY
-1.8692 AM FROM UKRAINE
-0.3010 AM GOING </s>
-0.3010 AM GOOD </s>
-0.3010 AM HEALTHY </s>
-0.3010 AM HUNDRED YEARS
-0.3010 AM ILL </s>
-0.3010 AM LEAVING </s>
-0.3010 AM NINE YEARS
-0.3010 AM NINETEEN YEARS
-1.3010 AM NINETY EIGHT
-1.3010 AM NINETY FIVE
-1.3010 AM NINETY FOUR
-1.3010 AM NINETY NINE
-1.3010 AM NINETY ONE
-1.3010 AM NINETY SEVEN
-1.3010 AM NINETY SIX
-1.3010 AM NINETY THREE
-1.3010 AM NINETY TWO
-1.3010 AM NINETY YEARS
-1.0792 AM NOT </s>
-0.6021 AM NOT FEELING
-1.0792 AM NOT GOOD
-1.0792 AM NOT OK
-0.3010 AM OK </s>
-0.3010 AM ONE YEARS
-0.3010 AM SEVEN YEARS
-0.3010 AM SEVENTEEN YEARS
-1.3424 AM SEVENTY EIGHT
-1.3424 AM SEVENTY FIVE
-1.3424 AM SEVENTY FOUR
-1.3424 AM SEVENTY NINE
-1.3424 AM SEVENTY ONE
-1.0414 AM SEVENTY SEVEN
-1.3424 AM SEVENTY SIX
-1.3424 AM SEVENTY THREE
-1.3424 AM SEVENTY TWO
-1.3424 AM SEVENTY YEARS
-0.3010 AM SICK </s>
-0.3010 AM SIX YEARS
-0.3010 AM SIXTEEN YEARS
-1.3010 AM SIXTY EIGHT
-1.3010 AM SIXTY FIVE
-1.3010 AM SIXTY FOUR
-1.3010 AM SIXTY NINE
-1.3010 AM SIXTY ONE
-1.3010 AM SIXTY SEVEN
-1.3010 AM SIXTY SIX
-1.3010 AM SIXTY THREE
-1.3010 AM SIXTY TWO
-1.3010 AM SIXTY YEARS
-0.3010 AM TEN YEARS
-0.3010 AM THIRTEEN YEARS
-1.3010 AM THIRTY EIGHT
-1.3010 AM THIRTY FIVE
-1.3010 AM THIRTY FOUR
-1.3010 AM THIRTY NINE
-1.3010 AM THIRTY ONE
-1.3010 AM THIRTY SEVEN
-1.3010 AM THIRTY SIX
-1.3010 AM THIRTY THREE
-1.3010 AM THIRTY TWO
-1.3010 AM THIRTY YEARS
-0.3010 AM THREE YEARS
-0.3010 AM TWELVE YEARS
-1.3010 AM TWENTY EIGHT
-1.3010 AM TWENTY FIVE
-1.3010 AM TWENTY FOUR
-1.3010 AM TWENTY NINE
-1.3010 AM TWENTY ONE
-1.3010 AM TWENTY SEVEN
-1.3010 AM TWENTY SIX
-1.3010 AM TWENTY THREE
-1.3010 AM TWENTY TWO
-1.3010 AM TWENTY YEARS
-0.3010 AM TWO YEARS
-0.3010 ARE KIND </s>
-0.3010 ARE WELLCOME </s>
-0.6021 ARE YOU </s>
-1.3802 ARE YOU DOING
-0.9031 ARE YOU FEELING
-1.3802 ARE YOU FROM
-1.3802 ARE YOU OK
-0.3010 AT ALL </s>
-0.3010 BE WITH YOU
-1.9685 CALL ME </s>
-1.9685 CALL ME ADRIAN
-1.9685 CALL ME ALEXANDER
-1.9685 CALL ME ALEXIS
-1.9685 CALL ME ALINA
-1.9685 CALL ME ANDREA
-1.6675 CALL ME ANDREI
-1.6675 CALL ME ARTHUR
-1.6675 CALL ME ASIL
-1.9685 CALL ME CHRIS
-1.9685 CALL ME CONSTANTIN
-1.9685 CALL ME DANIEL
-1.6675 CALL ME DOMINIC
-1.6675 CALL ME ELIAS
-1.6675 CALL ME FERENC
-1.9685 CALL ME FERESHTA
-1.6675 CALL ME FEROZ
-1.6675 CALL ME FRANKLIN
-1.9685 CALL ME GAYANE
-1.9685 CALL ME GEORG
-1.9685 CALL ME HAGEN
-1.9685 CALL ME HENDRIK
-1.9685 CALL ME JASMINE
-1.7924 CALL ME KEVIN
-1.9685 CALL ME LENA
-1.9685 CALL ME LISSET
-1.9685 CALL ME LUKAS
-1.9685 CALL ME MAREIKE
-1.6675 CALL ME MICHAEL
-1.9685 CALL ME MIHAI
-1.9685 CALL ME OTTHEIN
-1.9685 CALL ME PASCALE
-1.9685 CALL ME PATRICK
-1.9685 CALL ME RAFAEL
-1.9685 CALL ME SASCHA
-1.9685 CALL ME SEBASTIAN
-1.9685 CALL ME TOBIAS
-0.3010 CAN NOT </s>
-1.3010 CAN YOU CUT
-1.3010 CAN YOU DO
-1.3010 CAN YOU GIVE
-1.3010 CAN YOU HELP
-1.3010 CAN YOU MAKE
-1.3010 CAN YOU OFFER
-1.0000 CAN YOU REPEAT
-1.0000 CAN YOU SAY
-1.8808 COME FROM </s>
-1.8808 COME FROM AFRICA
-1.8808 COME FROM AMERICA
-1.8808 COME FROM ASIA
-1.8808 COME FROM AUSTRALIA
-1.8808 COME FROM BELGIUM
-1.8808 COME FROM CAMEROON
-1.5798 COME FROM CHINA
-1.8808 COME FROM EGYPT
-1.8808 COME FROM ENGLAND
-1.8808 COME FROM EUROPE
-1.5798 COME FROM GERMANY
-1.8808 COME FROM GHANA
-1.8808 COME FROM GREECE
-1.8808 COME FROM INDIAN
-1.8808 COME FROM ITALY
-1.8808 COME FROM JAPAN
-1.8808 COME FROM KENYA
-1.8808 COME FROM MALIA
-1.8808 COME FROM MOROCCO
-1.8808 COME FROM NETHERLANDS
-1.8808 COME FROM NORWAY
-1.8808 COME FROM POLAND
-1.8808 COME FROM ROMANIA
-1.5798 COME FROM RUSSIA
-1.8808 COME FROM SENEGAL
-1.8808 COME FROM SOUTH
-1.8808 COME FROM SPAIN
-1.8808 COME FROM SUD
-1.8808 COME FROM SWEDEN
-1.8808 COME FROM SWITZERLAND
-1.8808 COME FROM TOGO
-1.8808 COME FROM TUNISIA
-1.8808 COME FROM TURKEY
-1.8808 COME FROM UKRAINE
-0.3010 COULD NOT </s>
-1.0000 COULD YOU CUT
-1.0000 COULD YOU GIVE
-1.0000 COULD YOU OFFER
-0.6990 COULD YOU REPEAT
-0.3010 CUT CAKE </s>
-0.5229 DID NOT </s>
-0.6990 DID NOT GET
-0.6021 DID YOU ENJOY
-0.6021 DID YOU FIND
-0.3010 DIDNT GET YOU
-0.3010 DIDNT UNDERSTAND </s>
-0.3010 DO NOT </s>
-1.0000 DO YOU COME
-0.5229 DO YOU FIND
-1.0000 DO YOU OFFER
-0.3010 DOES IT TAKE
-0.3010 DONT GET YOU
-0.3010 DONT MENTION </s>
-0.3010 DONT UNDERSTAND </s>
-0.3010 EIGHT PIECE OF
-0.3010 EIGHT YEARS OLD
-0.3010 EIGHTEEN YEARS OLD
-0.3010 EIGTHY EIGHT YEARS
-0.3010 EIGTHY FIVE YEARS
-0.3010 EIGTHY FOUR YEARS
-0.3010 EIGTHY NINE YEARS
-0.3010 EIGTHY ONE YEARS
-0.3010 EIGTHY SEVEN YEARS
-0.3010 EIGTHY SIX YEARS
-0.3010 EIGTHY THREE YEARS
-0.3010 EIGTHY TWO YEARS
-0.3010 EIGTHY YEARS OLD
-0.3010 ELEVEN YEARS OLD
-0.3010 ENJOY OUR CONVERSATION
-0.3010 ENJOY THE CONVERSATION
-0.3010 EVERYTHING GOING </s>
-0.6021 EVERYTHING IS GOOD
-0.6021 EVERYTHING IS OK
-0.3010 FEELING BAD </s>
-0.3010 FEELING GOOD </s>
-0.3010 FIFTEEN YEARS OLD
-0.3010 FIFTY EIGHT YEARS
-0.3010 FIFTY FIVE YEARS
-0.3010 FIFTY FOUR YEARS
-0.3010 FIFTY NINE YEARS
-0.3010 FIFTY ONE YEARS
-0.3010 FIFTY SEVEN YEARS
-0.3010 FIFTY SIX YEARS
-0.3010 FIFTY THREE YEARS
-0.3010 FIFTY TWO YEARS
-0.3010 FIFTY YEARS OLD
-0.3010 FIND CONVERSATION </s>
-0.3010 FIND OUR CONVERSATION
-0.3010 FIND THE CONVERSATION
-0.3010 FIVE PIECE OF
-0.3010 FIVE YEARS OLD
-0.3010 FORTY EIGHT YEARS
-0.3010 FORTY FIVE YEARS
-0.3010 FORTY FOUR YEARS
-0.3010 FORTY NINE YEARS
-0.3010 FORTY ONE YEARS
-0.3010 FORTY SEVEN YEARS
-0.3010 FORTY SIX YEARS
-0.3010 FORTY THREE YEARS
-0.3010 FORTY TWO YEARS
-0.3010 FORTY YEARS OLD
-0.3010 FOUR PIECE OF
-0.3010 FOUR YEARS OLD
-0.3010 FROM AFRICA </s>
-0.3010 FROM AMERICA </s>
-0.3010 FROM ASIA </s>
-0.3010 FROM AUSTRALIA </s>
-0.3010 FROM BELGIUM </s>
-0.3010 FROM CAMEROON </s>
-0.3010 FROM CHINA </s>
-0.3010 FROM EGYPT </s>
-0.3010 FROM ENGLAND </s>
-0.3010 FROM EUROPE </s>
-0.3010 FROM GERMANY </s>
-0.3010 FROM GHANA </s>
-0.3010 FROM GREECE </s>
-0.3010 FROM INDIA </s>
-0.3010 FROM INDIAN </s>
-0.3010 FROM ITALY </s>
-0.3010 FROM JAPAN </s>
-0.3010 FROM KENYA </s>
-0.3010 FROM MALI </s>
-0.3010 FROM MALIA </s>
-0.3010 FROM MOROCCO </s>
-0.3010 FROM NETHERLANDS </s>
-0.3010 FROM NORWAY </s>
-0.3010 FROM POLAND </s>
-0.3010 FROM ROMANIA </s>
-0.3010 FROM RUSSIA </s>
-0.3010 FROM SENEGAL </s>
-0.3010 FROM SOUTH AFRICA
-0.3010 FROM SPAIN </s>
-0.3010 FROM SUD KOREA
-0.3010 FROM SWEDEN </s>
-0.3010 FROM SWITZERLAND </s>
-0.3010 FROM TOGO </s>
-0.3010 FROM TUNISIA </s>
-0.3010 FROM TURKEY </s>
-0.3010 FROM UKRAINE </s>
-0.3010 GET YOU </s>
-0.3010 GIVE CAKE </s>
-0.3010 GOOD AFTERNOON </s>
-0.3010 GOOD BYE </s>
-0.3010 GOOD EVENING </s>
-0.3010 GOOD MORNING </s>
-0.3010 GOOD NIGHT </s>
-0.3010 HELP ME </s>
-0.3010 HOW ARE YOU
-0.3010 HOW DID YOU
-0.3010 HOW DO YOU
-0.6021 HOW IS EVERYTHING
-0.9031 HOW IS OUR
-0.9031 HOW IS THE
-0.3010 HOW OLD ARE
-0.6021 HOW WAS OUR
-0.6021 HOW WAS THE
-0.3010 HUNDRED YEARS OLD
-2.5211 I AM </s>
-1.9191 I AM BAD
-2.5211 I AM EIGHT
-2.5211 I AM EIGHTEEN
-1.5211 I AM EIGTHY
-2.5211 I AM ELEVEN
-1.7430 I AM FEELING
-2.5211 I AM FIFTEEN
-1.5211 I AM FIFTY
-2.5211 I AM FIVE
-1.4797 I AM FORTY
-2.5211 I AM FOUR
-0.9529 I AM FROM
-2.5211 I AM GOING
-2.0440 I AM GOOD
-2.5211 I AM HEALTHY
-2.5211 I AM HUNDRED
-2.5211 I AM ILL
-2.5211 I AM LEAVING
-2.5211 I AM NINE
-2.5211 I AM NINETEEN
-1.5211 I AM NINETY
-1.7430 I AM NOT
-2.0440 I AM OK
-2.5211 I AM ONE
-2.5211 I AM SEVEN
-2.5211 I AM SEVENTEEN
-1.4797 I AM SEVENTY
-2.5211 I AM SICK
-2.5211 I AM SIX
-2.5211 I AM SIXTEEN
-1.5211 I AM SIXTY
-2.5211 I AM TEN
-2.5211 I AM THIRTEEN
-1.5211 I AM THIRTY
-2.5211 I AM THREE
-2.5211 I AM TWELVE
-1.5211 I AM TWENTY
-2.5211 I AM TWO
-0.6021 I CAN </s>
-0.6021 I CAN NOT
-0.3010 I CANNOT </s>
-0.3010 I CANT </s>
-0.3010 I COME FROM
-0.6021 I COULD </s>
-0.6021 I COULD NOT
-0.3010 I COULDNT </s>
-0.7270 I DID </s>
-0.5051 I DID NOT
-0.6690 I DIDNT </s>
-0.8451 I DIDNT GET
-0.8451 I DIDNT UNDERSTAND
-0.9031 I DO </s>
-0.4260 I DO NOT
-0.6690 I DONT </s>
-0.8451 I DONT GET
-0.8451 I DONT UNDERSTAND
-1.6232 I NEED A
-1.3222 I NEED BEER
-1.6232 I NEED CAKE
-1.3222 I NEED DRINK
-1.6232 I NEED EIGHT
-1.6232 I NEED FIVE
-1.3222 I NEED FOUR
-1.3222 I NEED NINE
-1.6232 I NEED SEVEN
-1.6232 I NEED SIX
-1.6232 I NEED SOMETHING
-1.6232 I NEED TEN
-1.6232 I NEED THREE
-1.6232 I NEED TWO
-1.3222 I NEED WATER
-1.6232 I NEED YOUR
-1.3424 I WANT A
-1.3424 I WANT CAKE
-1.3424 I WANT EIGHT
-1.3424 I WANT FIVE
-1.3424 I WANT FOUR
-1.3424 I WANT NINE
-1.3424 I WANT SEVEN
-1.3424 I WANT SIX
-1.3424 I WANT TEN
-1.3424 I WANT THREE
-1.3424 I WANT TWO
-0.6021 I WAS </s>
-0.6021 I WAS NOT
-0.3010 I WASNT </s>
-0.3010 I WISH DRINK
-0.3010 I WOULD LIKE
-0.3010 IS ADRIAN </s>
-0.3010 IS ALEXANDER </s>
-0.3010 IS ALEXIS </s>
-0.3010 IS ALINA </s>
-0.3010 IS ANDREA </s>
-0.3010 IS ANDREI </s>
-0.3010 IS ARTHUR </s>
-0.3010 IS ASIL </s>
-0.3010 IS CHRIS </s>
-0.3010 IS CONSTANTIN </s>
-0.3010 IS DANIEL </s>
-0.3010 IS DOMINIC </s>
-0.3010 IS ELIAS </s>
-0.6021 IS EVERYTHING </s>
-0.6021 IS EVERYTHING GOING
-0.3010 IS FERENC </s>
-0.3010 IS FERESHTA </s>
-0.3010 IS FEROZ </s>
-0.3010 IS FRANKLIN </s>
-0.3010 IS GAYANE </s>
-0.3010 IS GEORG </s>
-0.3010 IS GOOD </s>
-0.3010 IS HAGEN </s>
-0.3010 IS HENDRIK </s>
-0.3010 IS JASMINE </s>
-0.3010 IS KEVIN </s>
-0.3010 IS LENA </s>
-0.3010 IS LISSET </s>
-0.3010 IS LUKAS </s>
-0.3010 IS MAREIKE </s>
-0.3010 IS MICHAEL </s>
-0.3010 IS MIHAI </s>
-0.4771 IS NOT CLEAR
-0.7782 IS NOT POSSIBLE
-0.3010 IS OK </s>
-0.3010 IS OTTHEIN </s>
-0.3010 IS OUR CONVERSATION
-0.3010 IS PASCALE </s>
-0.3010 IS PATRICK </s>
-0.3010 IS POSSIBLE </s>
-0.3010 IS RAFAEL </s>
-0.3010 IS SASCHA </s>
-0.3010 IS SEBASTIAN </s>
-0.3010 IS THE CONVERSATION
-0.3010 IS TOBIAS </s>
-0.3010 IS UNCLEAR </s>
-0.6021 IS YOUR AGE
-0.6021 IS YOUR NAME
-0.6021 IT IS NOT
-1.0792 IT IS POSSIBLE
-0.7782 IT IS UNCLEAR
-0.3010 IT TAKE TOO
-0.3010 IT WAS A
-0.3010 LIKE A PIECE
-0.3010 LIKE CAKE </s>
-0.3010 LIKE EIGHT PIECE
-0.3010 LIKE FIVE PIECE
-0.3010 LIKE FOUR PIECE
-0.3010 LIKE NINE PIECE
-0.3010 LIKE SEVEN PIECE
-0.3010 LIKE SIX PIECE
-0.3010 LIKE TEN PIECE
-0.3010 LIKE THREE PIECE
-0.3010 LIKE TWO PIECE
-0.7782 MAY YOU CUT
-0.7782 MAY YOU GIVE
-0.7782 MAY YOU OFFER
-0.3010 ME ADRIAN </s>
-0.3010 ME ALEXANDER </s>
-0.3010 ME ALEXIS </s>
-0.3010 ME ALINA </s>
-0.3010 ME ANDREA </s>
-0.3010 ME ANDREI </s>
-0.3010 ME ARTHUR </s>
-0.3010 ME ASIL </s>
-0.3010 ME CHRIS </s>
-0.3010 ME CONSTANTIN </s>
-0.3010 ME DANIEL </s>
-0.3010 ME DOMINIC </s>
-0.3010 ME ELIAS </s>
-0.3010 ME FERENC </s>
-0.3010 ME FERESHTA </s>
-0.3010 ME FEROZ </s>
-0.3010 ME FRANKLIN </s>
-0.3010 ME GAYANE </s>
-0.3010 ME GEORG </s>
-0.3010 ME HAGEN </s>
-0.3010 ME HENDRIK </s>
-0.3010 ME JASMINE </s>
-0.3010 ME KEVIN </s>
-0.3010 ME LENA </s>
-0.3010 ME LISSET </s>
-0.3010 ME LUKAS </s>
-0.3010 ME MAREIKE </s>
-0.3010 ME MICHAEL </s>
-0.3010 ME MIHAI </s>
-0.3010 ME OTTHEIN </s>
-0.3010 ME PASCALE </s>
-0.3010 ME PATRICK </s>
-0.3010 ME RAFAEL </s>
-0.3010 ME SASCHA </s>
-0.3010 ME SEBASTIAN </s>
-0.3010 ME TOBIAS </s>
-0.3010 MEET YOU </s>
-0.3010 MORE TIME </s>
-0.3010 MUCH TIME </s>
-0.3010 MY NAME IS
-2.0253 NAME IS </s>
-2.0253 NAME IS ADRIAN
-2.0253 NAME IS ALEXANDER
-1.7243 NAME IS ALEXIS
-2.0253 NAME IS ALINA
-2.0253 NAME IS ANDREA
-1.7243 NAME IS ANDREI
-1.7243 NAME IS ARTHUR
-1.7243 NAME IS ASIL
-2.0253 NAME IS CHRIS
-2.0253 NAME IS CONSTANTIN
-2.0253 NAME IS DANIEL
-1.7243 NAME IS DOMINIC
-1.7243 NAME IS ELIAS
-1.7243 NAME IS FERENC
-2.0253 NAME IS FERESHTA
-1.7243 NAME IS FEROZ
-1.7243 NAME IS FRANKLIN
-2.0253 NAME IS GAYANE
-2.0253 NAME IS GEORG
-2.0253 NAME IS HAGEN
-2.0253 NAME IS HENDRIK
-1.7243 NAME IS JASMINE
-1.7243 NAME IS KEVIN
-2.0253 NAME IS LENA
-1.7243 NAME IS LISSET
-2.0253 NAME IS LUKAS
-1.7243 NAME IS MAREIKE
-1.7243 NAME IS MICHAEL
-2.0253 NAME IS MIHAI
-1.7243 NAME IS OTTHEIN
-1.7243 NAME IS PASCALE
-2.0253 NAME IS PATRICK
-2.0253 NAME IS RAFAEL
-2.0253 NAME IS SASCHA
-2.0253 NAME IS SEBASTIAN
-2.0253 NAME IS TOBIAS
-0.3010 NEED A PIECE
-0.3010 NEED BEER </s>
-0.3010 NEED CAKE </s>
-0.3010 NEED DRINK </s>
-0.3010 NEED EIGHT PIECE
-0.3010 NEED FIVE PIECE
-0.3010 NEED FOUR PIECE
-0.3010 NEED NINE PIECE
-0.3010 NEED SEVEN PIECE
-0.3010 NEED SIX PIECE
-0.3010 NEED SOMETHING </s>
-0.3010 NEED TEN PIECE
-0.3010 NEED THREE PIECE
-0.3010 NEED TWO PIECE
-0.3010 NEED WATER </s>
-0.3010 NEED YOUR HELP
-0.6021 NICE TO MEET
-0.6021 NICE TO SEE
-0.3010 NINE PIECE OF
-0.3010 NINE YEARS OLD
-0.3010 NINETEEN YEARS OLD
-0.3010 NINETY EIGHT YEARS
-0.3010 NINETY FIVE YEARS
-0.3010 NINETY FOUR YEARS
-0.3010 NINETY NINE YEARS
-0.3010 NINETY ONE YEARS
-0.3010 NINETY SEVEN YEARS
-0.3010 NINETY SIX YEARS
-0.3010 NINETY THREE YEARS
-0.3010 NINETY TWO YEARS
-0.3010 NINETY YEARS OLD
-0.3010 NOT AT ALL
-0.3010 NOT CLEAR </s>
-0.3010 NOT FEELING GOOD
-0.3010 NOT GET YOU
-0.3010 NOT GOOD </s>
-0.3010 NOT OK </s>
-0.3010 NOT POSSIBLE </s>
-0.3010 OF CAKE </s>
-0.3010 OF COURSE </s>
-0.3010 OFFER CAKE </s>
-0.3010 OLD ARE YOU
-0.3010 ONE MORE TIME
-0.3010 ONE YEARS OLD
-0.3010 OUR CONVERSATION </s>
-0.3010 PEOLE CALL ME
-0.3010 PEOPLE CALL ME
-0.3010 PIECE OF CAKE
-0.6021 PLEASURE TO BE
-0.6021 PLEASURE TO MEET
-0.3010 SAY ONE MORE
-0.4771 SEE YOU </s>
-0.7782 SEE YOU LATER
-0.3010 SEVEN PIECE OF
-0.3010 SEVEN YEARS OLD
-0.3010 SEVENTEEN YEARS OLD
-0.3010 SEVENTY EIGHT YEARS
-0.3010 SEVENTY FIVE YEARS
-0.3010 SEVENTY FOUR YEARS
-0.3010 SEVENTY NINE YEARS
-0.3010 SEVENTY ONE YEARS
-0.3010 SEVENTY SEVEN YEARS
-0.3010 SEVENTY SIX YEARS
-0.3010 SEVENTY THREE YEARS
-0.3010 SEVENTY TWO YEARS
-0.3010 SEVENTY YEARS OLD
-0.3010 SIX PIECE OF
-0.3010 SIX YEARS OLD
-0.3010 SIXTEEN YEARS OLD
-0.3010 SIXTY EIGHT YEARS
-0.3010 SIXTY FIVE YEARS
-0.3010 SIXTY FOUR YEARS
-0.3010 SIXTY NINE YEARS
-0.3010 SIXTY ONE YEARS
-0.3010 SIXTY SEVEN YEARS
-0.3010 SIXTY SIX YEARS
-0.3010 SIXTY THREE YEARS
-0.3010 SIXTY TWO YEARS
-0.3010 SIXTY YEARS OLD
-0.3010 SOUTH AFRICA </s>
-0.3010 SUD KOREA </s>
-0.3010 TAKE TOO MUCH
-0.3010 TEN PIECE OF
-0.3010 TEN YEARS OLD
-0.3010 THANK YOU </s>
-0.3010 THE CONVERSATION </s>
-0.3010 THIRTEEN YEARS OLD
-0.3010 THIRTY EIGHT YEARS
-0.3010 THIRTY FIVE YEARS
-0.3010 THIRTY FOUR YEARS
-0.3010 THIRTY NINE YEARS
-0.3010 THIRTY ONE YEARS
-0.3010 THIRTY SEVEN YEARS
-0.3010 THIRTY SIX YEARS
-0.3010 THIRTY THREE YEARS
-0.3010 THIRTY TWO YEARS
-0.3010 THIRTY YEARS OLD
-0.3010 THREE PIECE OF
-0.3010 THREE YEARS OLD
-0.3010 TO BE WITH
-0.3010 TO MEET YOU
-0.3010 TO SEE YOU
-0.3010 TOO MUCH TIME
-0.3010 TWELVE YEARS OLD
-0.3010 TWENTY EIGHT YEARS
-0.3010 TWENTY FIVE YEARS
-0.3010 TWENTY FOUR YEARS
-0.3010 TWENTY NINE YEARS
-0.3010 TWENTY ONE YEARS
-0.3010 TWENTY SEVEN YEARS
-0.3010 TWENTY SIX YEARS
-0.3010 TWENTY THREE YEARS
-0.3010 TWENTY TWO YEARS
-0.3010 TWENTY YEARS OLD
-0.3010 TWO PIECE OF
-0.3010 TWO YEARS OLD
-0.3010 WANT A PIECE
-0.3010 WANT CAKE </s>
-0.3010 WANT EIGHT PIECE
-0.3010 WANT FIVE PIECE
-0.3010 WANT FOUR PIECE
-0.3010 WANT NINE PIECE
-0.3010 WANT SEVEN PIECE
-0.3010 WANT SIX PIECE
-0.3010 WANT TEN PIECE
-0.3010 WANT THREE PIECE
-0.3010 WANT TWO PIECE
-0.3010 WAS A PLEASURE
-0.3010 WAS NOT </s>
-0.3010 WAS OUR CONVERSATION
-0.3010 WAS THE CONVERSATION
-0.3010 WHAT CAN YOU
-0.3010 WHAT DO YOU
-0.3010 WHAT HAPPEN </s>
-0.3010 WHAT IS YOUR
-0.3010 WHERE ARE YOU
-0.3010 WHERE DO YOU
-0.3010 WHO ARE YOU
-0.3010 WHY DOES IT
-0.3010 WHY NOT </s>
-0.3010 WISH DRINK </s>
-0.3010 WISH FOOD </s>
-0.3010 WITH YOU </s>
-1.3424 WOULD LIKE A
-1.3424 WOULD LIKE CAKE
-1.3424 WOULD LIKE EIGHT
-1.3424 WOULD LIKE FIVE
-1.3424 WOULD LIKE FOUR
-1.3424 WOULD LIKE NINE
-1.3424 WOULD LIKE SEVEN
-1.3424 WOULD LIKE SIX
-1.3424 WOULD LIKE TEN
-1.3424 WOULD LIKE THREE
-1.3424 WOULD LIKE TWO
-0.7782 WOULD YOU CUT
-0.7782 WOULD YOU GIVE
-0.7782 WOULD YOU OFFER
-0.3010 YEARS OLD </s>
-0.6021 YOU ARE KIND
-0.6021 YOU ARE WELLCOME
-0.3010 YOU COME FROM
-0.3010 YOU CUT CAKE
-0.3010 YOU DO </s>
-0.3010 YOU DOING </s>
-0.6021 YOU ENJOY OUR
-0.6021 YOU ENJOY THE
-0.3010 YOU FEELING </s>
-1.0000 YOU FIND CONVERSATION
-0.6990 YOU FIND OUR
-0.6990 YOU FIND THE
-0.3010 YOU FROM </s>
-0.3010 YOU GIVE CAKE
-0.3010 YOU HELP ME
-0.3010 YOU LATER </s>
-0.3010 YOU MAKE </s>
-1.0000 YOU OFFER </s>
-0.3979 YOU OFFER CAKE
-0.3010 YOU OK </s>
-0.3010 YOU REPEAT </s>
-0.3010 YOU SAY ONE
-0.3010 YOUR AGE </s>
-0.3010 YOUR HELP </s>
-0.3010 YOUR NAME </s>

\end\

