Language model created by QuickLM on Fri Aug 25 09:46:07 EDT 2017
Copyright (c) 1996-2010 Carnegie Mellon University and Alexander I. Rudnicky

The model is in standard ARPA format, designed by Doug Paul while he was at MITRE.

The code that was used to produce this language model is available in Open Source.
Please visit http://www.speech.cs.cmu.edu/tools/ for more information

The (fixed) discount mass is 0.5. The backoffs are computed using the ratio method.
This model based on a corpus of 406 sentences and 190 words

\data\
ngram 1=190
ngram 2=487
ngram 3=631

\1-grams:
-1.1226 </s> -0.3010
-1.1226 <s> -0.2467
-2.8280 A -0.2953
-3.4301 ABSOLUTELY -0.2670
-3.4301 ADRIAN -0.2670
-3.4301 AFRICA -0.2670
-3.7311 AFTERNOON -0.2670
-2.8280 AGAIN -0.2670
-3.7311 AGE -0.2670
-3.1290 ALEXANDER -0.2670
-3.2540 ALEXIS -0.2670
-3.4301 ALINA -0.2670
-3.7311 ALL -0.2670
-1.7183 AM -0.2851
-3.2540 AMERICA -0.2670
-3.2540 ANDREA -0.2670
-3.4301 ANDREI -0.2670
-2.8280 ARE -0.2965
-3.1290 ARTHUR -0.2670
-3.2540 ASIA -0.2670
-2.8860 ASIL -0.2670
-3.7311 AT -0.3009
-3.7311 AUSTRALIA -0.2670
-3.1290 AWAY -0.2953
-3.7311 BAD -0.2670
-3.7311 BE -0.3009
-3.7311 BEER -0.2670
-3.2540 BELGIUM -0.2670
-3.7311 BYE -0.2670
-1.8446 CAKE -0.2663
-1.8738 CALL -0.2948
-3.7311 CAMEROON -0.2670
-2.6172 CAN -0.2790
-3.4301 CHINA -0.2670
-3.4301 CHRIS -0.2670
-3.7311 CLEAR -0.2670
-2.2997 COME -0.2967
-3.4301 CONSTANTIN -0.2670
-2.9530 CONVERSATION -0.2670
-2.5007 COULD -0.2790
-3.7311 COURSE -0.2670
-3.1290 CUT -0.2948
-2.8860 DANIEL -0.2670
-3.2540 DECREASE -0.2953
-3.1290 DID -0.2622
-3.7311 DIDNT -0.2997
-2.8860 DO -0.2616
-3.7311 DOING -0.2670
-2.9530 DOMINIC -0.2670
-3.0321 DONT -0.2994
-3.4301 DRINK -0.2670
-2.9530 DROP -0.2953
-3.2540 EGYPT -0.2670
-2.8860 EIGHT -0.2899
-2.7311 EIGTHY -0.2957
-3.0321 ELIAS -0.2670
-3.7311 ENGLAND -0.2670
-3.4301 ENJOY -0.3007
-3.2540 EVERYTHING -0.2628
-3.1290 FEELING -0.2661
-3.4301 FERENC -0.2670
-3.4301 FERESHTA -0.2670
-2.7311 FEW -0.2957
-2.7311 FIFTY -0.2918
-3.4301 FIND -0.3005
-2.8860 FIVE -0.2899
-3.1290 FORTY -0.2943
-2.7769 FOUR -0.2899
-3.0321 FRANKLIN -0.2670
-1.9987 FROM -0.2966
-3.1290 GAYANE -0.2670
-2.5270 GET -0.2948
-3.7311 GHANA -0.2670
-2.8860 GIVE -0.2884
-3.7311 GOING -0.2670
-2.7311 GOOD -0.2665
-3.4301 GOODBYE -0.2670
-3.7311 GREECE -0.2670
-3.2540 HAGEN -0.2670
-3.7311 HAPPEN -0.2670
-3.2540 HAVE -0.3004
-3.2540 HELLO -0.2670
-3.7311 HELP -0.2670
-3.2540 HENDRIK -0.2670
-2.7769 HOW -0.2895
-3.4301 HUNDRED -0.2953
-1.4068 I -0.2824
-3.4301 INDIAN -0.2670
-2.0499 IS -0.2926
-3.1290 IT -0.2969
-3.4301 ITALY -0.2670
-3.7311 JAPAN -0.2670
-3.1290 JASMINE -0.2670
-3.7311 KENYA -0.2670
-3.1290 KEVIN -0.2670
-3.7311 KIND -0.2670
-3.7311 KOREA -0.2670
-3.7311 LATER -0.2670
-3.1290 LENA -0.2670
-3.0321 LESS -0.2957
-2.4301 LIKE -0.2852
-3.2540 LISSET -0.2670
-3.7311 LOWER -0.2969
-3.4301 LUKAS -0.2670
-3.7311 MAKE -0.2670
-3.1290 MAREIKE -0.2670
-3.2540 MAY -0.2790
-1.8446 ME -0.2549
-3.4301 MEET -0.2966
-3.4301 MENTION -0.2670
-2.9530 MICHAEL -0.2670
-3.4301 MIHAI -0.2670
-2.8860 MORE -0.2955
-3.7311 MORNING -0.2670
-3.7311 MOROCCO -0.2670
-2.0235 MY -0.2968
-2.1183 NAME -0.2628
-2.3509 NEED -0.2917
-3.2540 NETHERLANDS -0.2670
-3.4301 NICE -0.2988
-3.4301 NIGHT -0.2670
-2.6897 NINE -0.2899
-3.1290 NINETY -0.2981
-3.4301 NO -0.2670
-3.4301 NORWAY -0.2670
-2.9530 NOT -0.2665
-1.9050 OF -0.2947
-3.1290 OFFER -0.2602
-3.2540 OK -0.2670
-1.8798 OLD -0.2663
-2.8860 ONE -0.2948
-2.6897 ORDER -0.2670
-3.7311 OTTHEIN -0.2670
-3.1290 OUR -0.3005
-3.4301 PASCALE -0.2670
-3.1290 PATRICK -0.2670
-2.1748 PEOPLE -0.2952
-1.9116 PIECE -0.2956
-3.4301 PLEASURE -0.2988
-3.4301 POLAND -0.2670
-2.8280 REDUCE -0.2953
-3.4301 REPEAT -0.2670
-3.1290 ROMANIA -0.2670
-3.0321 RUSSIA -0.2670
-3.2540 SASCHA -0.2670
-3.7311 SAY -0.3005
-3.2540 SEAT -0.2670
-3.2540 SEE -0.2966
-3.2540 SENEGAL -0.2670
-2.7769 SEVEN -0.2899
-3.7311 SEVENTEEN -0.2953
-2.8280 SEVENTY -0.2977
-3.7311 SHOULD -0.2837
-3.2540 SIT -0.2670
-2.6897 SIX -0.2899
-2.9530 SIXTY -0.2921
-2.4524 SOME -0.2957
-3.7311 SOMETHING -0.2670
-3.7311 SOUTH -0.3009
-3.4301 SPAIN -0.2670
-3.7311 SUD -0.3009
-3.7311 SWEDEN -0.2670
-3.7311 SWITZERLAND -0.2670
-3.1290 TAKE -0.3007
-3.2540 TEN -0.2899
-3.7311 THANK -0.2966
-3.4301 THE -0.3005
-3.0321 THIRTY -0.2920
-3.4301 THISRD -0.2957
-2.5850 THREE -0.2899
-3.4301 TIME -0.2670
-2.2839 TO -0.2975
-3.2540 TOBIAS -0.2670
-3.4301 TOGO -0.2670
-2.6897 TWENTY -0.2902
-2.9530 TWO -0.2899
-3.7311 UNCLEAR -0.2670
-3.4301 UNDERSTAND -0.2670
-2.3509 WANT -0.2848
-3.2540 WAS -0.3001
-3.7311 WATER -0.2670
-2.8280 WHAT -0.2954
-3.4301 WHERE -0.2999
-3.7311 WHO -0.3004
-3.7311 WITH -0.2966
-2.3332 WOULD -0.2949
-1.8860 YEARS -0.2953
-3.7311 YES -0.2670
-1.9907 YOU -0.2599
-3.2540 YOUR -0.2975

\2-grams:
-2.6085 <s> ABSOLUTELY 0.0000
-2.4324 <s> ARE -0.0512
-1.3533 <s> CALL 0.0000
-2.0065 <s> CAN 0.0000
-1.6791 <s> COULD 0.0000
-2.6085 <s> DID -0.0969
-2.6085 <s> DONT -0.2041
-2.9096 <s> EVERYTHING -0.2218
-2.2106 <s> GOOD -0.1761
-2.6085 <s> GOODBYE 0.0000
-2.4324 <s> HELLO 0.0000
-1.9553 <s> HOW 0.0000
-0.5978 <s> I -0.0122
-2.3075 <s> IT 0.0000
-2.4324 <s> MAY 0.0000
-1.3075 <s> MY -0.0848
-2.6085 <s> NICE 0.0000
-2.6085 <s> NO 0.0000
-2.9096 <s> NOT -0.2632
-2.9096 <s> OF -0.2978
-2.9096 <s> ONE -0.2341
-1.3533 <s> PEOPLE 0.0000
-2.6085 <s> SEE 0.0000
-2.9096 <s> THANK 0.0000
-2.0065 <s> WHAT 0.0000
-2.6085 <s> WHERE 0.0000
-2.9096 <s> WHO 0.0000
-2.2106 <s> WOULD -0.2553
-2.9096 <s> YES 0.0000
-2.9096 <s> YOU -0.2971
-0.7270 A PIECE 0.0000
-0.9031 A PLEASURE 0.0000
-0.7270 A SEAT 0.0000
-0.3010 ABSOLUTELY </s> -0.3010
-0.3010 ADRIAN </s> -0.3010
-0.3010 AFRICA </s> -0.3010
-0.3010 AFTERNOON </s> -0.3010
-0.3010 AGAIN </s> -0.3010
-0.3010 AGE </s> -0.3010
-0.3010 ALEXANDER </s> -0.3010
-0.3010 ALEXIS </s> -0.3010
-0.3010 ALINA </s> -0.3010
-0.3010 ALL </s> -0.3010
-2.3139 AM BAD 0.0000
-1.3139 AM EIGTHY 0.0000
-2.3139 AM FEELING -0.0969
-1.3139 AM FIFTY 0.0000
-2.3139 AM FIVE -0.0580
-1.7118 AM FORTY 0.0000
-2.0128 AM FOUR -0.0458
-0.8825 AM FROM -0.0805
-2.3139 AM GOING 0.0000
-2.3139 AM GOOD -0.1761
-2.0128 AM HUNDRED 0.0000
-2.0128 AM NINE -0.1347
-1.7118 AM NINETY 0.0000
-2.0128 AM NOT -0.2218
-2.3139 AM ONE -0.1091
-2.3139 AM SEVEN -0.0872
-2.3139 AM SEVENTEEN 0.0000
-1.4108 AM SEVENTY 0.0000
-2.3139 AM SIX -0.0378
-1.5357 AM SIXTY 0.0000
-2.3139 AM TEN -0.2218
-1.6149 AM THIRTY 0.0000
-1.2725 AM TWENTY 0.0000
-0.3010 AMERICA </s> -0.3010
-0.3010 ANDREA </s> -0.3010
-0.3010 ANDREI </s> -0.3010
-1.2041 ARE KIND 0.0000
-0.3590 ARE YOU -0.2374
-0.3010 ARTHUR </s> -0.3010
-0.3010 ASIA </s> -0.3010
-0.3010 ASIL </s> -0.3010
-0.3010 AT ALL 0.0000
-0.3010 AUSTRALIA </s> -0.3010
-0.4260 AWAY MY -0.2515
-0.9031 AWAY SOME 0.0000
-0.3010 BAD </s> -0.3010
-0.3010 BE WITH 0.0000
-0.3010 BEER </s> -0.3010
-0.3010 BELGIUM </s> -0.3010
-0.3010 BYE </s> -0.3010
-0.3487 CAKE </s> -0.3010
-1.2844 CAKE AGAIN 0.0000
-0.3010 CALL ME -0.0273
-0.3010 CAMEROON </s> -0.3010
-1.1139 CAN I -0.2948
-0.3736 CAN YOU -0.1839
-0.3010 CHINA </s> -0.3010
-0.3010 CHRIS </s> -0.3010
-0.3010 CLEAR </s> -0.3010
-0.3010 COME FROM -0.0669
-0.3010 CONSTANTIN </s> -0.3010
-0.3010 CONVERSATION </s> -0.3010
-1.5315 COULD I -0.2979
-0.3274 COULD YOU -0.1735
-0.3010 COURSE </s> -0.3010
-0.3010 CUT CAKE -0.0429
-0.3010 DANIEL </s> -0.3010
-0.4771 DECREASE MY -0.2515
-0.7782 DECREASE SOME 0.0000
-0.9031 DID </s> -0.3010
-0.4260 DID YOU -0.2849
-0.3010 DIDNT GET -0.2730
-0.6690 DO </s> -0.3010
-0.8451 DO NOT -0.2218
-0.8451 DO YOU -0.2767
-0.3010 DOING </s> -0.3010
-0.3010 DOMINIC </s> -0.3010
-1.0000 DONT GET -0.2730
-0.6990 DONT MENTION 0.0000
-0.6990 DONT UNDERSTAND 0.0000
-0.3010 DRINK </s> -0.3010
-0.7782 DROP MY -0.2515
-0.4771 DROP SOME 0.0000
-0.3010 EGYPT </s> -0.3010
-0.6690 EIGHT PIECE 0.0000
-0.5441 EIGHT YEARS 0.0000
-1.3010 EIGTHY EIGHT -0.1549
-1.3010 EIGTHY FIVE -0.0580
-0.8239 EIGTHY FOUR -0.0458
-1.3010 EIGTHY NINE -0.1347
-1.3010 EIGTHY ONE -0.1091
-1.0000 EIGTHY SIX -0.0378
-1.3010 EIGTHY THREE -0.1326
-0.3010 ELIAS </s> -0.3010
-0.3010 ENGLAND </s> -0.3010
-0.3010 ENJOY OUR 0.0000
-0.4771 EVERYTHING </s> -0.3010
-0.7782 EVERYTHING IS -0.2965
-0.9031 FEELING </s> -0.3010
-0.4260 FEELING GOOD -0.1761
-0.3010 FERENC </s> -0.3010
-0.3010 FERESHTA </s> -0.3010
-0.3010 FEW PIECE 0.0000
-1.3010 FIFTY NINE -0.1347
-1.3010 FIFTY ONE -0.1091
-0.8239 FIFTY SIX -0.0378
-1.0000 FIFTY THREE -0.1326
-0.8239 FIFTY YEARS 0.0000
-0.6021 FIND OUR 0.0000
-0.6021 FIND THE 0.0000
-1.1461 FIVE PIECE 0.0000
-0.3680 FIVE YEARS 0.0000
-0.6021 FORTY EIGHT -0.1549
-0.9031 FORTY TWO -0.1761
-0.9031 FORTY YEARS 0.0000
-1.2553 FOUR PIECE 0.0000
-0.3522 FOUR YEARS 0.0000
-0.3010 FRANKLIN </s> -0.3010
-2.0334 FROM AFRICA 0.0000
-1.5563 FROM AMERICA 0.0000
-1.5563 FROM ASIA 0.0000
-2.0334 FROM AUSTRALIA 0.0000
-1.5563 FROM BELGIUM 0.0000
-2.0334 FROM CAMEROON 0.0000
-1.7324 FROM CHINA 0.0000
-1.5563 FROM EGYPT 0.0000
-2.0334 FROM ENGLAND 0.0000
-2.0334 FROM GHANA 0.0000
-2.0334 FROM GREECE 0.0000
-1.7324 FROM INDIAN 0.0000
-1.7324 FROM ITALY 0.0000
-2.0334 FROM JAPAN 0.0000
-2.0334 FROM KENYA 0.0000
-2.0334 FROM MOROCCO 0.0000
-1.5563 FROM NETHERLANDS 0.0000
-1.7324 FROM NORWAY 0.0000
-1.7324 FROM POLAND 0.0000
-1.4314 FROM ROMANIA 0.0000
-1.3345 FROM RUSSIA 0.0000
-1.5563 FROM SENEGAL 0.0000
-2.0334 FROM SOUTH 0.0000
-1.7324 FROM SPAIN 0.0000
-2.0334 FROM SUD 0.0000
-2.0334 FROM SWEDEN 0.0000
-2.0334 FROM SWITZERLAND 0.0000
-1.7324 FROM TOGO 0.0000
-0.3010 GAYANE </s> -0.3010
-0.8062 GET FEW 0.0000
-0.8062 GET LESS 0.0000
-0.9031 GET MORE -0.1091
-1.2041 GET YOU -0.2596
-0.3010 GHANA </s> -0.3010
-0.8451 GIVE CAKE -0.0429
-0.4472 GIVE ME -0.2867
-0.3010 GOING </s> -0.3010
-0.6021 GOOD </s> -0.3010
-1.3010 GOOD AFTERNOON 0.0000
-1.3010 GOOD BYE 0.0000
-1.3010 GOOD MORNING 0.0000
-1.0000 GOOD NIGHT 0.0000
-0.3010 GOODBYE </s> -0.3010
-0.3010 GREECE </s> -0.3010
-0.3010 HAGEN </s> -0.3010
-0.3010 HAPPEN </s> -0.3010
-0.3010 HAVE A -0.2109
-0.3010 HELLO </s> -0.3010
-0.3010 HELP </s> -0.3010
-0.3010 HENDRIK </s> -0.3010
-0.9542 HOW ARE -0.0512
-1.2553 HOW DID -0.0969
-1.2553 HOW DO -0.2341
-0.7782 HOW IS -0.2872
-1.2553 HOW OLD -0.2980
-1.2553 HOW WAS -0.2218
-0.3010 HUNDRED YEARS 0.0000
-0.6125 I AM -0.0000
-1.1939 I COME 0.0000
-2.6253 I DID -0.2430
-2.6253 I DIDNT 0.0000
-2.3243 I DO -0.2341
-2.1482 I DONT -0.1461
-2.1482 I HAVE 0.0000
-1.2451 I NEED 0.0000
-2.1482 I SIT 0.0000
-1.2451 I WANT 0.0000
-1.3243 I WOULD -0.0792
-0.3010 INDIAN </s> -0.3010
-1.6812 IS ALEXANDER 0.0000
-1.9823 IS ALINA 0.0000
-1.9823 IS ANDREA 0.0000
-1.9823 IS ANDREI 0.0000
-1.6812 IS ARTHUR 0.0000
-1.3802 IS ASIL 0.0000
-1.5051 IS DANIEL 0.0000
-1.5051 IS DOMINIC 0.0000
-1.5051 IS ELIAS 0.0000
-1.6812 IS EVERYTHING -0.1249
-1.5051 IS FRANKLIN 0.0000
-1.9823 IS GOOD -0.1761
-1.6812 IS JASMINE 0.0000
-1.5051 IS KEVIN 0.0000
-1.6812 IS LENA 0.0000
-1.9823 IS LISSET 0.0000
-1.9823 IS MAREIKE 0.0000
-1.6812 IS MICHAEL 0.0000
-1.9823 IS NOT -0.2632
-1.6812 IS PASCALE 0.0000
-1.6812 IS PATRICK 0.0000
-1.9823 IS THE 0.0000
-1.6812 IS TOBIAS 0.0000
-1.9823 IS UNCLEAR 0.0000
-1.6812 IS YOUR -0.1249
-0.6021 IT IS -0.2919
-0.6021 IT WAS -0.1249
-0.3010 ITALY </s> -0.3010
-0.3010 JAPAN </s> -0.3010
-0.3010 JASMINE </s> -0.3010
-0.3010 KENYA </s> -0.3010
-0.3010 KEVIN </s> -0.3010
-0.3010 KIND </s> -0.3010
-0.3010 KOREA </s> -0.3010
-0.3010 LATER </s> -0.3010
-0.3010 LENA </s> -0.3010
-0.3010 LESS PIECE 0.0000
-1.6021 LIKE CAKE -0.0429
-1.6021 LIKE EIGHT -0.1963
-1.6021 LIKE FEW 0.0000
-1.6021 LIKE FOUR -0.2762
-1.6021 LIKE MORE -0.1091
-1.6021 LIKE NINE -0.2139
-1.3010 LIKE SEVEN -0.2499
-1.6021 LIKE SOME 0.0000
-1.3010 LIKE THISRD 0.0000
-1.6021 LIKE THREE -0.2156
-0.6990 LIKE TO -0.0714
-0.3010 LISSET </s> -0.3010
-0.3010 LOWER MY -0.2515
-0.3010 LUKAS </s> -0.3010
-0.3010 MAKE </s> -0.3010
-0.3010 MAREIKE </s> -0.3010
-0.4771 MAY I -0.2948
-0.7782 MAY YOU -0.2849
-1.8865 ME </s> -0.3010
-1.8865 ME ADRIAN 0.0000
-1.8865 ME ALEXANDER 0.0000
-1.7104 ME ALEXIS 0.0000
-2.1875 ME ALINA 0.0000
-1.8865 ME ANDREA 0.0000
-2.1875 ME ANDREI 0.0000
-1.8865 ME ARTHUR 0.0000
-1.7104 ME ASIL 0.0000
-1.8865 ME CHRIS 0.0000
-1.8865 ME CONSTANTIN 0.0000
-1.5855 ME DANIEL 0.0000
-1.7104 ME DOMINIC 0.0000
-1.8865 ME ELIAS 0.0000
-1.8865 ME FERENC 0.0000
-1.8865 ME FERESHTA 0.0000
-1.8865 ME FEW 0.0000
-1.8865 ME FRANKLIN 0.0000
-1.5855 ME GAYANE 0.0000
-1.7104 ME HAGEN 0.0000
-1.7104 ME HENDRIK 0.0000
-1.8865 ME JASMINE 0.0000
-2.1875 ME KEVIN 0.0000
-1.8865 ME LENA 0.0000
-1.8865 ME LISSET 0.0000
-1.8865 ME LUKAS 0.0000
-1.7104 ME MAREIKE 0.0000
-1.5855 ME MICHAEL 0.0000
-1.8865 ME MIHAI 0.0000
-2.1875 ME OTTHEIN 0.0000
-1.8865 ME PATRICK 0.0000
-1.7104 ME SASCHA 0.0000
-1.7104 ME SOME 0.0000
-2.1875 ME TOBIAS 0.0000
-0.3010 MEET YOU -0.2596
-0.3010 MENTION </s> -0.3010
-0.3010 MICHAEL </s> -0.3010
-0.3010 MIHAI </s> -0.3010
-0.4472 MORE PIECE 0.0000
-0.8451 MORE TIME 0.0000
-0.3010 MORNING </s> -0.3010
-0.3010 MOROCCO </s> -0.3010
-0.4065 MY NAME -0.0105
-0.9672 MY ORDER 0.0000
-1.9138 NAME </s> -0.3010
-0.3118 NAME IS -0.0669
-1.6812 NEED A -0.2109
-1.6812 NEED BEER 0.0000
-1.3802 NEED DRINK 0.0000
-1.6812 NEED EIGHT -0.1963
-1.6812 NEED FEW 0.0000
-1.6812 NEED NINE -0.2139
-1.2041 NEED SOME 0.0000
-1.6812 NEED SOMETHING 0.0000
-1.3802 NEED TEN -0.1249
-1.3802 NEED THREE -0.2156
-0.9031 NEED TO -0.1761
-1.6812 NEED TWO -0.1761
-1.6812 NEED WATER 0.0000
-1.6812 NEED YOUR -0.2218
-0.3010 NETHERLANDS </s> -0.3010
-0.3010 NICE TO -0.2771
-0.3010 NIGHT </s> -0.3010
-0.7404 NINE PIECE 0.0000
-0.4973 NINE YEARS 0.0000
-0.9031 NINETY FIVE -0.0580
-0.9031 NINETY FOUR -0.0458
-0.9031 NINETY SEVEN -0.0872
-0.9031 NINETY SIX -0.0378
-0.3010 NO </s> -0.3010
-0.3010 NORWAY </s> -0.3010
-0.7782 NOT </s> -0.3010
-1.0792 NOT AT 0.0000
-1.0792 NOT CLEAR 0.0000
-0.7782 NOT FEELING -0.0969
-0.3076 OF CAKE 0.0000
-2.1271 OF COURSE 0.0000
-0.9031 OFFER </s> -0.3010
-0.4260 OFFER CAKE -0.0429
-0.3010 OK </s> -0.3010
-0.3072 OLD </s> -0.3010
-2.1523 OLD ARE -0.0512
-0.8451 ONE MORE -0.2341
-0.4472 ONE YEARS 0.0000
-0.3010 ORDER </s> -0.3010
-0.3010 OTTHEIN </s> -0.3010
-0.3010 OUR CONVERSATION 0.0000
-0.3010 PASCALE </s> -0.3010
-0.3010 PATRICK </s> -0.3010
-0.3010 PEOPLE CALL 0.0000
-0.3010 PIECE OF -0.0064
-0.3010 PLEASURE TO -0.2771
-0.3010 POLAND </s> -0.3010
-0.7270 REDUCE MY -0.2515
-0.5051 REDUCE SOME 0.0000
-0.3010 REPEAT </s> -0.3010
-0.3010 ROMANIA </s> -0.3010
-0.3010 RUSSIA </s> -0.3010
-0.3010 SASCHA </s> -0.3010
-0.3010 SAY ONE -0.2341
-0.3010 SEAT </s> -0.3010
-0.3010 SEE YOU -0.2553
-0.3010 SENEGAL </s> -0.3010
-0.9542 SEVEN PIECE 0.0000
-0.4102 SEVEN YEARS 0.0000
-0.3010 SEVENTEEN YEARS 0.0000
-1.2041 SEVENTY ONE -0.1091
-0.9031 SEVENTY SEVEN -0.0872
-1.2041 SEVENTY SIX -0.0378
-0.6021 SEVENTY THREE -0.1326
-0.3010 SHOULD I -0.2979
-0.3010 SIT </s> -0.3010
-1.3424 SIX PIECE 0.0000
-0.3424 SIX YEARS 0.0000
-1.0792 SIXTY EIGHT -0.1549
-1.0792 SIXTY FIVE -0.0580
-1.0792 SIXTY SEVEN -0.0872
-1.0792 SIXTY SIX -0.0378
-1.0792 SIXTY TWO -0.1761
-1.0792 SIXTY YEARS 0.0000
-0.3010 SOME PIECE 0.0000
-0.3010 SOMETHING </s> -0.3010
-0.3010 SOUTH AFRICA 0.0000
-0.3010 SPAIN </s> -0.3010
-0.3010 SUD KOREA 0.0000
-0.3010 SWEDEN </s> -0.3010
-0.3010 SWITZERLAND </s> -0.3010
-0.3010 TAKE AWAY 0.0000
-0.4771 TEN PIECE 0.0000
-0.7782 TEN YEARS 0.0000
-0.3010 THANK YOU -0.2596
-0.3010 THE CONVERSATION 0.0000
-1.0000 THIRTY FIVE -0.0580
-1.0000 THIRTY SEVEN -0.0872
-1.0000 THIRTY SIX -0.0378
-1.0000 THIRTY THREE -0.1326
-1.0000 THIRTY YEARS 0.0000
-0.3010 THISRD PIECE 0.0000
-0.7482 THREE PIECE 0.0000
-0.4929 THREE YEARS 0.0000
-0.3010 TIME </s> -0.3010
-1.7482 TO BE 0.0000
-1.7482 TO DECREASE -0.1249
-1.2711 TO DROP 0.0000
-0.8451 TO GET -0.0512
-1.7482 TO LOWER 0.0000
-1.4472 TO MEET 0.0000
-0.9031 TO REDUCE 0.0000
-1.7482 TO SEE 0.0000
-1.1461 TO TAKE 0.0000
-0.3010 TOBIAS </s> -0.3010
-0.3010 TOGO </s> -0.3010
-1.3424 TWENTY FIVE -0.0580
-1.0414 TWENTY FOUR -0.0458
-0.8653 TWENTY NINE -0.1347
-1.3424 TWENTY ONE -0.1091
-1.3424 TWENTY SEVEN -0.0872
-1.3424 TWENTY THREE -0.1326
-1.3424 TWENTY TWO -0.1761
-1.3424 TWENTY YEARS 0.0000
-0.6021 TWO PIECE 0.0000
-0.6021 TWO YEARS 0.0000
-0.3010 UNCLEAR </s> -0.3010
-0.3010 UNDERSTAND </s> -0.3010
-1.3802 WANT A -0.2109
-1.6812 WANT CAKE -0.0429
-1.6812 WANT EIGHT -0.1963
-1.6812 WANT FEW 0.0000
-1.6812 WANT FIVE -0.2688
-1.3802 WANT NINE -0.2139
-1.6812 WANT SIX -0.2808
-1.6812 WANT SOME 0.0000
-1.3802 WANT THREE -0.2156
-0.6812 WANT TO -0.0714
-1.3802 WANT TWO -0.1761
-0.4771 WAS A -0.2430
-0.7782 WAS OUR 0.0000
-0.3010 WATER </s> -0.3010
-0.6021 WHAT CAN -0.0621
-1.2041 WHAT DO -0.2341
-1.2041 WHAT HAPPEN 0.0000
-0.9031 WHAT IS -0.2919
-0.6021 WHERE CAN -0.2663
-0.6021 WHERE SHOULD 0.0000
-0.3010 WHO ARE -0.0512
-0.3010 WITH YOU -0.2596
-0.3979 WOULD LIKE 0.0000
-1.0000 WOULD YOU -0.2553
-0.3010 YEARS OLD -0.0061
-0.3010 YES </s> -0.3010
-1.0414 YOU </s> -0.3010
-2.0414 YOU ARE -0.2730
-1.4393 YOU CUT 0.0000
-1.7404 YOU DECREASE 0.0000
-1.5643 YOU DO -0.1963
-2.0414 YOU DOING 0.0000
-1.5643 YOU DROP -0.1249
-1.7404 YOU ENJOY 0.0000
-2.0414 YOU FEELING -0.2430
-1.7404 YOU FIND 0.0000
-1.2632 YOU GET -0.0512
-1.1963 YOU GIVE 0.0000
-2.0414 YOU LATER 0.0000
-2.0414 YOU MAKE 0.0000
-1.4393 YOU OFFER 0.0000
-1.5643 YOU OK 0.0000
-2.0414 YOU REDUCE -0.2109
-1.7404 YOU REPEAT 0.0000
-2.0414 YOU SAY 0.0000
-0.7782 YOUR AGE 0.0000
-0.7782 YOUR HELP 0.0000
-0.7782 YOUR NAME -0.2957

\3-grams:
-0.3010 <s> ABSOLUTELY </s>
-0.3010 <s> ARE YOU
-0.3010 <s> CALL ME
-1.2041 <s> CAN I
-0.3590 <s> CAN YOU
-1.5315 <s> COULD I
-0.3274 <s> COULD YOU
-0.3010 <s> DID YOU
-0.3010 <s> DONT MENTION
-0.3010 <s> EVERYTHING IS
-1.0000 <s> GOOD AFTERNOON
-1.0000 <s> GOOD BYE
-1.0000 <s> GOOD MORNING
-0.6990 <s> GOOD NIGHT
-0.3010 <s> GOODBYE </s>
-0.3010 <s> HELLO </s>
-0.9542 <s> HOW ARE
-1.2553 <s> HOW DID
-1.2553 <s> HOW DO
-0.7782 <s> HOW IS
-1.2553 <s> HOW OLD
-1.2553 <s> HOW WAS
-0.5999 <s> I AM
-1.1814 <s> I COME
-2.6128 <s> I DID
-2.6128 <s> I DIDNT
-2.3118 <s> I DO
-2.1357 <s> I DONT
-1.2326 <s> I NEED
-1.2326 <s> I WANT
-1.3118 <s> I WOULD
-0.6021 <s> IT IS
-0.6021 <s> IT WAS
-0.4771 <s> MAY I
-0.7782 <s> MAY YOU
-0.3010 <s> MY NAME
-0.3010 <s> NICE TO
-0.3010 <s> NO </s>
-0.3010 <s> NOT AT
-0.3010 <s> OF COURSE
-0.3010 <s> ONE MORE
-0.3010 <s> PEOPLE CALL
-0.3010 <s> SEE YOU
-0.3010 <s> THANK YOU
-0.6021 <s> WHAT CAN
-1.2041 <s> WHAT DO
-1.2041 <s> WHAT HAPPEN
-0.9031 <s> WHAT IS
-0.6021 <s> WHERE CAN
-0.6021 <s> WHERE SHOULD
-0.3010 <s> WHO ARE
-0.3010 <s> WOULD YOU
-0.3010 <s> YES </s>
-0.3010 <s> YOU ARE
-0.3010 A PIECE OF
-0.3010 A PLEASURE TO
-0.3010 A SEAT </s>
-0.3010 AM BAD </s>
-1.3010 AM EIGTHY EIGHT
-1.3010 AM EIGTHY FIVE
-0.8239 AM EIGTHY FOUR
-1.3010 AM EIGTHY NINE
-1.3010 AM EIGTHY ONE
-1.0000 AM EIGTHY SIX
-1.3010 AM EIGTHY THREE
-0.3010 AM FEELING GOOD
-1.3010 AM FIFTY NINE
-1.3010 AM FIFTY ONE
-0.8239 AM FIFTY SIX
-1.0000 AM FIFTY THREE
-0.8239 AM FIFTY YEARS
-0.3010 AM FIVE YEARS
-0.6021 AM FORTY EIGHT
-0.9031 AM FORTY TWO
-0.9031 AM FORTY YEARS
-0.3010 AM FOUR YEARS
-1.7324 AM FROM AFRICA
-1.4314 AM FROM AMERICA
-1.7324 AM FROM ASIA
-1.2553 AM FROM BELGIUM
-1.7324 AM FROM CAMEROON
-1.7324 AM FROM CHINA
-1.4314 AM FROM EGYPT
-1.7324 AM FROM INDIAN
-1.7324 AM FROM ITALY
-1.7324 AM FROM JAPAN
-1.7324 AM FROM KENYA
-1.4314 AM FROM NETHERLANDS
-1.2553 AM FROM ROMANIA
-1.4314 AM FROM RUSSIA
-1.7324 AM FROM SENEGAL
-1.7324 AM FROM SPAIN
-1.7324 AM FROM SUD
-1.7324 AM FROM SWEDEN
-1.7324 AM FROM TOGO
-0.3010 AM GOING </s>
-0.3010 AM GOOD </s>
-0.3010 AM HUNDRED YEARS
-0.3010 AM NINE YEARS
-0.9031 AM NINETY FIVE
-0.9031 AM NINETY FOUR
-0.9031 AM NINETY SEVEN
-0.9031 AM NINETY SIX
-0.3010 AM NOT FEELING
-0.3010 AM ONE YEARS
-0.3010 AM SEVEN YEARS
-0.3010 AM SEVENTEEN YEARS
-1.2041 AM SEVENTY ONE
-0.9031 AM SEVENTY SEVEN
-1.2041 AM SEVENTY SIX
-0.6021 AM SEVENTY THREE
-0.3010 AM SIX YEARS
-1.0792 AM SIXTY EIGHT
-1.0792 AM SIXTY FIVE
-1.0792 AM SIXTY SEVEN
-1.0792 AM SIXTY SIX
-1.0792 AM SIXTY TWO
-1.0792 AM SIXTY YEARS
-0.3010 AM TEN YEARS
-1.0000 AM THIRTY FIVE
-1.0000 AM THIRTY SEVEN
-1.0000 AM THIRTY SIX
-1.0000 AM THIRTY THREE
-1.0000 AM THIRTY YEARS
-1.3424 AM TWENTY FIVE
-1.0414 AM TWENTY FOUR
-0.8653 AM TWENTY NINE
-1.3424 AM TWENTY ONE
-1.3424 AM TWENTY SEVEN
-1.3424 AM TWENTY THREE
-1.3424 AM TWENTY TWO
-1.3424 AM TWENTY YEARS
-0.3010 ARE KIND </s>
-0.8451 ARE YOU </s>
-1.1461 ARE YOU DOING
-1.1461 ARE YOU FEELING
-0.6690 ARE YOU OK
-0.3010 AT ALL </s>
-0.3010 AWAY MY ORDER
-0.3010 AWAY SOME PIECE
-0.3010 BE WITH YOU
-0.3010 CAKE AGAIN </s>
-1.8573 CALL ME </s>
-1.8573 CALL ME ADRIAN
-1.8573 CALL ME ALEXANDER
-1.6812 CALL ME ALEXIS
-2.1584 CALL ME ALINA
-1.8573 CALL ME ANDREA
-2.1584 CALL ME ANDREI
-1.8573 CALL ME ARTHUR
-1.6812 CALL ME ASIL
-1.8573 CALL ME CHRIS
-1.8573 CALL ME CONSTANTIN
-1.5563 CALL ME DANIEL
-1.6812 CALL ME DOMINIC
-1.8573 CALL ME ELIAS
-1.8573 CALL ME FERENC
-1.8573 CALL ME FERESHTA
-1.8573 CALL ME FRANKLIN
-1.5563 CALL ME GAYANE
-1.6812 CALL ME HAGEN
-1.6812 CALL ME HENDRIK
-1.8573 CALL ME JASMINE
-2.1584 CALL ME KEVIN
-1.8573 CALL ME LENA
-1.8573 CALL ME LISSET
-1.8573 CALL ME LUKAS
-1.6812 CALL ME MAREIKE
-1.5563 CALL ME MICHAEL
-1.8573 CALL ME MIHAI
-2.1584 CALL ME OTTHEIN
-1.8573 CALL ME PATRICK
-1.6812 CALL ME SASCHA
-2.1584 CALL ME TOBIAS
-0.6021 CAN I HAVE
-0.6021 CAN I SIT
-0.8653 CAN YOU DO
-1.3424 CAN YOU DROP
-1.3424 CAN YOU GET
-1.0414 CAN YOU GIVE
-1.3424 CAN YOU MAKE
-1.3424 CAN YOU OFFER
-1.3424 CAN YOU REDUCE
-1.3424 CAN YOU SAY
-1.7324 COME FROM AMERICA
-1.4314 COME FROM ASIA
-1.7324 COME FROM AUSTRALIA
-1.7324 COME FROM CHINA
-1.7324 COME FROM EGYPT
-1.7324 COME FROM ENGLAND
-1.7324 COME FROM GHANA
-1.7324 COME FROM GREECE
-1.7324 COME FROM INDIAN
-1.7324 COME FROM ITALY
-1.7324 COME FROM MOROCCO
-1.7324 COME FROM NETHERLANDS
-1.4314 COME FROM NORWAY
-1.4314 COME FROM POLAND
-1.7324 COME FROM ROMANIA
-1.2553 COME FROM RUSSIA
-1.4314 COME FROM SENEGAL
-1.7324 COME FROM SOUTH
-1.7324 COME FROM SPAIN
-1.7324 COME FROM SWITZERLAND
-1.7324 COME FROM TOGO
-0.3010 COULD I HAVE
-1.5051 COULD YOU CUT
-1.2041 COULD YOU DECREASE
-1.2041 COULD YOU DROP
-0.8062 COULD YOU GET
-1.0280 COULD YOU GIVE
-1.5051 COULD YOU OFFER
-1.2041 COULD YOU REPEAT
-0.3010 CUT CAKE </s>
-0.3010 DECREASE MY ORDER
-0.3010 DECREASE SOME PIECE
-0.4771 DID YOU ENJOY
-0.7782 DID YOU FIND
-0.3010 DIDNT GET YOU
-0.3010 DO NOT </s>
-0.6021 DO YOU FIND
-0.6021 DO YOU OFFER
-0.3010 DONT GET YOU
-0.3010 DONT MENTION </s>
-0.3010 DONT UNDERSTAND </s>
-0.3010 DROP MY ORDER
-0.3010 DROP SOME PIECE
-0.3010 EIGHT PIECE OF
-0.3010 EIGHT YEARS OLD
-0.3010 EIGTHY EIGHT YEARS
-0.3010 EIGTHY FIVE YEARS
-0.3010 EIGTHY FOUR YEARS
-0.3010 EIGTHY NINE YEARS
-0.3010 EIGTHY ONE YEARS
-0.3010 EIGTHY SIX YEARS
-0.3010 EIGTHY THREE YEARS
-0.3010 ENJOY OUR CONVERSATION
-0.3010 EVERYTHING IS GOOD
-0.3010 FEELING GOOD </s>
-0.3010 FEW PIECE OF
-0.3010 FIFTY NINE YEARS
-0.3010 FIFTY ONE YEARS
-0.3010 FIFTY SIX YEARS
-0.3010 FIFTY THREE YEARS
-0.3010 FIFTY YEARS OLD
-0.3010 FIND OUR CONVERSATION
-0.3010 FIND THE CONVERSATION
-0.3010 FIVE PIECE OF
-0.3010 FIVE YEARS OLD
-0.3010 FORTY EIGHT YEARS
-0.3010 FORTY TWO YEARS
-0.3010 FORTY YEARS OLD
-0.3010 FOUR PIECE OF
-0.3010 FOUR YEARS OLD
-0.3010 FROM AFRICA </s>
-0.3010 FROM AMERICA </s>
-0.3010 FROM ASIA </s>
-0.3010 FROM AUSTRALIA </s>
-0.3010 FROM BELGIUM </s>
-0.3010 FROM CAMEROON </s>
-0.3010 FROM CHINA </s>
-0.3010 FROM EGYPT </s>
-0.3010 FROM ENGLAND </s>
-0.3010 FROM GHANA </s>
-0.3010 FROM GREECE </s>
-0.3010 FROM INDIAN </s>
-0.3010 FROM ITALY </s>
-0.3010 FROM JAPAN </s>
-0.3010 FROM KENYA </s>
-0.3010 FROM MOROCCO </s>
-0.3010 FROM NETHERLANDS </s>
-0.3010 FROM NORWAY </s>
-0.3010 FROM POLAND </s>
-0.3010 FROM ROMANIA </s>
-0.3010 FROM RUSSIA </s>
-0.3010 FROM SENEGAL </s>
-0.3010 FROM SOUTH AFRICA
-0.3010 FROM SPAIN </s>
-0.3010 FROM SUD KOREA
-0.3010 FROM SWEDEN </s>
-0.3010 FROM SWITZERLAND </s>
-0.3010 FROM TOGO </s>
-0.3010 GET FEW PIECE
-0.3010 GET LESS PIECE
-0.3010 GET MORE PIECE
-0.3010 GET YOU </s>
-0.3010 GIVE CAKE </s>
-0.6990 GIVE ME FEW
-0.5229 GIVE ME SOME
-0.3010 GOOD AFTERNOON </s>
-0.3010 GOOD BYE </s>
-0.3010 GOOD MORNING </s>
-0.3010 GOOD NIGHT </s>
-0.3010 HAVE A SEAT
-0.3010 HOW ARE YOU
-0.3010 HOW DID YOU
-0.3010 HOW DO YOU
-0.4771 HOW IS EVERYTHING
-0.7782 HOW IS THE
-0.3010 HOW OLD ARE
-0.3010 HOW WAS OUR
-0.3010 HUNDRED YEARS OLD
-2.3139 I AM BAD
-1.3139 I AM EIGTHY
-2.3139 I AM FEELING
-1.3139 I AM FIFTY
-2.3139 I AM FIVE
-1.7118 I AM FORTY
-2.0128 I AM FOUR
-0.8825 I AM FROM
-2.3139 I AM GOING
-2.3139 I AM GOOD
-2.0128 I AM HUNDRED
-2.0128 I AM NINE
-1.7118 I AM NINETY
-2.0128 I AM NOT
-2.3139 I AM ONE
-2.3139 I AM SEVEN
-2.3139 I AM SEVENTEEN
-1.4108 I AM SEVENTY
-2.3139 I AM SIX
-1.5357 I AM SIXTY
-2.3139 I AM TEN
-1.6149 I AM THIRTY
-1.2725 I AM TWENTY
-0.3010 I COME FROM
-0.3010 I DID </s>
-0.3010 I DIDNT GET
-0.3010 I DO NOT
-0.7782 I DONT GET
-0.4771 I DONT UNDERSTAND
-0.3010 I HAVE A
-1.6812 I NEED A
-1.6812 I NEED BEER
-1.3802 I NEED DRINK
-1.6812 I NEED EIGHT
-1.6812 I NEED FEW
-1.6812 I NEED NINE
-1.2041 I NEED SOME
-1.6812 I NEED SOMETHING
-1.3802 I NEED TEN
-1.3802 I NEED THREE
-0.9031 I NEED TO
-1.6812 I NEED TWO
-1.6812 I NEED WATER
-1.6812 I NEED YOUR
-0.3010 I SIT </s>
-1.3802 I WANT A
-1.6812 I WANT CAKE
-1.6812 I WANT EIGHT
-1.6812 I WANT FEW
-1.6812 I WANT FIVE
-1.3802 I WANT NINE
-1.6812 I WANT SIX
-1.6812 I WANT SOME
-1.3802 I WANT THREE
-0.6812 I WANT TO
-1.3802 I WANT TWO
-0.3010 I WOULD LIKE
-0.3010 IS ALEXANDER </s>
-0.3010 IS ALINA </s>
-0.3010 IS ANDREA </s>
-0.3010 IS ANDREI </s>
-0.3010 IS ARTHUR </s>
-0.3010 IS ASIL </s>
-0.3010 IS DANIEL </s>
-0.3010 IS DOMINIC </s>
-0.3010 IS ELIAS </s>
-0.3010 IS EVERYTHING </s>
-0.3010 IS FRANKLIN </s>
-0.3010 IS GOOD </s>
-0.3010 IS JASMINE </s>
-0.3010 IS KEVIN </s>
-0.3010 IS LENA </s>
-0.3010 IS LISSET </s>
-0.3010 IS MAREIKE </s>
-0.3010 IS MICHAEL </s>
-0.3010 IS NOT CLEAR
-0.3010 IS PASCALE </s>
-0.3010 IS PATRICK </s>
-0.3010 IS THE CONVERSATION
-0.3010 IS TOBIAS </s>
-0.3010 IS UNCLEAR </s>
-0.6021 IS YOUR AGE
-0.6021 IS YOUR NAME
-0.6021 IT IS NOT
-0.6021 IT IS UNCLEAR
-0.3010 IT WAS A
-0.3010 LESS PIECE OF
-0.3010 LIKE CAKE </s>
-0.3010 LIKE EIGHT PIECE
-0.3010 LIKE FEW PIECE
-0.3010 LIKE FOUR PIECE
-0.3010 LIKE MORE PIECE
-0.3010 LIKE NINE PIECE
-0.3010 LIKE SEVEN PIECE
-0.3010 LIKE SOME PIECE
-0.3010 LIKE THISRD PIECE
-0.3010 LIKE THREE PIECE
-1.2041 LIKE TO DECREASE
-1.2041 LIKE TO DROP
-0.6021 LIKE TO GET
-1.2041 LIKE TO REDUCE
-1.2041 LIKE TO TAKE
-0.3010 LOWER MY ORDER
-0.6021 MAY I HAVE
-0.6021 MAY I SIT
-0.3010 MAY YOU OFFER
-0.3010 ME ADRIAN </s>
-0.3010 ME ALEXANDER </s>
-0.3010 ME ALEXIS </s>
-0.3010 ME ALINA </s>
-0.3010 ME ANDREA </s>
-0.3010 ME ANDREI </s>
-0.3010 ME ARTHUR </s>
-0.3010 ME ASIL </s>
-0.3010 ME CHRIS </s>
-0.3010 ME CONSTANTIN </s>
-0.3010 ME DANIEL </s>
-0.3010 ME DOMINIC </s>
-0.3010 ME ELIAS </s>
-0.3010 ME FERENC </s>
-0.3010 ME FERESHTA </s>
-0.3010 ME FEW PIECE
-0.3010 ME FRANKLIN </s>
-0.3010 ME GAYANE </s>
-0.3010 ME HAGEN </s>
-0.3010 ME HENDRIK </s>
-0.3010 ME JASMINE </s>
-0.3010 ME KEVIN </s>
-0.3010 ME LENA </s>
-0.3010 ME LISSET </s>
-0.3010 ME LUKAS </s>
-0.3010 ME MAREIKE </s>
-0.3010 ME MICHAEL </s>
-0.3010 ME MIHAI </s>
-0.3010 ME OTTHEIN </s>
-0.3010 ME PATRICK </s>
-0.3010 ME SASCHA </s>
-0.3010 ME SOME PIECE
-0.3010 ME TOBIAS </s>
-0.3010 MEET YOU </s>
-0.3010 MORE PIECE OF
-0.3010 MORE TIME </s>
-0.3010 MY NAME IS
-0.3010 MY ORDER </s>
-1.6021 NAME IS ALEXANDER
-1.9031 NAME IS ALINA
-1.9031 NAME IS ANDREA
-1.9031 NAME IS ANDREI
-1.6021 NAME IS ARTHUR
-1.3010 NAME IS ASIL
-1.4260 NAME IS DANIEL
-1.4260 NAME IS DOMINIC
-1.4260 NAME IS ELIAS
-1.4260 NAME IS FRANKLIN
-1.6021 NAME IS JASMINE
-1.4260 NAME IS KEVIN
-1.6021 NAME IS LENA
-1.9031 NAME IS LISSET
-1.9031 NAME IS MAREIKE
-1.6021 NAME IS MICHAEL
-1.6021 NAME IS PASCALE
-1.6021 NAME IS PATRICK
-1.6021 NAME IS TOBIAS
-0.3010 NEED A PIECE
-0.3010 NEED BEER </s>
-0.3010 NEED DRINK </s>
-0.3010 NEED EIGHT PIECE
-0.3010 NEED FEW PIECE
-0.3010 NEED NINE PIECE
-0.3010 NEED SOME PIECE
-0.3010 NEED SOMETHING </s>
-0.3010 NEED TEN PIECE
-0.3010 NEED THREE PIECE
-1.0792 NEED TO DROP
-0.6021 NEED TO REDUCE
-0.7782 NEED TO TAKE
-0.3010 NEED TWO PIECE
-0.3010 NEED WATER </s>
-0.3010 NEED YOUR HELP
-0.6021 NICE TO MEET
-0.6021 NICE TO SEE
-0.3010 NINE PIECE OF
-0.3010 NINE YEARS OLD
-0.3010 NINETY FIVE YEARS
-0.3010 NINETY FOUR YEARS
-0.3010 NINETY SEVEN YEARS
-0.3010 NINETY SIX YEARS
-0.3010 NOT AT ALL
-0.3010 NOT CLEAR </s>
-0.3010 NOT FEELING GOOD
-0.3571 OF CAKE </s>
-1.2175 OF CAKE AGAIN
-0.3010 OF COURSE </s>
-0.3010 OFFER CAKE </s>
-0.3010 OLD ARE YOU
-0.3010 ONE MORE TIME
-0.3010 ONE YEARS OLD
-0.3010 OUR CONVERSATION </s>
-0.3010 PEOPLE CALL ME
-0.3010 PIECE OF CAKE
-0.6021 PLEASURE TO BE
-0.6021 PLEASURE TO MEET
-0.3010 REDUCE MY ORDER
-0.3010 REDUCE SOME PIECE
-0.3010 SAY ONE MORE
-0.4771 SEE YOU </s>
-0.7782 SEE YOU LATER
-0.3010 SEVEN PIECE OF
-0.3010 SEVEN YEARS OLD
-0.3010 SEVENTEEN YEARS OLD
-0.3010 SEVENTY ONE YEARS
-0.3010 SEVENTY SEVEN YEARS
-0.3010 SEVENTY SIX YEARS
-0.3010 SEVENTY THREE YEARS
-0.3010 SHOULD I SIT
-0.3010 SIX PIECE OF
-0.3010 SIX YEARS OLD
-0.3010 SIXTY EIGHT YEARS
-0.3010 SIXTY FIVE YEARS
-0.3010 SIXTY SEVEN YEARS
-0.3010 SIXTY SIX YEARS
-0.3010 SIXTY TWO YEARS
-0.3010 SIXTY YEARS OLD
-0.3010 SOME PIECE OF
-0.3010 SOUTH AFRICA </s>
-0.3010 SUD KOREA </s>
-0.4260 TAKE AWAY MY
-0.9031 TAKE AWAY SOME
-0.3010 TEN PIECE OF
-0.3010 TEN YEARS OLD
-0.3010 THANK YOU </s>
-0.3010 THE CONVERSATION </s>
-0.3010 THIRTY FIVE YEARS
-0.3010 THIRTY SEVEN YEARS
-0.3010 THIRTY SIX YEARS
-0.3010 THIRTY THREE YEARS
-0.3010 THIRTY YEARS OLD
-0.3010 THISRD PIECE OF
-0.3010 THREE PIECE OF
-0.3010 THREE YEARS OLD
-0.3010 TO BE WITH
-0.3010 TO DECREASE MY
-0.4771 TO DROP MY
-0.7782 TO DROP SOME
-1.2041 TO GET FEW
-0.6021 TO GET LESS
-0.7270 TO GET MORE
-0.3010 TO LOWER MY
-0.3010 TO MEET YOU
-0.8451 TO REDUCE MY
-0.4472 TO REDUCE SOME
-0.3010 TO SEE YOU
-0.3010 TO TAKE AWAY
-0.3010 TWENTY FIVE YEARS
-0.3010 TWENTY FOUR YEARS
-0.3010 TWENTY NINE YEARS
-0.3010 TWENTY ONE YEARS
-0.3010 TWENTY SEVEN YEARS
-0.3010 TWENTY THREE YEARS
-0.3010 TWENTY TWO YEARS
-0.3010 TWENTY YEARS OLD
-0.3010 TWO PIECE OF
-0.3010 TWO YEARS OLD
-0.3010 WANT A PIECE
-0.3010 WANT CAKE </s>
-0.3010 WANT EIGHT PIECE
-0.3010 WANT FEW PIECE
-0.3010 WANT FIVE PIECE
-0.3010 WANT NINE PIECE
-0.3010 WANT SIX PIECE
-0.3010 WANT SOME PIECE
-0.3010 WANT THREE PIECE
-1.3010 WANT TO DROP
-0.6990 WANT TO GET
-1.3010 WANT TO LOWER
-0.8239 WANT TO REDUCE
-1.3010 WANT TO TAKE
-0.3010 WANT TWO PIECE
-0.3010 WAS A PLEASURE
-0.3010 WAS OUR CONVERSATION
-0.3010 WHAT CAN YOU
-0.3010 WHAT DO YOU
-0.3010 WHAT HAPPEN </s>
-0.3010 WHAT IS YOUR
-0.3010 WHERE CAN I
-0.3010 WHERE SHOULD I
-0.3010 WHO ARE YOU
-0.3010 WITH YOU </s>
-1.6021 WOULD LIKE CAKE
-1.6021 WOULD LIKE EIGHT
-1.6021 WOULD LIKE FEW
-1.6021 WOULD LIKE FOUR
-1.6021 WOULD LIKE MORE
-1.6021 WOULD LIKE NINE
-1.3010 WOULD LIKE SEVEN
-1.6021 WOULD LIKE SOME
-1.3010 WOULD LIKE THISRD
-1.6021 WOULD LIKE THREE
-0.6990 WOULD LIKE TO
-0.5229 WOULD YOU CUT
-0.6990 WOULD YOU GIVE
-0.3010 YEARS OLD </s>
-0.3010 YOU ARE KIND
-0.3010 YOU CUT CAKE
-0.6021 YOU DECREASE MY
-0.6021 YOU DECREASE SOME
-0.3010 YOU DO </s>
-0.3010 YOU DOING </s>
-0.3010 YOU DROP SOME
-0.3010 YOU ENJOY OUR
-0.3010 YOU FEELING </s>
-0.6021 YOU FIND OUR
-0.6021 YOU FIND THE
-0.4771 YOU GET FEW
-1.0792 YOU GET LESS
-1.0792 YOU GET MORE
-0.8451 YOU GIVE CAKE
-0.4472 YOU GIVE ME
-0.3010 YOU LATER </s>
-0.3010 YOU MAKE </s>
-0.9031 YOU OFFER </s>
-0.4260 YOU OFFER CAKE
-0.3010 YOU OK </s>
-0.3010 YOU REDUCE MY
-0.3010 YOU REPEAT </s>
-0.3010 YOU SAY ONE
-0.3010 YOUR AGE </s>
-0.3010 YOUR HELP </s>
-0.3010 YOUR NAME </s>

\end\
