Language model created by QuickLM on Fri Aug 25 09:37:37 EDT 2017
Copyright (c) 1996-2010 Carnegie Mellon University and Alexander I. Rudnicky

The model is in standard ARPA format, designed by Doug Paul while he was at MITRE.

The code that was used to produce this language model is available in Open Source.
Please visit http://www.speech.cs.cmu.edu/tools/ for more information

The (fixed) discount mass is 0.5. The backoffs are computed using the ratio method.
This model based on a corpus of 406 sentences and 183 words

\data\
ngram 1=183
ngram 2=466
ngram 3=621

\1-grams:
-1.1389 </s> -0.3010
-1.1389 <s> -0.2465
-2.7932 A -0.2941
-3.2703 ADRIAN -0.2683
-3.7474 AFRICA -0.2683
-3.7474 AFTERNOON -0.2683
-2.7060 AGAIN -0.2683
-3.4464 ALEXANDER -0.2683
-3.4464 ALEXIS -0.2683
-3.7474 ALINA -0.2683
-3.7474 ALL -0.2683
-1.7304 AM -0.2871
-3.1454 AMERICA -0.2683
-3.4464 ANDREA -0.2683
-3.4464 ANDREI -0.2683
-3.1454 ARE -0.2962
-3.2703 ARTHUR -0.2683
-3.1454 ASIA -0.2683
-2.9693 ASIL -0.2683
-3.7474 AT -0.3010
-3.7474 AUSTRALIA -0.2683
-2.6013 AWAY -0.2941
-3.7474 BAD -0.2683
-3.7474 BE -0.3010
-3.4464 BELGIUM -0.2683
-3.7474 BYE -0.2683
-1.7697 CAKE -0.2674
-1.9279 CALL -0.2951
-3.4464 CAMEROON -0.2683
-2.2033 CAN -0.2781
-3.2703 CHRIS -0.2683
-3.7474 CLEAR -0.2683
-2.4252 COME -0.2974
-3.4464 CONSTANTIN -0.2683
-2.8443 CONVERSATION -0.2683
-2.7932 COULD -0.2781
-3.7474 COURSE -0.2683
-3.1454 CUT -0.2936
-3.4464 DANIEL -0.2683
-3.0484 DECREASE -0.2941
-3.2703 DID -0.2631
-3.1454 DIDNT -0.2674
-3.1454 DO -0.2959
-3.7474 DOING -0.2683
-2.7932 DOMINIC -0.2683
-3.2703 DONT -0.3008
-2.9023 DROP -0.2941
-3.7474 EGYPT -0.2683
-3.0484 EIGHT -0.2955
-3.4464 EIGHTEEN -0.2955
-2.8443 EIGTHY -0.2914
-3.7474 ELEVEN -0.2955
-3.1454 ELIAS -0.2683
-3.7474 ENJOY -0.3006
-3.7474 EVERYTHING -0.2982
-3.4464 FEELING -0.3004
-3.1454 FERENC -0.2683
-3.2703 FERESHTA -0.2683
-2.9693 FEROZ -0.2683
-3.0484 FEW -0.2944
-3.2703 FIFTY -0.2987
-3.4464 FIND -0.2999
-2.7932 FIVE -0.2887
-3.1454 FORTY -0.2937
-2.7474 FOUR -0.2887
-3.2703 FRANKLIN -0.2683
-2.0847 FROM -0.2645
-3.4464 GAYANE -0.2683
-3.2703 GEORG -0.2683
-3.7474 GERMANY -0.2683
-2.7060 GET -0.2945
-3.7474 GHANA -0.2683
-2.7474 GIVE -0.2875
-2.9023 GOOD -0.2679
-3.2703 HAGEN -0.2683
-3.2703 HAVE -0.3003
-3.1454 HELLO -0.2683
-3.4464 HELP -0.2951
-3.7474 HENDRIK -0.2683
-2.7474 HOW -0.2913
-1.3914 I -0.2823
-2.8443 INCREASE -0.2963
-3.7474 INDIAN -0.2683
-2.1911 IS -0.2940
-3.1454 IT -0.2979
-3.4464 ITALY -0.2683
-3.4464 JAPAN -0.2683
-3.7474 JASMINE -0.2683
-3.0484 KEVIN -0.2683
-3.4464 KOREA -0.2683
-3.4464 LEAVING -0.2683
-3.2703 LENA -0.2683
-2.7932 LESS -0.2944
-2.3324 LIKE -0.2825
-3.7474 LISSET -0.2683
-2.9693 LOWER -0.2963
-3.4464 LUKAS -0.2683
-3.7474 MAKE -0.2683
-3.7474 MALI -0.2683
-3.1454 MAY -0.2781
-1.8666 ME -0.2568
-3.4464 MENTION -0.2683
-3.0484 MICHAEL -0.2683
-3.1454 MIHAI -0.2683
-2.8443 MORE -0.2944
-1.9621 MY -0.2963
-2.2703 NAME -0.2982
-2.1563 NEED -0.2803
-3.7474 NETHERLANDS -0.2683
-3.7474 NICE -0.2981
-3.4464 NIGHT -0.2683
-2.6013 NINE -0.2887
-3.4464 NINETEEN -0.2955
-3.1454 NINETY -0.2984
-3.4464 NO -0.2683
-3.2703 NORWAY -0.2683
-3.0484 NOT -0.2674
-1.8129 OF -0.2935
-3.2703 OFFER -0.2603
-3.7474 OK -0.2683
-1.8841 OLD -0.2679
-2.9023 ONE -0.2955
-2.2561 ORDER -0.2683
-3.4464 OTTHEIN -0.2683
-2.9693 OUR -0.3004
-3.7474 PASCALE -0.2683
-3.2703 PATRICK -0.2683
-3.7474 PEOLE -0.2959
-2.2423 PEOPLE -0.2959
-1.8180 PIECE -0.2943
-3.7474 PLEASURE -0.2981
-3.7474 POLAND -0.2683
-3.7474 RAFAEL -0.2683
-2.8443 REDUCE -0.2941
-3.2703 REPEAT -0.2683
-3.1454 RUSSIA -0.2683
-3.2703 SEAT -0.2683
-3.7474 SEBASTIAN -0.2683
-3.1454 SEE -0.2963
-3.7474 SENEGAL -0.2683
-2.8443 SEVEN -0.2887
-2.8443 SEVENTY -0.2912
-3.7474 SHOULD -0.2830
-3.4464 SICK -0.2683
-3.2703 SIT -0.2683
-2.6013 SIX -0.2887
-3.2703 SIXTEEN -0.2955
-2.8443 SIXTY -0.2903
-2.3003 SOME -0.2944
-3.7474 SOMETHING -0.2683
-3.7474 SOUTH -0.3010
-3.7474 SPAIN -0.2683
-3.4464 SUD -0.3009
-3.7474 SWEDEN -0.2683
-3.4464 SWITZERLAND -0.2683
-2.6013 TAKE -0.2999
-3.2703 TEN -0.2944
-3.7474 THANK -0.2963
-3.7474 THE -0.3004
-3.7474 THIRD -0.2944
-2.9693 THIRTY -0.2981
-3.7474 THISRD -0.2944
-3.0484 THREE -0.2887
-2.1792 TO -0.2960
-3.2703 TOGO -0.2683
-3.4464 TUNISIA -0.2683
-3.7474 TURKEY -0.2683
-3.7474 TWELVE -0.2955
-2.7932 TWENTY -0.2966
-2.7060 TWO -0.2887
-3.4464 UNCLEAR -0.2683
-3.7474 UNDERSTAND -0.2683
-2.3495 WANT -0.2899
-3.1454 WAS -0.2998
-3.7474 WATER -0.2683
-3.7474 WELLCOME -0.2683
-3.4464 WHAT -0.2980
-3.2703 WHERE -0.2979
-3.7474 WITH -0.2963
-2.3160 WOULD -0.2942
-1.8962 YEARS -0.2953
-3.7474 YES -0.2683
-1.9621 YOU -0.2589

\2-grams:
-1.3910 <s> CALL 0.0000
-1.3910 <s> CAN 0.0000
-1.9553 <s> COULD 0.0000
-2.9096 <s> DID -0.1249
-2.6085 <s> DONT -0.1249
-2.9096 <s> EVERYTHING 0.0000
-2.3075 <s> GOOD -0.1549
-2.3075 <s> HELLO 0.0000
-1.9096 <s> HOW 0.0000
-0.5652 <s> I -0.0113
-2.3075 <s> IT 0.0000
-2.3075 <s> MAY 0.0000
-1.4324 <s> MY -0.1785
-2.9096 <s> NICE 0.0000
-2.6085 <s> NO 0.0000
-2.9096 <s> NOT -0.2553
-2.9096 <s> OF -0.2985
-2.9096 <s> PEOLE 0.0000
-1.4044 <s> PEOPLE 0.0000
-2.4324 <s> SEE 0.0000
-2.9096 <s> THANK 0.0000
-2.6085 <s> WHAT 0.0000
-2.4324 <s> WHERE 0.0000
-2.9096 <s> WOULD -0.2929
-2.9096 <s> YES 0.0000
-2.9096 <s> YOU -0.2975
-0.5563 A PIECE 0.0000
-1.2553 A PLEASURE 0.0000
-0.7782 A SEAT 0.0000
-0.3010 ADRIAN </s> -0.3010
-0.3010 AFRICA </s> -0.3010
-0.3010 AFTERNOON </s> -0.3010
-0.3010 AGAIN </s> -0.3010
-0.3010 ALEXANDER </s> -0.3010
-0.3010 ALEXIS </s> -0.3010
-0.3010 ALINA </s> -0.3010
-0.3010 ALL </s> -0.3010
-2.3181 AM EIGHT 0.0000
-2.0170 AM EIGHTEEN 0.0000
-1.4150 AM EIGTHY 0.0000
-2.3181 AM ELEVEN 0.0000
-2.3181 AM FEELING -0.1761
-1.8409 AM FIFTY 0.0000
-1.7160 AM FORTY 0.0000
-2.3181 AM FOUR -0.2304
-0.9201 AM FROM -0.0696
-2.0170 AM LEAVING 0.0000
-1.8409 AM NINE -0.0580
-2.0170 AM NINETEEN 0.0000
-1.7160 AM NINETY 0.0000
-2.0170 AM NOT -0.2041
-2.3181 AM OK 0.0000
-2.0170 AM ONE 0.0000
-2.0170 AM SEVEN -0.0969
-1.4150 AM SEVENTY 0.0000
-2.0170 AM SICK 0.0000
-1.8409 AM SIXTEEN 0.0000
-1.4150 AM SIXTY 0.0000
-1.5399 AM THIRTY 0.0000
-2.0170 AM THREE -0.0792
-2.3181 AM TWELVE 0.0000
-1.3638 AM TWENTY 0.0000
-2.3181 AM TWO -0.1347
-0.3010 AMERICA </s> -0.3010
-0.3010 ANDREA </s> -0.3010
-0.3010 ANDREI </s> -0.3010
-0.9031 ARE WELLCOME 0.0000
-0.4260 ARE YOU -0.2600
-0.3010 ARTHUR </s> -0.3010
-0.3010 ASIA </s> -0.3010
-0.3010 ASIL </s> -0.3010
-0.3010 AT ALL 0.0000
-0.3010 AUSTRALIA </s> -0.3010
-0.5441 AWAY MY -0.1737
-0.6690 AWAY SOME 0.0000
-0.3010 BAD </s> -0.3010
-0.3010 BE WITH 0.0000
-0.3010 BELGIUM </s> -0.3010
-0.3010 BYE </s> -0.3010
-0.3545 CAKE </s> -0.3010
-1.2374 CAKE AGAIN 0.0000
-0.3010 CALL ME -0.0435
-0.3010 CAMEROON </s> -0.3010
-1.5441 CAN I -0.2953
-0.3266 CAN YOU -0.1012
-0.3010 CHRIS </s> -0.3010
-0.3010 CLEAR </s> -0.3010
-0.3010 COME FROM -0.1296
-0.3010 CONSTANTIN </s> -0.3010
-0.3010 CONVERSATION </s> -0.3010
-1.2553 COULD I -0.2982
-0.3522 COULD YOU -0.2059
-0.3010 COURSE </s> -0.3010
-0.3010 CUT CAKE -0.0476
-0.3010 DANIEL </s> -0.3010
-0.5229 DECREASE MY -0.1737
-0.6990 DECREASE SOME 0.0000
-0.7782 DID </s> -0.3010
-0.4771 DID YOU -0.2902
-0.6021 DIDNT </s> -0.3010
-0.6021 DIDNT GET -0.2596
-0.9031 DO NOT -0.2553
-0.4260 DO YOU -0.2791
-0.3010 DOING </s> -0.3010
-0.3010 DOMINIC </s> -0.3010
-0.4771 DONT MENTION 0.0000
-0.7782 DONT UNDERSTAND 0.0000
-1.1461 DROP MY -0.1737
-0.3680 DROP SOME 0.0000
-0.3010 EGYPT </s> -0.3010
-0.3010 EIGHT YEARS 0.0000
-0.3010 EIGHTEEN YEARS 0.0000
-0.9031 EIGTHY EIGHT 0.0000
-1.2041 EIGTHY NINE -0.0580
-1.2041 EIGTHY ONE 0.0000
-1.2041 EIGTHY SIX -0.1326
-0.9031 EIGTHY TWO -0.1347
-1.2041 EIGTHY YEARS 0.0000
-0.3010 ELEVEN YEARS 0.0000
-0.3010 ELIAS </s> -0.3010
-0.3010 ENJOY OUR 0.0000
-0.3010 EVERYTHING IS -0.2950
-0.6021 FEELING BAD 0.0000
-0.6021 FEELING GOOD -0.1963
-0.3010 FERENC </s> -0.3010
-0.3010 FERESHTA </s> -0.3010
-0.3010 FEROZ </s> -0.3010
-0.3010 FEW PIECE 0.0000
-0.7782 FIFTY EIGHT 0.0000
-0.7782 FIFTY NINE -0.0580
-0.7782 FIFTY TWO -0.1347
-0.6021 FIND CONVERSATION 0.0000
-0.6021 FIND OUR 0.0000
-0.6532 FIVE PIECE 0.0000
-0.5563 FIVE YEARS 0.0000
-0.9031 FORTY NINE -0.0580
-0.6021 FORTY SEVEN -0.0969
-0.9031 FORTY YEARS 0.0000
-0.4559 FOUR PIECE 0.0000
-0.8239 FOUR YEARS 0.0000
-0.3010 FRANKLIN </s> -0.3010
-1.9638 FROM </s> -0.3010
-1.3617 FROM AMERICA 0.0000
-1.3617 FROM ASIA 0.0000
-1.9638 FROM AUSTRALIA 0.0000
-1.6628 FROM BELGIUM 0.0000
-1.6628 FROM CAMEROON 0.0000
-1.9638 FROM EGYPT 0.0000
-1.9638 FROM GERMANY 0.0000
-1.9638 FROM GHANA 0.0000
-1.9638 FROM INDIAN 0.0000
-1.6628 FROM ITALY 0.0000
-1.6628 FROM JAPAN 0.0000
-1.9638 FROM MALI 0.0000
-1.9638 FROM NETHERLANDS 0.0000
-1.4867 FROM NORWAY 0.0000
-1.9638 FROM POLAND 0.0000
-1.3617 FROM RUSSIA 0.0000
-1.9638 FROM SENEGAL 0.0000
-1.9638 FROM SOUTH 0.0000
-1.9638 FROM SPAIN 0.0000
-1.6628 FROM SUD 0.0000
-1.9638 FROM SWEDEN 0.0000
-1.6628 FROM SWITZERLAND 0.0000
-1.4867 FROM TOGO 0.0000
-1.6628 FROM TUNISIA 0.0000
-1.9638 FROM TURKEY 0.0000
-0.3010 GAYANE </s> -0.3010
-0.3010 GEORG </s> -0.3010
-0.3010 GERMANY </s> -0.3010
-0.7404 GET FEW 0.0000
-0.8653 GET LESS 0.0000
-1.0414 GET MORE 0.0000
-1.0414 GET YOU -0.2639
-0.3010 GHANA </s> -0.3010
-1.0000 GIVE CAKE -0.0476
-0.3979 GIVE ME -0.2775
-0.6690 GOOD </s> -0.3010
-1.1461 GOOD AFTERNOON 0.0000
-1.1461 GOOD BYE 0.0000
-0.8451 GOOD NIGHT 0.0000
-0.3010 HAGEN </s> -0.3010
-0.3010 HAVE A -0.2218
-0.3010 HELLO </s> -0.3010
-0.3010 HELP ME -0.2924
-0.3010 HENDRIK </s> -0.3010
-1.3010 HOW ARE -0.0969
-1.3010 HOW DID -0.1249
-1.3010 HOW DO -0.0969
-1.0000 HOW IS -0.2888
-1.0000 HOW OLD -0.2950
-0.8239 HOW WAS -0.0969
-0.6400 I AM 0.0000
-1.3560 I COME 0.0000
-2.6571 I DID -0.2218
-2.0550 I DIDNT 0.0000
-2.6571 I DO -0.2430
-2.6571 I DONT -0.2218
-2.1799 I HAVE 0.0000
-1.0660 I NEED 0.0000
-2.1799 I SIT 0.0000
-1.2591 I WANT 0.0000
-1.2421 I WOULD -0.0158
-0.3010 INCREASE MY -0.1737
-0.3010 INDIAN </s> -0.3010
-1.8573 IS ALEXIS 0.0000
-1.8573 IS ANDREI 0.0000
-1.8573 IS ASIL 0.0000
-1.8573 IS CHRIS 0.0000
-1.8573 IS DANIEL 0.0000
-1.5563 IS DOMINIC 0.0000
-1.5563 IS ELIAS 0.0000
-1.3802 IS FERENC 0.0000
-1.8573 IS FERESHTA 0.0000
-1.5563 IS FEROZ 0.0000
-1.8573 IS FRANKLIN 0.0000
-1.8573 IS GAYANE 0.0000
-1.5563 IS GEORG 0.0000
-1.8573 IS GOOD -0.1963
-1.5563 IS KEVIN 0.0000
-1.5563 IS LENA 0.0000
-1.8573 IS LISSET 0.0000
-1.5563 IS LUKAS 0.0000
-1.8573 IS MICHAEL 0.0000
-1.8573 IS NOT -0.2553
-1.5563 IS OTTHEIN 0.0000
-1.5563 IS OUR 0.0000
-1.8573 IS PATRICK 0.0000
-1.5563 IS UNCLEAR 0.0000
-0.4260 IT IS -0.2825
-0.9031 IT WAS -0.2430
-0.3010 ITALY </s> -0.3010
-0.3010 JAPAN </s> -0.3010
-0.3010 JASMINE </s> -0.3010
-0.3010 KEVIN </s> -0.3010
-0.3010 KOREA </s> -0.3010
-0.3010 LEAVING </s> -0.3010
-0.3010 LENA </s> -0.3010
-0.3010 LESS PIECE 0.0000
-1.7160 LIKE A -0.1597
-1.7160 LIKE CAKE -0.0476
-1.4150 LIKE FIVE -0.1919
-1.2389 LIKE FOUR -0.1139
-1.7160 LIKE LESS 0.0000
-1.4150 LIKE SEVEN -0.2430
-1.7160 LIKE SIX -0.2156
-1.1139 LIKE SOME 0.0000
-1.7160 LIKE TEN 0.0000
-1.7160 LIKE THISRD 0.0000
-0.8129 LIKE TO -0.1220
-1.7160 LIKE TWO -0.2139
-0.3010 LISSET </s> -0.3010
-0.3010 LOWER MY -0.1737
-0.3010 LUKAS </s> -0.3010
-0.3010 MAKE </s> -0.3010
-0.3010 MALI </s> -0.3010
-0.6021 MAY I -0.2953
-0.6021 MAY YOU -0.2754
-1.7047 ME </s> -0.3010
-1.7047 ME ADRIAN 0.0000
-1.8808 ME ALEXANDER 0.0000
-2.1818 ME ALEXIS 0.0000
-2.1818 ME ALINA 0.0000
-1.8808 ME ANDREA 0.0000
-2.1818 ME ANDREI 0.0000
-1.7047 ME ARTHUR 0.0000
-1.4829 ME ASIL 0.0000
-1.8808 ME CHRIS 0.0000
-1.8808 ME CONSTANTIN 0.0000
-2.1818 ME DANIEL 0.0000
-1.3367 ME DOMINIC 0.0000
-1.8808 ME ELIAS 0.0000
-2.1818 ME FERENC 0.0000
-1.8808 ME FERESHTA 0.0000
-1.5798 ME FEROZ 0.0000
-1.8808 ME FRANKLIN 0.0000
-2.1818 ME GAYANE 0.0000
-2.1818 ME GEORG 0.0000
-1.7047 ME HAGEN 0.0000
-2.1818 ME HENDRIK 0.0000
-2.1818 ME JASMINE 0.0000
-1.7047 ME KEVIN 0.0000
-2.1818 ME LENA 0.0000
-1.8808 ME LESS 0.0000
-1.5798 ME MICHAEL 0.0000
-1.5798 ME MIHAI 0.0000
-1.7047 ME MORE 0.0000
-2.1818 ME PASCALE 0.0000
-1.8808 ME PATRICK 0.0000
-2.1818 ME RAFAEL 0.0000
-2.1818 ME SEBASTIAN 0.0000
-1.7047 ME SOME 0.0000
-0.3010 MENTION </s> -0.3010
-0.3010 MICHAEL </s> -0.3010
-0.3010 MIHAI </s> -0.3010
-0.3010 MORE PIECE 0.0000
-0.6092 MY NAME 0.0000
-0.5950 MY ORDER 0.0000
-0.3010 NAME IS -0.0669
-1.4150 NEED A -0.1597
-1.8921 NEED CAKE -0.0476
-1.8921 NEED FEW 0.0000
-1.8921 NEED FIVE -0.1919
-1.2900 NEED FOUR -0.1139
-1.5911 NEED LESS 0.0000
-1.5911 NEED MORE 0.0000
-1.8921 NEED NINE -0.2688
-1.5911 NEED SIX -0.2156
-1.5911 NEED SOME 0.0000
-1.8921 NEED SOMETHING 0.0000
-1.8921 NEED TEN 0.0000
-1.8921 NEED THIRD 0.0000
-1.8921 NEED THREE -0.2553
-0.7782 NEED TO -0.0229
-1.5911 NEED TWO -0.2139
-1.8921 NEED WATER 0.0000
-0.3010 NETHERLANDS </s> -0.3010
-0.3010 NICE TO -0.2951
-0.3010 NIGHT </s> -0.3010
-1.1461 NINE PIECE 0.0000
-0.3680 NINE YEARS 0.0000
-0.3010 NINETEEN YEARS 0.0000
-0.6021 NINETY FIVE -0.1597
-0.9031 NINETY SIX -0.1326
-0.9031 NINETY TWO -0.1347
-0.3010 NO </s> -0.3010
-0.3010 NORWAY </s> -0.3010
-1.0000 NOT </s> -0.3010
-1.0000 NOT AT 0.0000
-1.0000 NOT CLEAR 0.0000
-1.0000 NOT FEELING -0.1761
-1.0000 NOT GOOD -0.1963
-0.3061 OF CAKE 0.0000
-2.2355 OF COURSE 0.0000
-0.7782 OFFER </s> -0.3010
-0.4771 OFFER CAKE -0.0476
-0.3010 OK </s> -0.3010
-0.3131 OLD </s> -0.3010
-1.8633 OLD ARE -0.0969
-0.3010 ONE YEARS 0.0000
-0.3010 ORDER </s> -0.3010
-0.3010 OTTHEIN </s> -0.3010
-0.3010 OUR CONVERSATION 0.0000
-0.3010 PASCALE </s> -0.3010
-0.3010 PATRICK </s> -0.3010
-0.3010 PEOLE CALL 0.0000
-0.3010 PEOPLE CALL 0.0000
-0.3010 PIECE OF -0.0050
-0.3010 PLEASURE TO -0.2951
-0.3010 POLAND </s> -0.3010
-0.3010 RAFAEL </s> -0.3010
-0.5051 REDUCE MY -0.1737
-0.7270 REDUCE SOME 0.0000
-0.3010 REPEAT </s> -0.3010
-0.3010 RUSSIA </s> -0.3010
-0.3010 SEAT </s> -0.3010
-0.3010 SEBASTIAN </s> -0.3010
-0.3010 SEE YOU -0.2639
-0.3010 SENEGAL </s> -0.3010
-0.9031 SEVEN PIECE 0.0000
-0.4260 SEVEN YEARS 0.0000
-1.2041 SEVENTY FIVE -0.1597
-1.2041 SEVENTY FOUR -0.2304
-1.2041 SEVENTY NINE -0.0580
-0.9031 SEVENTY ONE 0.0000
-0.9031 SEVENTY SIX -0.1326
-1.2041 SEVENTY YEARS 0.0000
-0.3010 SHOULD I -0.2982
-0.3010 SICK </s> -0.3010
-0.3010 SIT </s> -0.3010
-0.7482 SIX PIECE 0.0000
-0.4929 SIX YEARS 0.0000
-0.3010 SIXTEEN YEARS 0.0000
-1.2041 SIXTY FIVE -0.1597
-1.2041 SIXTY FOUR -0.2304
-0.9031 SIXTY NINE -0.0580
-1.2041 SIXTY ONE 0.0000
-1.2041 SIXTY SIX -0.1326
-1.2041 SIXTY TWO -0.1347
-1.2041 SIXTY YEARS 0.0000
-0.3010 SOME PIECE 0.0000
-0.3010 SOMETHING </s> -0.3010
-0.3010 SOUTH AFRICA 0.0000
-0.3010 SPAIN </s> -0.3010
-0.3010 SUD KOREA 0.0000
-0.3010 SWEDEN </s> -0.3010
-0.3010 SWITZERLAND </s> -0.3010
-0.3010 TAKE AWAY 0.0000
-0.3010 TEN PIECE 0.0000
-0.3010 THANK YOU -0.2639
-0.3010 THE CONVERSATION 0.0000
-0.3010 THIRD PIECE 0.0000
-0.7782 THIRTY NINE -0.0580
-1.0792 THIRTY SEVEN -0.0969
-0.7782 THIRTY THREE -0.0792
-1.0792 THIRTY TWO -0.1347
-0.3010 THISRD PIECE 0.0000
-1.0000 THREE PIECE 0.0000
-0.3979 THREE YEARS 0.0000
-1.8692 TO BE 0.0000
-1.2672 TO DECREASE 0.0000
-1.2672 TO DROP -0.0580
-1.0911 TO GET -0.0726
-1.0911 TO INCREASE 0.0000
-1.2672 TO LOWER 0.0000
-1.3921 TO REDUCE 0.0000
-1.8692 TO SEE 0.0000
-0.9661 TO TAKE 0.0000
-0.3010 TOGO </s> -0.3010
-0.3010 TUNISIA </s> -0.3010
-0.3010 TURKEY </s> -0.3010
-0.3010 TWELVE YEARS 0.0000
-1.2553 TWENTY EIGHT 0.0000
-1.2553 TWENTY FIVE -0.1597
-1.2553 TWENTY NINE -0.0580
-1.2553 TWENTY ONE 0.0000
-1.2553 TWENTY SEVEN -0.0969
-0.6532 TWENTY SIX -0.1326
-0.7404 TWO PIECE 0.0000
-0.4973 TWO YEARS 0.0000
-0.3010 UNCLEAR </s> -0.3010
-0.3010 UNDERSTAND </s> -0.3010
-1.6990 WANT A -0.1597
-1.6990 WANT FIVE -0.1919
-1.6990 WANT LESS 0.0000
-1.6990 WANT MORE 0.0000
-1.6990 WANT NINE -0.2688
-1.3979 WANT SIX -0.2156
-1.3979 WANT SOME 0.0000
-1.6990 WANT TEN 0.0000
-0.5528 WANT TO -0.0550
-1.6990 WANT TWO -0.2139
-0.9031 WAS A -0.2762
-0.6021 WAS OUR 0.0000
-0.9031 WAS THE 0.0000
-0.3010 WATER </s> -0.3010
-0.3010 WELLCOME </s> -0.3010
-0.6021 WHAT CAN -0.0241
-0.6021 WHAT DO -0.0969
-0.7782 WHERE CAN -0.2884
-0.7782 WHERE DO -0.0969
-0.7782 WHERE SHOULD 0.0000
-0.3010 WITH YOU -0.2639
-0.3174 WOULD LIKE 0.0000
-1.7324 WOULD YOU -0.2639
-0.3010 YEARS OLD -0.0117
-0.3010 YES </s> -0.3010
-1.0864 YOU </s> -0.3010
-2.0864 YOU ARE -0.2430
-2.0864 YOU COME 0.0000
-1.4843 YOU CUT 0.0000
-2.0864 YOU DECREASE -0.2041
-2.0864 YOU DOING 0.0000
-1.6092 YOU DROP 0.0000
-2.0864 YOU ENJOY 0.0000
-1.7853 YOU FIND 0.0000
-1.6092 YOU GET -0.0726
-1.0864 YOU GIVE 0.0000
-1.7853 YOU HELP 0.0000
-1.7853 YOU INCREASE 0.0000
-1.7853 YOU LOWER 0.0000
-2.0864 YOU MAKE 0.0000
-1.6092 YOU OFFER 0.0000
-1.3874 YOU REDUCE 0.0000
-1.6092 YOU REPEAT 0.0000
-1.3082 YOU TAKE 0.0000

\3-grams:
-0.3010 <s> CALL ME
-1.8195 <s> CAN I
-0.3144 <s> CAN YOU
-1.2553 <s> COULD I
-0.3522 <s> COULD YOU
-0.3010 <s> DID YOU
-0.3010 <s> DONT MENTION
-0.3010 <s> EVERYTHING IS
-0.9031 <s> GOOD AFTERNOON
-0.9031 <s> GOOD BYE
-0.6021 <s> GOOD NIGHT
-0.3010 <s> HELLO </s>
-1.3010 <s> HOW ARE
-1.3010 <s> HOW DID
-1.3010 <s> HOW DO
-1.0000 <s> HOW IS
-1.0000 <s> HOW OLD
-0.8239 <s> HOW WAS
-0.6284 <s> I AM
-1.3444 <s> I COME
-2.6454 <s> I DID
-2.0434 <s> I DIDNT
-2.6454 <s> I DO
-2.6454 <s> I DONT
-1.0544 <s> I NEED
-1.2475 <s> I WANT
-1.2304 <s> I WOULD
-0.4260 <s> IT IS
-0.9031 <s> IT WAS
-0.6021 <s> MAY I
-0.6021 <s> MAY YOU
-0.3010 <s> MY NAME
-0.3010 <s> NICE TO
-0.3010 <s> NO </s>
-0.3010 <s> NOT AT
-0.3010 <s> OF COURSE
-0.3010 <s> PEOLE CALL
-0.3010 <s> PEOPLE CALL
-0.3010 <s> SEE YOU
-0.3010 <s> THANK YOU
-0.6021 <s> WHAT CAN
-0.6021 <s> WHAT DO
-0.7782 <s> WHERE CAN
-0.7782 <s> WHERE DO
-0.7782 <s> WHERE SHOULD
-0.3010 <s> WOULD YOU
-0.3010 <s> YES </s>
-0.3010 <s> YOU ARE
-0.3010 A PIECE OF
-0.3010 A PLEASURE TO
-0.3010 A SEAT </s>
-0.3010 AM EIGHT YEARS
-0.3010 AM EIGHTEEN YEARS
-0.9031 AM EIGTHY EIGHT
-1.2041 AM EIGTHY NINE
-1.2041 AM EIGTHY ONE
-1.2041 AM EIGTHY SIX
-0.9031 AM EIGTHY TWO
-1.2041 AM EIGTHY YEARS
-0.3010 AM ELEVEN YEARS
-0.3010 AM FEELING BAD
-0.7782 AM FIFTY EIGHT
-0.7782 AM FIFTY NINE
-0.7782 AM FIFTY TWO
-0.9031 AM FORTY NINE
-0.6021 AM FORTY SEVEN
-0.9031 AM FORTY YEARS
-0.3010 AM FOUR YEARS
-1.3979 AM FROM AMERICA
-1.6990 AM FROM ASIA
-1.6990 AM FROM AUSTRALIA
-1.6990 AM FROM BELGIUM
-1.6990 AM FROM CAMEROON
-1.6990 AM FROM GERMANY
-1.6990 AM FROM INDIAN
-1.6990 AM FROM JAPAN
-1.6990 AM FROM MALI
-1.6990 AM FROM NETHERLANDS
-1.6990 AM FROM NORWAY
-1.6990 AM FROM POLAND
-1.0969 AM FROM RUSSIA
-1.6990 AM FROM SENEGAL
-1.6990 AM FROM SOUTH
-1.6990 AM FROM SWEDEN
-1.3979 AM FROM SWITZERLAND
-1.6990 AM FROM TOGO
-1.6990 AM FROM TUNISIA
-1.6990 AM FROM TURKEY
-0.3010 AM LEAVING </s>
-0.3010 AM NINE YEARS
-0.3010 AM NINETEEN YEARS
-0.6021 AM NINETY FIVE
-0.9031 AM NINETY SIX
-0.9031 AM NINETY TWO
-0.6021 AM NOT FEELING
-0.6021 AM NOT GOOD
-0.3010 AM OK </s>
-0.3010 AM ONE YEARS
-0.3010 AM SEVEN YEARS
-1.2041 AM SEVENTY FIVE
-1.2041 AM SEVENTY FOUR
-1.2041 AM SEVENTY NINE
-0.9031 AM SEVENTY ONE
-0.9031 AM SEVENTY SIX
-1.2041 AM SEVENTY YEARS
-0.3010 AM SICK </s>
-0.3010 AM SIXTEEN YEARS
-1.2041 AM SIXTY FIVE
-1.2041 AM SIXTY FOUR
-0.9031 AM SIXTY NINE
-1.2041 AM SIXTY ONE
-1.2041 AM SIXTY SIX
-1.2041 AM SIXTY TWO
-1.2041 AM SIXTY YEARS
-0.7782 AM THIRTY NINE
-1.0792 AM THIRTY SEVEN
-0.7782 AM THIRTY THREE
-1.0792 AM THIRTY TWO
-0.3010 AM THREE YEARS
-0.3010 AM TWELVE YEARS
-1.2553 AM TWENTY EIGHT
-1.2553 AM TWENTY FIVE
-1.2553 AM TWENTY NINE
-1.2553 AM TWENTY ONE
-1.2553 AM TWENTY SEVEN
-0.6532 AM TWENTY SIX
-0.3010 AM TWO YEARS
-0.3010 ARE WELLCOME </s>
-0.4771 ARE YOU </s>
-0.7782 ARE YOU DOING
-0.3010 AT ALL </s>
-0.3010 AWAY MY ORDER
-0.3010 AWAY SOME PIECE
-0.3010 BE WITH YOU
-0.3010 CAKE AGAIN </s>
-2.1206 CALL ME </s>
-1.6435 CALL ME ADRIAN
-1.8195 CALL ME ALEXANDER
-2.1206 CALL ME ALEXIS
-2.1206 CALL ME ALINA
-1.8195 CALL ME ANDREA
-2.1206 CALL ME ANDREI
-1.6435 CALL ME ARTHUR
-1.4216 CALL ME ASIL
-1.8195 CALL ME CHRIS
-1.8195 CALL ME CONSTANTIN
-2.1206 CALL ME DANIEL
-1.2755 CALL ME DOMINIC
-1.8195 CALL ME ELIAS
-2.1206 CALL ME FERENC
-1.8195 CALL ME FERESHTA
-1.5185 CALL ME FEROZ
-1.8195 CALL ME FRANKLIN
-2.1206 CALL ME GAYANE
-2.1206 CALL ME GEORG
-1.6435 CALL ME HAGEN
-2.1206 CALL ME HENDRIK
-2.1206 CALL ME JASMINE
-1.6435 CALL ME KEVIN
-2.1206 CALL ME LENA
-1.5185 CALL ME MICHAEL
-1.5185 CALL ME MIHAI
-2.1206 CALL ME PASCALE
-1.8195 CALL ME PATRICK
-2.1206 CALL ME RAFAEL
-2.1206 CALL ME SEBASTIAN
-0.6021 CAN I HAVE
-0.6021 CAN I SIT
-1.3424 CAN YOU CUT
-1.8195 CAN YOU DECREASE
-1.3424 CAN YOU DROP
-1.3424 CAN YOU GET
-0.9744 CAN YOU GIVE
-1.5185 CAN YOU HELP
-1.5185 CAN YOU INCREASE
-1.5185 CAN YOU LOWER
-1.8195 CAN YOU MAKE
-1.8195 CAN YOU OFFER
-1.2175 CAN YOU REDUCE
-1.8195 CAN YOU REPEAT
-1.3424 CAN YOU TAKE
-1.6232 COME FROM </s>
-1.3222 COME FROM AMERICA
-1.1461 COME FROM ASIA
-1.6232 COME FROM BELGIUM
-1.6232 COME FROM CAMEROON
-1.6232 COME FROM EGYPT
-1.6232 COME FROM GHANA
-1.3222 COME FROM ITALY
-1.6232 COME FROM JAPAN
-1.3222 COME FROM NORWAY
-1.6232 COME FROM SPAIN
-1.3222 COME FROM SUD
-1.3222 COME FROM TOGO
-1.6232 COME FROM TUNISIA
-0.3010 COULD I HAVE
-0.9031 COULD YOU GIVE
-1.2041 COULD YOU REDUCE
-0.9031 COULD YOU REPEAT
-0.7270 COULD YOU TAKE
-0.3010 CUT CAKE </s>
-0.3010 DECREASE MY ORDER
-0.3010 DECREASE SOME PIECE
-0.6021 DID YOU ENJOY
-0.6021 DID YOU FIND
-0.3010 DIDNT GET YOU
-0.3010 DO NOT </s>
-0.7782 DO YOU COME
-0.7782 DO YOU FIND
-0.7782 DO YOU OFFER
-0.3010 DONT MENTION </s>
-0.3010 DONT UNDERSTAND </s>
-0.3010 DROP MY ORDER
-0.3010 DROP SOME PIECE
-0.3010 EIGHT YEARS OLD
-0.3010 EIGHTEEN YEARS OLD
-0.3010 EIGTHY EIGHT YEARS
-0.3010 EIGTHY NINE YEARS
-0.3010 EIGTHY ONE YEARS
-0.3010 EIGTHY SIX YEARS
-0.3010 EIGTHY TWO YEARS
-0.3010 EIGTHY YEARS OLD
-0.3010 ELEVEN YEARS OLD
-0.3010 ENJOY OUR CONVERSATION
-0.3010 EVERYTHING IS GOOD
-0.3010 FEELING BAD </s>
-0.3010 FEELING GOOD </s>
-0.3010 FEW PIECE OF
-0.3010 FIFTY EIGHT YEARS
-0.3010 FIFTY NINE YEARS
-0.3010 FIFTY TWO YEARS
-0.3010 FIND CONVERSATION </s>
-0.3010 FIND OUR CONVERSATION
-0.3010 FIVE PIECE OF
-0.3010 FIVE YEARS OLD
-0.3010 FORTY NINE YEARS
-0.3010 FORTY SEVEN YEARS
-0.3010 FORTY YEARS OLD
-0.3010 FOUR PIECE OF
-0.3010 FOUR YEARS OLD
-0.3010 FROM AMERICA </s>
-0.3010 FROM ASIA </s>
-0.3010 FROM AUSTRALIA </s>
-0.3010 FROM BELGIUM </s>
-0.3010 FROM CAMEROON </s>
-0.3010 FROM EGYPT </s>
-0.3010 FROM GERMANY </s>
-0.3010 FROM GHANA </s>
-0.3010 FROM INDIAN </s>
-0.3010 FROM ITALY </s>
-0.3010 FROM JAPAN </s>
-0.3010 FROM MALI </s>
-0.3010 FROM NETHERLANDS </s>
-0.3010 FROM NORWAY </s>
-0.3010 FROM POLAND </s>
-0.3010 FROM RUSSIA </s>
-0.3010 FROM SENEGAL </s>
-0.3010 FROM SOUTH AFRICA
-0.3010 FROM SPAIN </s>
-0.3010 FROM SUD KOREA
-0.3010 FROM SWEDEN </s>
-0.3010 FROM SWITZERLAND </s>
-0.3010 FROM TOGO </s>
-0.3010 FROM TUNISIA </s>
-0.3010 FROM TURKEY </s>
-0.3010 GET FEW PIECE
-0.3010 GET LESS PIECE
-0.3010 GET MORE PIECE
-0.3010 GET YOU </s>
-0.3010 GIVE CAKE </s>
-0.9031 GIVE ME LESS
-0.7270 GIVE ME MORE
-0.7270 GIVE ME SOME
-0.3010 GOOD AFTERNOON </s>
-0.3010 GOOD BYE </s>
-0.3010 GOOD NIGHT </s>
-0.3010 HAVE A SEAT
-0.3010 HELP ME </s>
-0.3010 HOW ARE YOU
-0.3010 HOW DID YOU
-0.3010 HOW DO YOU
-0.3010 HOW IS OUR
-0.3010 HOW OLD ARE
-0.4771 HOW WAS OUR
-0.7782 HOW WAS THE
-2.3181 I AM EIGHT
-2.0170 I AM EIGHTEEN
-1.4150 I AM EIGTHY
-2.3181 I AM ELEVEN
-2.3181 I AM FEELING
-1.8409 I AM FIFTY
-1.7160 I AM FORTY
-2.3181 I AM FOUR
-0.9201 I AM FROM
-2.0170 I AM LEAVING
-1.8409 I AM NINE
-2.0170 I AM NINETEEN
-1.7160 I AM NINETY
-2.0170 I AM NOT
-2.3181 I AM OK
-2.0170 I AM ONE
-2.0170 I AM SEVEN
-1.4150 I AM SEVENTY
-2.0170 I AM SICK
-1.8409 I AM SIXTEEN
-1.4150 I AM SIXTY
-1.5399 I AM THIRTY
-2.0170 I AM THREE
-2.3181 I AM TWELVE
-1.3638 I AM TWENTY
-2.3181 I AM TWO
-0.3010 I COME FROM
-0.3010 I DID </s>
-0.6021 I DIDNT </s>
-0.6021 I DIDNT GET
-0.3010 I DO NOT
-0.3010 I DONT UNDERSTAND
-0.3010 I HAVE A
-1.4150 I NEED A
-1.8921 I NEED CAKE
-1.8921 I NEED FEW
-1.8921 I NEED FIVE
-1.2900 I NEED FOUR
-1.5911 I NEED LESS
-1.5911 I NEED MORE
-1.8921 I NEED NINE
-1.5911 I NEED SIX
-1.5911 I NEED SOME
-1.8921 I NEED SOMETHING
-1.8921 I NEED TEN
-1.8921 I NEED THIRD
-1.8921 I NEED THREE
-0.7782 I NEED TO
-1.5911 I NEED TWO
-1.8921 I NEED WATER
-0.3010 I SIT </s>
-1.6990 I WANT A
-1.6990 I WANT FIVE
-1.6990 I WANT LESS
-1.6990 I WANT MORE
-1.6990 I WANT NINE
-1.3979 I WANT SIX
-1.3979 I WANT SOME
-1.6990 I WANT TEN
-0.5528 I WANT TO
-1.6990 I WANT TWO
-0.3010 I WOULD LIKE
-0.3010 INCREASE MY ORDER
-0.3010 IS ALEXIS </s>
-0.3010 IS ANDREI </s>
-0.3010 IS ASIL </s>
-0.3010 IS CHRIS </s>
-0.3010 IS DANIEL </s>
-0.3010 IS DOMINIC </s>
-0.3010 IS ELIAS </s>
-0.3010 IS FERENC </s>
-0.3010 IS FERESHTA </s>
-0.3010 IS FEROZ </s>
-0.3010 IS FRANKLIN </s>
-0.3010 IS GAYANE </s>
-0.3010 IS GEORG </s>
-0.3010 IS GOOD </s>
-0.3010 IS KEVIN </s>
-0.3010 IS LENA </s>
-0.3010 IS LISSET </s>
-0.3010 IS LUKAS </s>
-0.3010 IS MICHAEL </s>
-0.3010 IS NOT CLEAR
-0.3010 IS OTTHEIN </s>
-0.3010 IS OUR CONVERSATION
-0.3010 IS PATRICK </s>
-0.3010 IS UNCLEAR </s>
-0.7782 IT IS NOT
-0.4771 IT IS UNCLEAR
-0.3010 IT WAS A
-0.3010 LESS PIECE OF
-0.3010 LIKE A PIECE
-0.3010 LIKE CAKE </s>
-0.3010 LIKE FIVE PIECE
-0.3010 LIKE FOUR PIECE
-0.3010 LIKE LESS PIECE
-0.3010 LIKE SEVEN PIECE
-0.3010 LIKE SIX PIECE
-0.3010 LIKE SOME PIECE
-0.3010 LIKE TEN PIECE
-0.3010 LIKE THISRD PIECE
-1.2041 LIKE TO DECREASE
-0.9031 LIKE TO INCREASE
-1.2041 LIKE TO LOWER
-1.2041 LIKE TO REDUCE
-0.7270 LIKE TO TAKE
-0.3010 LIKE TWO PIECE
-0.3010 LOWER MY ORDER
-0.6021 MAY I HAVE
-0.6021 MAY I SIT
-0.6021 MAY YOU CUT
-0.6021 MAY YOU OFFER
-0.3010 ME ADRIAN </s>
-0.3010 ME ALEXANDER </s>
-0.3010 ME ALEXIS </s>
-0.3010 ME ALINA </s>
-0.3010 ME ANDREA </s>
-0.3010 ME ANDREI </s>
-0.3010 ME ARTHUR </s>
-0.3010 ME ASIL </s>
-0.3010 ME CHRIS </s>
-0.3010 ME CONSTANTIN </s>
-0.3010 ME DANIEL </s>
-0.3010 ME DOMINIC </s>
-0.3010 ME ELIAS </s>
-0.3010 ME FERENC </s>
-0.3010 ME FERESHTA </s>
-0.3010 ME FEROZ </s>
-0.3010 ME FRANKLIN </s>
-0.3010 ME GAYANE </s>
-0.3010 ME GEORG </s>
-0.3010 ME HAGEN </s>
-0.3010 ME HENDRIK </s>
-0.3010 ME JASMINE </s>
-0.3010 ME KEVIN </s>
-0.3010 ME LENA </s>
-0.3010 ME LESS PIECE
-0.3010 ME MICHAEL </s>
-0.3010 ME MIHAI </s>
-0.3010 ME MORE PIECE
-0.3010 ME PASCALE </s>
-0.3010 ME PATRICK </s>
-0.3010 ME RAFAEL </s>
-0.3010 ME SEBASTIAN </s>
-0.3010 ME SOME PIECE
-0.3010 MORE PIECE OF
-0.3010 MY NAME IS
-0.3010 MY ORDER </s>
-1.7782 NAME IS ALEXIS
-1.7782 NAME IS ANDREI
-1.7782 NAME IS ASIL
-1.7782 NAME IS CHRIS
-1.7782 NAME IS DANIEL
-1.4771 NAME IS DOMINIC
-1.4771 NAME IS ELIAS
-1.3010 NAME IS FERENC
-1.7782 NAME IS FERESHTA
-1.4771 NAME IS FEROZ
-1.7782 NAME IS FRANKLIN
-1.7782 NAME IS GAYANE
-1.4771 NAME IS GEORG
-1.4771 NAME IS KEVIN
-1.4771 NAME IS LENA
-1.7782 NAME IS LISSET
-1.4771 NAME IS LUKAS
-1.7782 NAME IS MICHAEL
-1.4771 NAME IS OTTHEIN
-1.7782 NAME IS PATRICK
-0.3010 NEED A PIECE
-0.3010 NEED CAKE </s>
-0.3010 NEED FEW PIECE
-0.3010 NEED FIVE PIECE
-0.3010 NEED FOUR PIECE
-0.3010 NEED LESS PIECE
-0.3010 NEED MORE PIECE
-0.3010 NEED NINE PIECE
-0.3010 NEED SIX PIECE
-0.3010 NEED SOME PIECE
-0.3010 NEED SOMETHING </s>
-0.3010 NEED TEN PIECE
-0.3010 NEED THIRD PIECE
-0.3010 NEED THREE PIECE
-1.1139 NEED TO DECREASE
-1.4150 NEED TO DROP
-0.9379 NEED TO GET
-0.9379 NEED TO INCREASE
-1.4150 NEED TO LOWER
-1.1139 NEED TO REDUCE
-1.4150 NEED TO TAKE
-0.3010 NEED TWO PIECE
-0.3010 NEED WATER </s>
-0.3010 NICE TO SEE
-0.3010 NINE PIECE OF
-0.3010 NINE YEARS OLD
-0.3010 NINETEEN YEARS OLD
-0.3010 NINETY FIVE YEARS
-0.3010 NINETY SIX YEARS
-0.3010 NINETY TWO YEARS
-0.3010 NOT AT ALL
-0.3010 NOT CLEAR </s>
-0.3010 NOT FEELING GOOD
-0.3010 NOT GOOD </s>
-0.3612 OF CAKE </s>
-1.1891 OF CAKE AGAIN
-0.3010 OF COURSE </s>
-0.3010 OFFER CAKE </s>
-0.3010 OLD ARE YOU
-0.3010 ONE YEARS OLD
-0.3010 OUR CONVERSATION </s>
-0.3010 PEOLE CALL ME
-0.3010 PEOPLE CALL ME
-0.3010 PIECE OF CAKE
-0.3010 PLEASURE TO BE
-0.3010 REDUCE MY ORDER
-0.3010 REDUCE SOME PIECE
-0.3010 SEE YOU </s>
-0.3010 SEVEN PIECE OF
-0.3010 SEVEN YEARS OLD
-0.3010 SEVENTY FIVE YEARS
-0.3010 SEVENTY FOUR YEARS
-0.3010 SEVENTY NINE YEARS
-0.3010 SEVENTY ONE YEARS
-0.3010 SEVENTY SIX YEARS
-0.3010 SEVENTY YEARS OLD
-0.3010 SHOULD I SIT
-0.3010 SIX PIECE OF
-0.3010 SIX YEARS OLD
-0.3010 SIXTEEN YEARS OLD
-0.3010 SIXTY FIVE YEARS
-0.3010 SIXTY FOUR YEARS
-0.3010 SIXTY NINE YEARS
-0.3010 SIXTY ONE YEARS
-0.3010 SIXTY SIX YEARS
-0.3010 SIXTY TWO YEARS
-0.3010 SIXTY YEARS OLD
-0.3010 SOME PIECE OF
-0.3010 SOUTH AFRICA </s>
-0.3010 SUD KOREA </s>
-0.5441 TAKE AWAY MY
-0.6690 TAKE AWAY SOME
-0.3010 TEN PIECE OF
-0.3010 THANK YOU </s>
-0.3010 THE CONVERSATION </s>
-0.3010 THIRD PIECE OF
-0.3010 THIRTY NINE YEARS
-0.3010 THIRTY SEVEN YEARS
-0.3010 THIRTY THREE YEARS
-0.3010 THIRTY TWO YEARS
-0.3010 THISRD PIECE OF
-0.3010 THREE PIECE OF
-0.3010 THREE YEARS OLD
-0.3010 TO BE WITH
-0.4260 TO DECREASE MY
-0.9031 TO DECREASE SOME
-0.3010 TO DROP SOME
-0.6021 TO GET FEW
-0.7782 TO GET LESS
-1.0792 TO GET MORE
-0.3010 TO INCREASE MY
-0.3010 TO LOWER MY
-0.4771 TO REDUCE MY
-0.7782 TO REDUCE SOME
-0.3010 TO SEE YOU
-0.3010 TO TAKE AWAY
-0.3010 TWELVE YEARS OLD
-0.3010 TWENTY EIGHT YEARS
-0.3010 TWENTY FIVE YEARS
-0.3010 TWENTY NINE YEARS
-0.3010 TWENTY ONE YEARS
-0.3010 TWENTY SEVEN YEARS
-0.3010 TWENTY SIX YEARS
-0.3010 TWO PIECE OF
-0.3010 TWO YEARS OLD
-0.3010 WANT A PIECE
-0.3010 WANT FIVE PIECE
-0.3010 WANT LESS PIECE
-0.3010 WANT MORE PIECE
-0.3010 WANT NINE PIECE
-0.3010 WANT SIX PIECE
-0.3010 WANT SOME PIECE
-0.3010 WANT TEN PIECE
-1.4472 WANT TO DECREASE
-0.9700 WANT TO DROP
-0.9700 WANT TO GET
-1.4472 WANT TO INCREASE
-1.1461 WANT TO LOWER
-0.8451 WANT TO TAKE
-0.3010 WANT TWO PIECE
-0.3010 WAS A PLEASURE
-0.3010 WAS OUR CONVERSATION
-0.3010 WAS THE CONVERSATION
-0.3010 WHAT CAN YOU
-0.3010 WHAT DO YOU
-0.3010 WHERE CAN I
-0.3010 WHERE DO YOU
-0.3010 WHERE SHOULD I
-0.3010 WITH YOU </s>
-1.7160 WOULD LIKE A
-1.7160 WOULD LIKE CAKE
-1.4150 WOULD LIKE FIVE
-1.2389 WOULD LIKE FOUR
-1.7160 WOULD LIKE LESS
-1.4150 WOULD LIKE SEVEN
-1.7160 WOULD LIKE SIX
-1.1139 WOULD LIKE SOME
-1.7160 WOULD LIKE TEN
-1.7160 WOULD LIKE THISRD
-0.8129 WOULD LIKE TO
-1.7160 WOULD LIKE TWO
-0.3010 WOULD YOU GIVE
-0.3010 YEARS OLD </s>
-0.3010 YOU ARE WELLCOME
-0.3010 YOU COME FROM
-0.3010 YOU CUT CAKE
-0.3010 YOU DECREASE SOME
-0.3010 YOU DOING </s>
-0.7782 YOU DROP MY
-0.4771 YOU DROP SOME
-0.3010 YOU ENJOY OUR
-0.6021 YOU FIND CONVERSATION
-0.6021 YOU FIND OUR
-0.7782 YOU GET FEW
-0.7782 YOU GET LESS
-0.7782 YOU GET MORE
-1.0000 YOU GIVE CAKE
-0.3979 YOU GIVE ME
-0.3010 YOU HELP ME
-0.3010 YOU INCREASE MY
-0.3010 YOU LOWER MY
-0.3010 YOU MAKE </s>
-0.7782 YOU OFFER </s>
-0.4771 YOU OFFER CAKE
-0.5229 YOU REDUCE MY
-0.6990 YOU REDUCE SOME
-0.3010 YOU REPEAT </s>
-0.3010 YOU TAKE AWAY

\end\
