Language model created by QuickLM on Sun May 28 10:43:42 EDT 2017
Copyright (c) 1996-2010 Carnegie Mellon University and Alexander I. Rudnicky

The model is in standard ARPA format, designed by Doug Paul while he was at MITRE.

The code that was used to produce this language model is available in Open Source.
Please visit http://www.speech.cs.cmu.edu/tools/ for more information

The (fixed) discount mass is 0.5. The backoffs are computed using the ratio method.
This model based on a corpus of 399 sentences and 185 words

\data\
ngram 1=185
ngram 2=455
ngram 3=563

\1-grams:
-1.0808 </s> -0.3010
-1.0808 <s> -0.2473
-3.2047 A -0.2990
-3.6818 ABSOLUTELY -0.2634
-3.2047 AFRICA -0.2634
-3.6818 AFTERNOON -0.2634
-3.6818 AGE -0.2634
-3.2047 ALEXANDER -0.2634
-3.3808 ALEXIS -0.2634
-3.6818 ALINA -0.2634
-3.2047 ALL -0.2634
-1.6249 AM -0.2438
-3.6818 AMERICA -0.2634
-3.2047 ANDREA -0.2634
-2.9828 ANDREI -0.2634
-2.6026 ARE -0.2972
-3.2047 ARTHUR -0.2634
-3.2047 ASIA -0.2634
-3.3808 ASIL -0.2634
-3.2047 AT -0.3008
-3.2047 BAD -0.2634
-3.6818 BE -0.3009
-3.2047 BEER -0.2634
-3.3808 BELGIUM -0.2634
-3.3808 BYE -0.2634
-2.2047 CAKE -0.2634
-1.8305 CALL -0.2946
-3.2047 CAMEROON -0.2634
-3.2047 CAN -0.2957
-3.6818 CANNOT -0.2634
-3.6818 CANT -0.2634
-3.6818 CHINA -0.2634
-3.6818 CHRIS -0.2634
-2.2504 COME -0.2958
-3.6818 CONSTANTIN -0.2634
-2.9828 CONVERSATION -0.2634
-2.9036 COULD -0.2957
-3.3808 COULDNT -0.2634
-3.6818 COURSE -0.2634
-3.3808 CUT -0.2983
-3.6818 DANIEL -0.2634
-2.8367 DID -0.2957
-2.5678 DIDNT -0.2621
-2.7787 DO -0.2575
-2.9828 DOES -0.3001
-3.3808 DOMINIC -0.2634
-2.7787 DONT -0.2620
-2.9828 DRINK -0.2634
-3.6818 EGYPT -0.2634
-2.7787 EIGHT -0.2927
-3.3808 EIGHTEEN -0.2946
-2.9828 EIGTHY -0.2909
-3.3808 ELEVEN -0.2946
-3.2047 ELIAS -0.2634
-3.6818 ENJOY -0.3007
-3.6818 EUROPE -0.2634
-3.0797 EVERYTHING -0.2584
-2.8367 FEELING -0.2619
-2.8367 FERENC -0.2634
-3.2047 FERESHTA -0.2634
-2.7787 FEROZ -0.2634
-2.9036 FIFTY -0.2907
-3.2047 FIND -0.3007
-2.6026 FIVE -0.2946
-3.3808 FOOD -0.2634
-2.6404 FORTY -0.2901
-2.6404 FOUR -0.2927
-2.9828 FRANKLIN -0.2634
-1.9259 FROM -0.2578
-3.3808 GAYANE -0.2634
-3.0797 GEORG -0.2634
-2.7787 GET -0.2973
-3.6818 GHANA -0.2634
-3.0797 GIVE -0.2983
-3.0797 GOING -0.2634
-2.6026 GOOD -0.2627
-3.6818 GOODBYE -0.2634
-3.6818 GREECE -0.2634
-3.0797 HAGEN -0.2634
-3.6818 HAPPEN -0.2634
-3.6818 HEALTHY -0.2634
-3.3808 HELLO -0.2634
-3.2047 HENDRIK -0.2634
-2.5678 HOW -0.2871
-3.6818 HUNDRED -0.2946
-1.3575 I -0.2795
-3.6818 INDIAN -0.2634
-2.0190 IS -0.2534
-2.6818 IT -0.2959
-3.0797 ITALY -0.2634
-3.3808 JASMINE -0.2634
-3.2047 KEVIN -0.2634
-3.6818 KIND -0.2634
-3.2047 KOREA -0.2634
-3.3808 LENA -0.2634
-2.9036 LIKE -0.2977
-2.9828 LISSET -0.2634
-3.6818 LUKAS -0.2634
-3.6818 MAKE -0.2634
-3.3808 MALI -0.2634
-3.6818 MALIA -0.2634
-3.2047 MAREIKE -0.2634
-3.3808 MAY -0.2973
-1.8305 ME -0.2534
-3.3808 MEET -0.2973
-3.6818 MENTION -0.2634
-2.6818 MICHAEL -0.2634
-3.2047 MIHAI -0.2634
-3.2047 MORE -0.3003
-3.0797 MORNING -0.2634
-3.3808 MOROCCO -0.2634
-2.9828 MUCH -0.3003
-2.1020 MY -0.2976
-2.1020 NAME -0.2969
-2.4030 NEED -0.2940
-3.3808 NICE -0.3007
-2.7275 NINE -0.2927
-3.6818 NINETEEN -0.2946
-2.8367 NINETY -0.2912
-2.9036 NO -0.2634
-3.2047 NORWAY -0.2634
-2.4265 NOT -0.2612
-2.3596 OF -0.2982
-3.3808 OFFER -0.2604
-2.9036 OK -0.2634
-1.8126 OLD -0.2622
-2.7787 ONE -0.2943
-3.3808 OTTHEIN -0.2634
-3.0797 OUR -0.3006
-3.6818 PASCALE -0.2634
-3.2047 PATRICK -0.2634
-2.1766 PEOPLE -0.2946
-2.3808 PIECE -0.2991
-3.3808 PLEASURE -0.3007
-3.2047 POLAND -0.2634
-3.6818 POSSIBLE -0.2634
-3.3808 RAFAEL -0.2634
-3.3808 REPEAT -0.2634
-3.6818 ROMANIA -0.2634
-2.9828 RUSSIA -0.2634
-3.6818 SASCHA -0.2634
-3.3808 SEBASTIAN -0.2634
-3.3808 SEE -0.2973
-3.6818 SENEGAL -0.2634
-2.7787 SEVEN -0.2927
-3.3808 SEVENTEEN -0.2946
-2.7787 SEVENTY -0.2962
-3.6818 SICK -0.2634
-3.2047 SIX -0.2927
-2.7275 SIXTY -0.2909
-3.3808 SOUTH -0.3008
-3.6818 SPAIN -0.2634
-3.2047 SUD -0.3008
-2.9828 TAKE -0.3006
-3.6818 TEN -0.2992
-3.6818 THE -0.3006
-3.6818 THIRD -0.2992
-2.9036 THIRTY -0.2974
-2.9036 THREE -0.2927
-2.7787 TIME -0.2634
-3.0797 TO -0.3006
-3.2047 TOBIAS -0.2634
-3.2047 TOGO -0.2634
-2.9828 TOO -0.3006
-3.2047 TUNISIA -0.2634
-3.3808 TURKEY -0.2634
-3.6818 TWELVE -0.2946
-2.8367 TWENTY -0.2969
-2.7787 TWO -0.2927
-3.3808 UKRAINE -0.2634
-3.3808 UNCLEAR -0.2634
-2.9828 UNDERSTAND -0.2634
-2.9036 WANT -0.2952
-2.9828 WAS -0.2630
-3.6818 WATER -0.2634
-3.0797 WHAT -0.2958
-3.2047 WHERE -0.2992
-2.7787 WHY -0.2611
-3.2047 WISH -0.3004
-3.6818 WITH -0.2973
-2.7275 WOULD -0.2968
-1.8305 YEARS -0.2943
-3.6818 YES -0.2634
-2.0690 YOU -0.2510
-3.6818 YOUR -0.3009

\2-grams:
-2.9020 <s> ABSOLUTELY 0.0000
-2.4249 <s> ARE -0.0348
-1.3109 <s> CALL 0.0000
-2.9020 <s> CAN -0.1249
-2.4249 <s> COULD -0.1761
-2.9020 <s> DID -0.1963
-2.9020 <s> DONT -0.2730
-2.9020 <s> EVERYTHING -0.2430
-2.0569 <s> GOOD -0.1513
-2.9020 <s> GOODBYE 0.0000
-2.6010 <s> HELLO 0.0000
-1.7881 <s> HOW 0.0000
-0.5777 <s> I 0.0000
-2.2030 <s> IT -0.1761
-2.6010 <s> MAY 0.0000
-1.3222 <s> MY 0.0000
-2.6010 <s> NICE 0.0000
-2.1239 <s> NO 0.0000
-2.4249 <s> NOT -0.2632
-2.9020 <s> OF -0.2906
-2.4249 <s> ONE -0.2109
-1.3969 <s> PEOPLE 0.0000
-2.9020 <s> SEE 0.0000
-2.2999 <s> WHAT 0.0000
-2.4249 <s> WHERE 0.0000
-1.9989 <s> WHY 0.0000
-2.6010 <s> WISH -0.1249
-2.4249 <s> WOULD -0.2218
-2.9020 <s> YES 0.0000
-2.9020 <s> YOU -0.2957
-0.7782 A PIECE 0.0000
-0.4771 A PLEASURE 0.0000
-0.3010 ABSOLUTELY </s> -0.3010
-0.3010 AFRICA </s> -0.3010
-0.3010 AFTERNOON </s> -0.3010
-0.3010 AGE </s> -0.3010
-0.3010 ALEXANDER </s> -0.3010
-0.3010 ALEXIS </s> -0.3010
-0.3010 ALINA </s> -0.3010
-0.3010 ALL </s> -0.3010
-2.3579 AM </s> -0.3010
-2.0569 AM EIGHTEEN 0.0000
-1.6590 AM EIGTHY 0.0000
-2.0569 AM ELEVEN 0.0000
-1.7559 AM FEELING -0.1091
-1.5798 AM FIFTY 0.0000
-2.0569 AM FIVE 0.0000
-1.3165 AM FORTY 0.0000
-0.9108 AM FROM -0.0892
-2.0569 AM GOING 0.0000
-2.3579 AM GOOD -0.1996
-2.3579 AM HEALTHY 0.0000
-2.3579 AM HUNDRED 0.0000
-2.3579 AM NINETEEN 0.0000
-1.5128 AM NINETY 0.0000
-2.0569 AM NOT -0.2762
-1.8808 AM OK 0.0000
-2.0569 AM SEVENTEEN 0.0000
-1.4548 AM SEVENTY 0.0000
-2.3579 AM SICK 0.0000
-1.4037 AM SIXTY 0.0000
-1.5798 AM THIRTY 0.0000
-2.3579 AM TWELVE 0.0000
-1.5128 AM TWENTY 0.0000
-2.3579 AM TWO -0.0969
-0.3010 AMERICA </s> -0.3010
-0.3010 ANDREA </s> -0.3010
-0.3010 ANDREI </s> -0.3010
-1.3802 ARE KIND 0.0000
-0.3388 ARE YOU -0.1506
-0.3010 ARTHUR </s> -0.3010
-0.3010 ASIA </s> -0.3010
-0.3010 ASIL </s> -0.3010
-0.3010 AT ALL 0.0000
-0.3010 BAD </s> -0.3010
-0.3010 BE WITH 0.0000
-0.3010 BEER </s> -0.3010
-0.3010 BELGIUM </s> -0.3010
-0.3010 BYE </s> -0.3010
-0.3010 CAKE </s> -0.3010
-0.3010 CALL ME -0.0000
-0.3010 CAMEROON </s> -0.3010
-0.7782 CAN NOT -0.1065
-0.4771 CAN YOU -0.2848
-0.3010 CANNOT </s> -0.3010
-0.3010 CANT </s> -0.3010
-0.3010 CHINA </s> -0.3010
-0.3010 CHRIS </s> -0.3010
-0.3010 COME FROM -0.0830
-0.3010 CONSTANTIN </s> -0.3010
-0.3010 CONVERSATION </s> -0.3010
-0.6021 COULD NOT -0.1065
-0.6021 COULD YOU -0.2680
-0.3010 COULDNT </s> -0.3010
-0.3010 COURSE </s> -0.3010
-0.3010 CUT CAKE 0.0000
-0.3010 DANIEL </s> -0.3010
-0.5441 DID NOT -0.1065
-0.6690 DID YOU -0.2793
-0.7160 DIDNT </s> -0.3010
-0.8129 DIDNT GET 0.0000
-0.8129 DIDNT UNDERSTAND 0.0000
-1.2041 DO </s> -0.3010
-0.6021 DO NOT -0.1065
-0.7270 DO YOU -0.2680
-0.3010 DOES IT -0.1761
-0.3010 DOMINIC </s> -0.3010
-0.9031 DONT </s> -0.3010
-0.6021 DONT GET 0.0000
-1.2041 DONT MENTION 0.0000
-1.2041 DONT UNDERSTAND 0.0000
-0.3010 DRINK </s> -0.3010
-0.3010 EGYPT </s> -0.3010
-0.5051 EIGHT PIECE 0.0000
-0.7270 EIGHT YEARS 0.0000
-0.3010 EIGHTEEN YEARS 0.0000
-1.0000 EIGTHY FIVE 0.0000
-1.0000 EIGTHY FOUR -0.0726
-1.0000 EIGTHY NINE -0.1249
-1.0000 EIGTHY SEVEN -0.0969
-1.0000 EIGTHY YEARS 0.0000
-0.3010 ELEVEN YEARS 0.0000
-0.3010 ELIAS </s> -0.3010
-0.3010 ENJOY OUR 0.0000
-0.3010 EUROPE </s> -0.3010
-0.9031 EVERYTHING </s> -0.3010
-0.6021 EVERYTHING GOING 0.0000
-0.9031 EVERYTHING IS -0.2963
-0.8451 FEELING </s> -0.3010
-0.6690 FEELING BAD 0.0000
-0.8451 FEELING GOOD -0.1996
-0.3010 FERENC </s> -0.3010
-0.3010 FERESHTA </s> -0.3010
-0.3010 FEROZ </s> -0.3010
-1.0792 FIFTY EIGHT -0.2109
-1.0792 FIFTY FOUR -0.0726
-1.0792 FIFTY NINE -0.1249
-1.0792 FIFTY THREE -0.1249
-1.0792 FIFTY TWO -0.0969
-1.0792 FIFTY YEARS 0.0000
-0.3010 FIND OUR 0.0000
-0.3010 FIVE YEARS 0.0000
-0.3010 FOOD </s> -0.3010
-1.3424 FORTY FIVE 0.0000
-1.3424 FORTY FOUR -0.0726
-1.3424 FORTY NINE -0.1249
-1.3424 FORTY ONE -0.1383
-0.8653 FORTY SEVEN -0.0969
-0.7404 FORTY YEARS 0.0000
-1.0414 FOUR PIECE 0.0000
-0.3882 FOUR YEARS 0.0000
-0.3010 FRANKLIN </s> -0.3010
-1.5798 FROM </s> -0.3010
-2.0569 FROM AFRICA 0.0000
-2.0569 FROM AMERICA 0.0000
-1.5798 FROM ASIA 0.0000
-1.7559 FROM BELGIUM 0.0000
-1.5798 FROM CAMEROON 0.0000
-2.0569 FROM CHINA 0.0000
-2.0569 FROM EGYPT 0.0000
-2.0569 FROM EUROPE 0.0000
-2.0569 FROM GHANA 0.0000
-2.0569 FROM GREECE 0.0000
-2.0569 FROM INDIAN 0.0000
-1.4548 FROM ITALY 0.0000
-1.7559 FROM MALI 0.0000
-2.0569 FROM MALIA 0.0000
-1.7559 FROM MOROCCO 0.0000
-1.5798 FROM NORWAY 0.0000
-1.5798 FROM POLAND 0.0000
-2.0569 FROM ROMANIA 0.0000
-1.3579 FROM RUSSIA 0.0000
-2.0569 FROM SENEGAL 0.0000
-1.7559 FROM SOUTH 0.0000
-2.0569 FROM SPAIN 0.0000
-1.5798 FROM SUD 0.0000
-1.5798 FROM TOGO 0.0000
-1.5798 FROM TUNISIA 0.0000
-1.7559 FROM TURKEY 0.0000
-1.7559 FROM UKRAINE 0.0000
-0.3010 GAYANE </s> -0.3010
-0.3010 GEORG </s> -0.3010
-0.3010 GET YOU -0.2001
-0.3010 GHANA </s> -0.3010
-0.3010 GIVE CAKE 0.0000
-0.3010 GOING </s> -0.3010
-0.6812 GOOD </s> -0.3010
-1.3802 GOOD AFTERNOON 0.0000
-1.0792 GOOD BYE 0.0000
-0.7782 GOOD MORNING 0.0000
-0.3010 GOODBYE </s> -0.3010
-0.3010 GREECE </s> -0.3010
-0.3010 HAGEN </s> -0.3010
-0.3010 HAPPEN </s> -0.3010
-0.3010 HEALTHY </s> -0.3010
-0.3010 HELLO </s> -0.3010
-0.3010 HENDRIK </s> -0.3010
-0.9379 HOW ARE -0.0348
-1.1139 HOW DID -0.1963
-1.4150 HOW DO -0.2109
-0.9379 HOW IS -0.2866
-0.9379 HOW OLD -0.2921
-1.4150 HOW WAS -0.2553
-0.3010 HUNDRED YEARS 0.0000
-0.5684 I AM 0.0000
-2.6253 I CAN -0.2218
-2.6253 I CANNOT 0.0000
-2.6253 I CANT 0.0000
-1.2103 I COME 0.0000
-2.1482 I COULD -0.1761
-2.3243 I COULDNT 0.0000
-2.0233 I DID -0.1549
-1.5114 I DIDNT 0.0000
-1.9263 I DO -0.1383
-1.7802 I DONT -0.0512
-1.3466 I NEED -0.0000
-1.8472 I WANT 0.0000
-2.3243 I WAS -0.2041
-2.6253 I WISH -0.2218
-1.8472 I WOULD -0.1249
-0.3010 INDIAN </s> -0.3010
-1.9638 IS </s> -0.3010
-1.9638 IS ALEXANDER 0.0000
-1.4867 IS ANDREA 0.0000
-1.6628 IS ANDREI 0.0000
-1.9638 IS ARTHUR 0.0000
-1.9638 IS DANIEL 0.0000
-1.6628 IS ELIAS 0.0000
-1.4867 IS EVERYTHING -0.0969
-1.3617 IS FERENC 0.0000
-1.9638 IS FERESHTA 0.0000
-1.6628 IS FEROZ 0.0000
-1.3617 IS FRANKLIN 0.0000
-1.9638 IS GAYANE 0.0000
-1.4867 IS GEORG 0.0000
-1.9638 IS GOOD -0.1996
-1.9638 IS HAGEN 0.0000
-1.9638 IS HENDRIK 0.0000
-1.9638 IS KEVIN 0.0000
-1.9638 IS LENA 0.0000
-1.9638 IS LUKAS 0.0000
-1.9638 IS MAREIKE 0.0000
-1.4867 IS MICHAEL 0.0000
-1.9638 IS MIHAI 0.0000
-1.9638 IS PASCALE 0.0000
-1.9638 IS POSSIBLE 0.0000
-1.9638 IS TOBIAS 0.0000
-1.6628 IS UNCLEAR 0.0000
-1.9638 IS YOUR 0.0000
-0.8239 IT IS -0.2866
-0.6021 IT TAKE 0.0000
-1.0000 IT WAS -0.2041
-0.3010 ITALY </s> -0.3010
-0.3010 JASMINE </s> -0.3010
-0.3010 KEVIN </s> -0.3010
-0.3010 KIND </s> -0.3010
-0.3010 KOREA </s> -0.3010
-0.3010 LENA </s> -0.3010
-1.0792 LIKE FOUR -0.2596
-1.0792 LIKE NINE -0.2218
-1.0792 LIKE SIX -0.2218
-1.0792 LIKE THREE -0.2218
-0.7782 LIKE TWO -0.2430
-0.3010 LISSET </s> -0.3010
-0.3010 LUKAS </s> -0.3010
-0.3010 MAKE </s> -0.3010
-0.3010 MALI </s> -0.3010
-0.3010 MALIA </s> -0.3010
-0.3010 MAREIKE </s> -0.3010
-0.3010 MAY YOU -0.2793
-1.8513 ME </s> -0.3010
-1.8513 ME ALEXANDER 0.0000
-1.8513 ME ALEXIS 0.0000
-2.1523 ME ALINA 0.0000
-1.6752 ME ANDREI 0.0000
-1.8513 ME ARTHUR 0.0000
-1.8513 ME ASIL 0.0000
-2.1523 ME CHRIS 0.0000
-2.1523 ME CONSTANTIN 0.0000
-1.8513 ME DOMINIC 0.0000
-2.1523 ME ELIAS 0.0000
-1.6752 ME FERENC 0.0000
-1.8513 ME FERESHTA 0.0000
-1.3741 ME FEROZ 0.0000
-2.1523 ME FRANKLIN 0.0000
-2.1523 ME GAYANE 0.0000
-2.1523 ME GEORG 0.0000
-1.6752 ME HAGEN 0.0000
-1.8513 ME HENDRIK 0.0000
-1.8513 ME JASMINE 0.0000
-1.8513 ME KEVIN 0.0000
-2.1523 ME LENA 0.0000
-1.4533 ME LISSET 0.0000
-1.8513 ME MAREIKE 0.0000
-1.3072 ME MICHAEL 0.0000
-1.8513 ME MIHAI 0.0000
-1.8513 ME OTTHEIN 0.0000
-1.6752 ME PATRICK 0.0000
-1.8513 ME RAFAEL 0.0000
-2.1523 ME SASCHA 0.0000
-1.8513 ME SEBASTIAN 0.0000
-1.8513 ME TOBIAS 0.0000
-0.3010 MEET YOU -0.2001
-0.3010 MENTION </s> -0.3010
-0.3010 MICHAEL </s> -0.3010
-0.3010 MIHAI </s> -0.3010
-0.3010 MORE TIME 0.0000
-0.3010 MORNING </s> -0.3010
-0.3010 MOROCCO </s> -0.3010
-0.3010 MUCH TIME 0.0000
-0.3010 MY NAME 0.0000
-0.3010 NAME IS -0.0696
-1.1027 NEED BEER 0.0000
-1.2788 NEED CAKE 0.0000
-0.9777 NEED DRINK 0.0000
-0.9777 NEED EIGHT -0.1383
-1.5798 NEED FOUR -0.2596
-1.5798 NEED NINE -0.2218
-1.5798 NEED SEVEN -0.2430
-1.5798 NEED TEN 0.0000
-1.5798 NEED THIRD 0.0000
-1.5798 NEED WATER 0.0000
-0.3010 NICE TO -0.0969
-0.7782 NINE PIECE 0.0000
-0.4771 NINE YEARS 0.0000
-0.3010 NINETEEN YEARS 0.0000
-1.1461 NINETY FIVE 0.0000
-0.6690 NINETY FOUR -0.0726
-1.1461 NINETY THREE -0.1249
-1.1461 NINETY TWO -0.0969
-1.1461 NINETY YEARS 0.0000
-0.3010 NO </s> -0.3010
-0.3010 NORWAY </s> -0.3010
-0.4424 NOT </s> -0.3010
-1.0792 NOT AT 0.0000
-1.5563 NOT FEELING -0.2341
-1.5563 NOT GOOD -0.1996
-0.3222 OF CAKE 0.0000
-1.6232 OF COURSE 0.0000
-0.6021 OFFER </s> -0.3010
-0.6021 OFFER CAKE 0.0000
-0.3010 OK </s> -0.3010
-0.3190 OLD </s> -0.3010
-1.6931 OLD ARE -0.0348
-0.7270 ONE MORE 0.0000
-0.5051 ONE YEARS 0.0000
-0.3010 OTTHEIN </s> -0.3010
-0.3010 OUR CONVERSATION 0.0000
-0.3010 PASCALE </s> -0.3010
-0.3010 PATRICK </s> -0.3010
-0.3010 PEOPLE CALL 0.0000
-0.3010 PIECE OF -0.0202
-0.3010 PLEASURE TO -0.0969
-0.3010 POLAND </s> -0.3010
-0.3010 POSSIBLE </s> -0.3010
-0.3010 RAFAEL </s> -0.3010
-0.3010 REPEAT </s> -0.3010
-0.3010 ROMANIA </s> -0.3010
-0.3010 RUSSIA </s> -0.3010
-0.3010 SASCHA </s> -0.3010
-0.3010 SEBASTIAN </s> -0.3010
-0.3010 SEE YOU -0.2001
-0.3010 SENEGAL </s> -0.3010
-0.9031 SEVEN PIECE 0.0000
-0.4260 SEVEN YEARS 0.0000
-0.3010 SEVENTEEN YEARS 0.0000
-1.2041 SEVENTY EIGHT -0.2109
-0.9031 SEVENTY FIVE 0.0000
-1.2041 SEVENTY FOUR -0.0726
-0.9031 SEVENTY ONE -0.1383
-1.2041 SEVENTY THREE -0.1249
-1.2041 SEVENTY TWO -0.0969
-0.3010 SICK </s> -0.3010
-0.7782 SIX PIECE 0.0000
-0.4771 SIX YEARS 0.0000
-0.9542 SIXTY FIVE 0.0000
-1.2553 SIXTY NINE -0.1249
-1.2553 SIXTY ONE -0.1383
-0.9542 SIXTY SEVEN -0.0969
-1.2553 SIXTY SIX -0.1249
-0.9542 SIXTY YEARS 0.0000
-0.3010 SOUTH AFRICA 0.0000
-0.3010 SPAIN </s> -0.3010
-0.3010 SUD KOREA 0.0000
-0.3010 TAKE TOO 0.0000
-0.3010 TEN PIECE 0.0000
-0.3010 THE CONVERSATION 0.0000
-0.3010 THIRD PIECE 0.0000
-1.0792 THIRTY FIVE 0.0000
-1.0792 THIRTY NINE -0.1249
-1.0792 THIRTY ONE -0.1383
-1.0792 THIRTY SIX -0.1249
-0.7782 THIRTY TWO -0.0969
-0.7782 THREE PIECE 0.0000
-0.4771 THREE YEARS 0.0000
-0.3010 TIME </s> -0.3010
-0.9031 TO BE 0.0000
-0.6021 TO MEET 0.0000
-0.9031 TO SEE 0.0000
-0.3010 TOBIAS </s> -0.3010
-0.3010 TOGO </s> -0.3010
-0.3010 TOO MUCH 0.0000
-0.3010 TUNISIA </s> -0.3010
-0.3010 TURKEY </s> -0.3010
-0.3010 TWELVE YEARS 0.0000
-1.1461 TWENTY EIGHT -0.2109
-0.8451 TWENTY FIVE 0.0000
-0.8451 TWENTY FOUR -0.0726
-1.1461 TWENTY NINE -0.1249
-1.1461 TWENTY THREE -0.1249
-0.9031 TWO PIECE 0.0000
-0.4260 TWO YEARS 0.0000
-0.3010 UKRAINE </s> -0.3010
-0.3010 UNCLEAR </s> -0.3010
-0.3010 UNDERSTAND </s> -0.3010
-1.0792 WANT A -0.2218
-1.0792 WANT CAKE 0.0000
-1.0792 WANT EIGHT -0.1383
-1.0792 WANT NINE -0.2218
-1.0792 WANT SEVEN -0.2430
-1.0792 WANT THREE -0.2218
-0.6990 WAS </s> -0.3010
-0.6990 WAS A -0.1249
-1.0000 WAS THE 0.0000
-0.3010 WATER </s> -0.3010
-0.9031 WHAT CAN -0.1249
-0.9031 WHAT DO -0.2109
-0.9031 WHAT HAPPEN 0.0000
-0.9031 WHAT IS -0.2963
-0.4771 WHERE ARE -0.0348
-0.7782 WHERE DO -0.2109
-0.9031 WHY </s> -0.3010
-0.5051 WHY DOES 0.0000
-1.2041 WHY NOT -0.1065
-0.7782 WISH DRINK 0.0000
-0.4771 WISH FOOD 0.0000
-0.3010 WITH YOU -0.2001
-0.4771 WOULD LIKE 0.0000
-0.7782 WOULD YOU -0.2680
-0.3010 YEARS OLD -0.0173
-0.3010 YES </s> -0.3010
-0.6834 YOU </s> -0.3010
-1.9138 YOU ARE -0.2825
-1.9138 YOU COME 0.0000
-1.6128 YOU CUT 0.0000
-1.9138 YOU ENJOY 0.0000
-1.6128 YOU FEELING -0.2341
-1.4367 YOU FIND 0.0000
-1.6128 YOU FROM -0.2894
-1.3118 YOU GIVE 0.0000
-1.9138 YOU MAKE 0.0000
-1.6128 YOU OFFER 0.0000
-1.4367 YOU OK 0.0000
-1.6128 YOU REPEAT 0.0000
-0.3010 YOUR AGE 0.0000

\3-grams:
-0.3010 <s> ABSOLUTELY </s>
-0.3010 <s> ARE YOU
-0.3010 <s> CALL ME
-0.3010 <s> CAN YOU
-0.3010 <s> COULD YOU
-0.3010 <s> DID YOU
-0.3010 <s> DONT MENTION
-0.3010 <s> EVERYTHING IS
-1.1461 <s> GOOD AFTERNOON
-0.8451 <s> GOOD BYE
-0.5441 <s> GOOD MORNING
-0.3010 <s> GOODBYE </s>
-0.3010 <s> HELLO </s>
-0.9379 <s> HOW ARE
-1.1139 <s> HOW DID
-1.4150 <s> HOW DO
-0.9379 <s> HOW IS
-0.9379 <s> HOW OLD
-1.4150 <s> HOW WAS
-0.5684 <s> I AM
-2.6253 <s> I CAN
-2.6253 <s> I CANNOT
-2.6253 <s> I CANT
-1.2103 <s> I COME
-2.1482 <s> I COULD
-2.3243 <s> I COULDNT
-2.0233 <s> I DID
-1.5114 <s> I DIDNT
-1.9263 <s> I DO
-1.7802 <s> I DONT
-1.3466 <s> I NEED
-1.8472 <s> I WANT
-2.3243 <s> I WAS
-2.6253 <s> I WISH
-1.8472 <s> I WOULD
-0.5229 <s> IT IS
-0.6990 <s> IT WAS
-0.3010 <s> MAY YOU
-0.3010 <s> MY NAME
-0.3010 <s> NICE TO
-0.3010 <s> NO </s>
-0.3010 <s> NOT AT
-0.3010 <s> OF COURSE
-0.3010 <s> ONE MORE
-0.3010 <s> PEOPLE CALL
-0.3010 <s> SEE YOU
-0.9031 <s> WHAT CAN
-0.9031 <s> WHAT DO
-0.9031 <s> WHAT HAPPEN
-0.9031 <s> WHAT IS
-0.4771 <s> WHERE ARE
-0.7782 <s> WHERE DO
-0.9031 <s> WHY </s>
-0.5051 <s> WHY DOES
-1.2041 <s> WHY NOT
-0.3010 <s> WISH FOOD
-0.3010 <s> WOULD YOU
-0.3010 <s> YES </s>
-0.3010 <s> YOU ARE
-0.3010 A PIECE OF
-0.3010 A PLEASURE TO
-0.3010 AM EIGHTEEN YEARS
-1.0000 AM EIGTHY FIVE
-1.0000 AM EIGTHY FOUR
-1.0000 AM EIGTHY NINE
-1.0000 AM EIGTHY SEVEN
-1.0000 AM EIGTHY YEARS
-0.3010 AM ELEVEN YEARS
-0.4260 AM FEELING BAD
-0.9031 AM FEELING GOOD
-1.0792 AM FIFTY EIGHT
-1.0792 AM FIFTY FOUR
-1.0792 AM FIFTY NINE
-1.0792 AM FIFTY THREE
-1.0792 AM FIFTY TWO
-1.0792 AM FIFTY YEARS
-0.3010 AM FIVE YEARS
-1.3424 AM FORTY FIVE
-1.3424 AM FORTY FOUR
-1.3424 AM FORTY NINE
-1.3424 AM FORTY ONE
-0.8653 AM FORTY SEVEN
-0.7404 AM FORTY YEARS
-1.7482 AM FROM AMERICA
-1.2711 AM FROM ASIA
-1.7482 AM FROM CAMEROON
-1.7482 AM FROM CHINA
-1.7482 AM FROM EUROPE
-1.7482 AM FROM GREECE
-1.4472 AM FROM ITALY
-1.4472 AM FROM MALI
-1.7482 AM FROM MOROCCO
-1.7482 AM FROM NORWAY
-1.2711 AM FROM POLAND
-1.2711 AM FROM RUSSIA
-1.7482 AM FROM SOUTH
-1.4472 AM FROM SUD
-1.4472 AM FROM TOGO
-1.7482 AM FROM TUNISIA
-1.7482 AM FROM TURKEY
-1.7482 AM FROM UKRAINE
-0.3010 AM GOING </s>
-0.3010 AM GOOD </s>
-0.3010 AM HEALTHY </s>
-0.3010 AM HUNDRED YEARS
-0.3010 AM NINETEEN YEARS
-1.1461 AM NINETY FIVE
-0.6690 AM NINETY FOUR
-1.1461 AM NINETY THREE
-1.1461 AM NINETY TWO
-1.1461 AM NINETY YEARS
-0.6021 AM NOT FEELING
-0.6021 AM NOT GOOD
-0.3010 AM OK </s>
-0.3010 AM SEVENTEEN YEARS
-1.2041 AM SEVENTY EIGHT
-0.9031 AM SEVENTY FIVE
-1.2041 AM SEVENTY FOUR
-0.9031 AM SEVENTY ONE
-1.2041 AM SEVENTY THREE
-1.2041 AM SEVENTY TWO
-0.3010 AM SICK </s>
-0.9542 AM SIXTY FIVE
-1.2553 AM SIXTY NINE
-1.2553 AM SIXTY ONE
-0.9542 AM SIXTY SEVEN
-1.2553 AM SIXTY SIX
-0.9542 AM SIXTY YEARS
-1.0792 AM THIRTY FIVE
-1.0792 AM THIRTY NINE
-1.0792 AM THIRTY ONE
-1.0792 AM THIRTY SIX
-0.7782 AM THIRTY TWO
-0.3010 AM TWELVE YEARS
-1.1461 AM TWENTY EIGHT
-0.8451 AM TWENTY FIVE
-0.8451 AM TWENTY FOUR
-1.1461 AM TWENTY NINE
-1.1461 AM TWENTY THREE
-0.3010 AM TWO YEARS
-0.3010 ARE KIND </s>
-0.7404 ARE YOU </s>
-1.0414 ARE YOU FEELING
-1.0414 ARE YOU FROM
-0.8653 ARE YOU OK
-0.3010 AT ALL </s>
-0.3010 BE WITH YOU
-1.8513 CALL ME </s>
-1.8513 CALL ME ALEXANDER
-1.8513 CALL ME ALEXIS
-2.1523 CALL ME ALINA
-1.6752 CALL ME ANDREI
-1.8513 CALL ME ARTHUR
-1.8513 CALL ME ASIL
-2.1523 CALL ME CHRIS
-2.1523 CALL ME CONSTANTIN
-1.8513 CALL ME DOMINIC
-2.1523 CALL ME ELIAS
-1.6752 CALL ME FERENC
-1.8513 CALL ME FERESHTA
-1.3741 CALL ME FEROZ
-2.1523 CALL ME FRANKLIN
-2.1523 CALL ME GAYANE
-2.1523 CALL ME GEORG
-1.6752 CALL ME HAGEN
-1.8513 CALL ME HENDRIK
-1.8513 CALL ME JASMINE
-1.8513 CALL ME KEVIN
-2.1523 CALL ME LENA
-1.4533 CALL ME LISSET
-1.8513 CALL ME MAREIKE
-1.3072 CALL ME MICHAEL
-1.8513 CALL ME MIHAI
-1.8513 CALL ME OTTHEIN
-1.6752 CALL ME PATRICK
-1.8513 CALL ME RAFAEL
-2.1523 CALL ME SASCHA
-1.8513 CALL ME SEBASTIAN
-1.8513 CALL ME TOBIAS
-0.3010 CAN NOT </s>
-0.6021 CAN YOU MAKE
-0.6021 CAN YOU REPEAT
-1.7324 COME FROM </s>
-1.7324 COME FROM AFRICA
-1.4314 COME FROM BELGIUM
-1.4314 COME FROM CAMEROON
-1.7324 COME FROM EGYPT
-1.7324 COME FROM GHANA
-1.7324 COME FROM INDIAN
-1.4314 COME FROM ITALY
-1.7324 COME FROM MALIA
-1.7324 COME FROM MOROCCO
-1.4314 COME FROM NORWAY
-1.7324 COME FROM ROMANIA
-1.4314 COME FROM RUSSIA
-1.7324 COME FROM SENEGAL
-1.7324 COME FROM SOUTH
-1.7324 COME FROM SPAIN
-1.7324 COME FROM SUD
-1.7324 COME FROM TOGO
-1.4314 COME FROM TUNISIA
-1.7324 COME FROM TURKEY
-1.7324 COME FROM UKRAINE
-0.3010 COULD NOT </s>
-0.4771 COULD YOU GIVE
-0.7782 COULD YOU REPEAT
-0.3010 CUT CAKE </s>
-0.3010 DID NOT </s>
-0.7782 DID YOU ENJOY
-0.4771 DID YOU FIND
-0.3010 DIDNT GET YOU
-0.3010 DIDNT UNDERSTAND </s>
-0.3010 DO NOT </s>
-0.7782 DO YOU COME
-0.7782 DO YOU FIND
-0.7782 DO YOU OFFER
-0.3010 DOES IT TAKE
-0.3010 DONT GET YOU
-0.3010 DONT MENTION </s>
-0.3010 DONT UNDERSTAND </s>
-0.3010 EIGHT PIECE OF
-0.3010 EIGHT YEARS OLD
-0.3010 EIGHTEEN YEARS OLD
-0.3010 EIGTHY FIVE YEARS
-0.3010 EIGTHY FOUR YEARS
-0.3010 EIGTHY NINE YEARS
-0.3010 EIGTHY SEVEN YEARS
-0.3010 EIGTHY YEARS OLD
-0.3010 ELEVEN YEARS OLD
-0.3010 ENJOY OUR CONVERSATION
-0.3010 EVERYTHING GOING </s>
-0.3010 EVERYTHING IS GOOD
-0.3010 FEELING BAD </s>
-0.3010 FEELING GOOD </s>
-0.3010 FIFTY EIGHT YEARS
-0.3010 FIFTY FOUR YEARS
-0.3010 FIFTY NINE YEARS
-0.3010 FIFTY THREE YEARS
-0.3010 FIFTY TWO YEARS
-0.3010 FIFTY YEARS OLD
-0.3010 FIND OUR CONVERSATION
-0.3010 FIVE YEARS OLD
-0.3010 FORTY FIVE YEARS
-0.3010 FORTY FOUR YEARS
-0.3010 FORTY NINE YEARS
-0.3010 FORTY ONE YEARS
-0.3010 FORTY SEVEN YEARS
-0.3010 FORTY YEARS OLD
-0.3010 FOUR PIECE OF
-0.3010 FOUR YEARS OLD
-0.3010 FROM AFRICA </s>
-0.3010 FROM AMERICA </s>
-0.3010 FROM ASIA </s>
-0.3010 FROM BELGIUM </s>
-0.3010 FROM CAMEROON </s>
-0.3010 FROM CHINA </s>
-0.3010 FROM EGYPT </s>
-0.3010 FROM EUROPE </s>
-0.3010 FROM GHANA </s>
-0.3010 FROM GREECE </s>
-0.3010 FROM INDIAN </s>
-0.3010 FROM ITALY </s>
-0.3010 FROM MALI </s>
-0.3010 FROM MALIA </s>
-0.3010 FROM MOROCCO </s>
-0.3010 FROM NORWAY </s>
-0.3010 FROM POLAND </s>
-0.3010 FROM ROMANIA </s>
-0.3010 FROM RUSSIA </s>
-0.3010 FROM SENEGAL </s>
-0.3010 FROM SOUTH AFRICA
-0.3010 FROM SPAIN </s>
-0.3010 FROM SUD KOREA
-0.3010 FROM TOGO </s>
-0.3010 FROM TUNISIA </s>
-0.3010 FROM TURKEY </s>
-0.3010 FROM UKRAINE </s>
-0.3010 GET YOU </s>
-0.3010 GIVE CAKE </s>
-0.3010 GOOD AFTERNOON </s>
-0.3010 GOOD BYE </s>
-0.3010 GOOD MORNING </s>
-0.3010 HOW ARE YOU
-0.3010 HOW DID YOU
-0.3010 HOW DO YOU
-0.3010 HOW IS EVERYTHING
-0.3010 HOW OLD ARE
-0.3010 HOW WAS THE
-0.3010 HUNDRED YEARS OLD
-2.3579 I AM </s>
-2.0569 I AM EIGHTEEN
-1.6590 I AM EIGTHY
-2.0569 I AM ELEVEN
-1.7559 I AM FEELING
-1.5798 I AM FIFTY
-2.0569 I AM FIVE
-1.3165 I AM FORTY
-0.9108 I AM FROM
-2.0569 I AM GOING
-2.3579 I AM GOOD
-2.3579 I AM HEALTHY
-2.3579 I AM HUNDRED
-2.3579 I AM NINETEEN
-1.5128 I AM NINETY
-2.0569 I AM NOT
-1.8808 I AM OK
-2.0569 I AM SEVENTEEN
-1.4548 I AM SEVENTY
-2.3579 I AM SICK
-1.4037 I AM SIXTY
-1.5798 I AM THIRTY
-2.3579 I AM TWELVE
-1.5128 I AM TWENTY
-2.3579 I AM TWO
-0.3010 I CAN NOT
-0.3010 I CANNOT </s>
-0.3010 I CANT </s>
-0.3010 I COME FROM
-0.3010 I COULD NOT
-0.3010 I COULDNT </s>
-0.3010 I DID NOT
-0.7160 I DIDNT </s>
-0.8129 I DIDNT GET
-0.8129 I DIDNT UNDERSTAND
-1.0000 I DO </s>
-0.3979 I DO NOT
-0.8451 I DONT </s>
-0.5441 I DONT GET
-1.1461 I DONT UNDERSTAND
-1.1027 I NEED BEER
-1.2788 I NEED CAKE
-0.9777 I NEED DRINK
-0.9777 I NEED EIGHT
-1.5798 I NEED FOUR
-1.5798 I NEED NINE
-1.5798 I NEED SEVEN
-1.5798 I NEED TEN
-1.5798 I NEED THIRD
-1.5798 I NEED WATER
-1.0792 I WANT A
-1.0792 I WANT CAKE
-1.0792 I WANT EIGHT
-1.0792 I WANT NINE
-1.0792 I WANT SEVEN
-1.0792 I WANT THREE
-0.3010 I WAS </s>
-0.3010 I WISH DRINK
-0.3010 I WOULD LIKE
-0.3010 IS ALEXANDER </s>
-0.3010 IS ANDREA </s>
-0.3010 IS ANDREI </s>
-0.3010 IS ARTHUR </s>
-0.3010 IS DANIEL </s>
-0.3010 IS ELIAS </s>
-0.7782 IS EVERYTHING </s>
-0.4771 IS EVERYTHING GOING
-0.3010 IS FERENC </s>
-0.3010 IS FERESHTA </s>
-0.3010 IS FEROZ </s>
-0.3010 IS FRANKLIN </s>
-0.3010 IS GAYANE </s>
-0.3010 IS GEORG </s>
-0.3010 IS GOOD </s>
-0.3010 IS HAGEN </s>
-0.3010 IS HENDRIK </s>
-0.3010 IS KEVIN </s>
-0.3010 IS LENA </s>
-0.3010 IS LUKAS </s>
-0.3010 IS MAREIKE </s>
-0.3010 IS MICHAEL </s>
-0.3010 IS MIHAI </s>
-0.3010 IS PASCALE </s>
-0.3010 IS POSSIBLE </s>
-0.3010 IS TOBIAS </s>
-0.3010 IS UNCLEAR </s>
-0.3010 IS YOUR AGE
-0.7782 IT IS POSSIBLE
-0.4771 IT IS UNCLEAR
-0.3010 IT TAKE TOO
-0.3010 IT WAS A
-0.3010 LIKE FOUR PIECE
-0.3010 LIKE NINE PIECE
-0.3010 LIKE SIX PIECE
-0.3010 LIKE THREE PIECE
-0.3010 LIKE TWO PIECE
-0.6021 MAY YOU CUT
-0.6021 MAY YOU OFFER
-0.3010 ME ALEXANDER </s>
-0.3010 ME ALEXIS </s>
-0.3010 ME ALINA </s>
-0.3010 ME ANDREI </s>
-0.3010 ME ARTHUR </s>
-0.3010 ME ASIL </s>
-0.3010 ME CHRIS </s>
-0.3010 ME CONSTANTIN </s>
-0.3010 ME DOMINIC </s>
-0.3010 ME ELIAS </s>
-0.3010 ME FERENC </s>
-0.3010 ME FERESHTA </s>
-0.3010 ME FEROZ </s>
-0.3010 ME FRANKLIN </s>
-0.3010 ME GAYANE </s>
-0.3010 ME GEORG </s>
-0.3010 ME HAGEN </s>
-0.3010 ME HENDRIK </s>
-0.3010 ME JASMINE </s>
-0.3010 ME KEVIN </s>
-0.3010 ME LENA </s>
-0.3010 ME LISSET </s>
-0.3010 ME MAREIKE </s>
-0.3010 ME MICHAEL </s>
-0.3010 ME MIHAI </s>
-0.3010 ME OTTHEIN </s>
-0.3010 ME PATRICK </s>
-0.3010 ME RAFAEL </s>
-0.3010 ME SASCHA </s>
-0.3010 ME SEBASTIAN </s>
-0.3010 ME TOBIAS </s>
-0.3010 MEET YOU </s>
-0.3010 MORE TIME </s>
-0.3010 MUCH TIME </s>
-0.3010 MY NAME IS
-1.8808 NAME IS </s>
-1.8808 NAME IS ALEXANDER
-1.4037 NAME IS ANDREA
-1.5798 NAME IS ANDREI
-1.8808 NAME IS ARTHUR
-1.8808 NAME IS DANIEL
-1.5798 NAME IS ELIAS
-1.2788 NAME IS FERENC
-1.8808 NAME IS FERESHTA
-1.5798 NAME IS FEROZ
-1.2788 NAME IS FRANKLIN
-1.8808 NAME IS GAYANE
-1.4037 NAME IS GEORG
-1.8808 NAME IS HAGEN
-1.8808 NAME IS HENDRIK
-1.8808 NAME IS KEVIN
-1.8808 NAME IS LENA
-1.8808 NAME IS LUKAS
-1.8808 NAME IS MAREIKE
-1.4037 NAME IS MICHAEL
-1.8808 NAME IS MIHAI
-1.8808 NAME IS PASCALE
-1.8808 NAME IS TOBIAS
-0.3010 NEED BEER </s>
-0.3010 NEED CAKE </s>
-0.3010 NEED DRINK </s>
-0.3010 NEED EIGHT PIECE
-0.3010 NEED FOUR PIECE
-0.3010 NEED NINE PIECE
-0.3010 NEED SEVEN PIECE
-0.3010 NEED TEN PIECE
-0.3010 NEED THIRD PIECE
-0.3010 NEED WATER </s>
-0.6021 NICE TO MEET
-0.6021 NICE TO SEE
-0.3010 NINE PIECE OF
-0.3010 NINE YEARS OLD
-0.3010 NINETEEN YEARS OLD
-0.3010 NINETY FIVE YEARS
-0.3010 NINETY FOUR YEARS
-0.3010 NINETY THREE YEARS
-0.3010 NINETY TWO YEARS
-0.3010 NINETY YEARS OLD
-0.3010 NOT AT ALL
-0.3010 NOT FEELING GOOD
-0.3010 NOT GOOD </s>
-0.3010 OF CAKE </s>
-0.3010 OF COURSE </s>
-0.3010 OFFER CAKE </s>
-0.3010 OLD ARE YOU
-0.3010 ONE MORE TIME
-0.3010 ONE YEARS OLD
-0.3010 OUR CONVERSATION </s>
-0.3010 PEOPLE CALL ME
-0.3010 PIECE OF CAKE
-0.6021 PLEASURE TO BE
-0.6021 PLEASURE TO MEET
-0.3010 SEE YOU </s>
-0.3010 SEVEN PIECE OF
-0.3010 SEVEN YEARS OLD
-0.3010 SEVENTEEN YEARS OLD
-0.3010 SEVENTY EIGHT YEARS
-0.3010 SEVENTY FIVE YEARS
-0.3010 SEVENTY FOUR YEARS
-0.3010 SEVENTY ONE YEARS
-0.3010 SEVENTY THREE YEARS
-0.3010 SEVENTY TWO YEARS
-0.3010 SIX PIECE OF
-0.3010 SIX YEARS OLD
-0.3010 SIXTY FIVE YEARS
-0.3010 SIXTY NINE YEARS
-0.3010 SIXTY ONE YEARS
-0.3010 SIXTY SEVEN YEARS
-0.3010 SIXTY SIX YEARS
-0.3010 SIXTY YEARS OLD
-0.3010 SOUTH AFRICA </s>
-0.3010 SUD KOREA </s>
-0.3010 TAKE TOO MUCH
-0.3010 TEN PIECE OF
-0.3010 THE CONVERSATION </s>
-0.3010 THIRD PIECE OF
-0.3010 THIRTY FIVE YEARS
-0.3010 THIRTY NINE YEARS
-0.3010 THIRTY ONE YEARS
-0.3010 THIRTY SIX YEARS
-0.3010 THIRTY TWO YEARS
-0.3010 THREE PIECE OF
-0.3010 THREE YEARS OLD
-0.3010 TO BE WITH
-0.3010 TO MEET YOU
-0.3010 TO SEE YOU
-0.3010 TOO MUCH TIME
-0.3010 TWELVE YEARS OLD
-0.3010 TWENTY EIGHT YEARS
-0.3010 TWENTY FIVE YEARS
-0.3010 TWENTY FOUR YEARS
-0.3010 TWENTY NINE YEARS
-0.3010 TWENTY THREE YEARS
-0.3010 TWO PIECE OF
-0.3010 TWO YEARS OLD
-0.3010 WANT A PIECE
-0.3010 WANT CAKE </s>
-0.3010 WANT EIGHT PIECE
-0.3010 WANT NINE PIECE
-0.3010 WANT SEVEN PIECE
-0.3010 WANT THREE PIECE
-0.3010 WAS A PLEASURE
-0.3010 WAS THE CONVERSATION
-0.3010 WHAT CAN YOU
-0.3010 WHAT DO YOU
-0.3010 WHAT HAPPEN </s>
-0.3010 WHAT IS YOUR
-0.3010 WHERE ARE YOU
-0.3010 WHERE DO YOU
-0.3010 WHY DOES IT
-0.3010 WHY NOT </s>
-0.3010 WISH DRINK </s>
-0.3010 WISH FOOD </s>
-0.3010 WITH YOU </s>
-1.0792 WOULD LIKE FOUR
-1.0792 WOULD LIKE NINE
-1.0792 WOULD LIKE SIX
-1.0792 WOULD LIKE THREE
-0.7782 WOULD LIKE TWO
-0.7782 WOULD YOU CUT
-0.4771 WOULD YOU GIVE
-0.3010 YEARS OLD </s>
-0.3010 YOU ARE KIND
-0.3010 YOU COME FROM
-0.3010 YOU CUT CAKE
-0.3010 YOU ENJOY OUR
-0.3010 YOU FEELING </s>
-0.3010 YOU FIND OUR
-0.3010 YOU FROM </s>
-0.3010 YOU GIVE CAKE
-0.3010 YOU MAKE </s>
-0.6021 YOU OFFER </s>
-0.6021 YOU OFFER CAKE
-0.3010 YOU OK </s>
-0.3010 YOU REPEAT </s>
-0.3010 YOUR AGE </s>

\end\

