Language model created by QuickLM on Sun May 28 10:39:46 EDT 2017
Copyright (c) 1996-2010 Carnegie Mellon University and Alexander I. Rudnicky

The model is in standard ARPA format, designed by Doug Paul while he was at MITRE.

The code that was used to produce this language model is available in Open Source.
Please visit http://www.speech.cs.cmu.edu/tools/ for more information

The (fixed) discount mass is 0.5. The backoffs are computed using the ratio method.
This model based on a corpus of 400 sentences and 177 words

\data\
ngram 1=177
ngram 2=445
ngram 3=562

\1-grams:
-1.0897 </s> -0.3010
-1.0897 <s> -0.2457
-3.0897 A -0.2984
-3.6918 ABSOLUTELY -0.2642
-3.2147 ADRIAN -0.2642
-3.6918 AFRICA -0.2642
-2.9136 AFTERNOON -0.2642
-3.6918 AGE -0.2642
-3.3908 ALEXANDER -0.2642
-3.6918 ALEXIS -0.2642
-2.8467 ALINA -0.2642
-3.2147 ALL -0.2642
-1.5914 AM -0.2396
-3.3908 AMERICA -0.2642
-3.2147 ANDREI -0.2642
-2.6504 ARE -0.2968
-2.9136 ARTHUR -0.2642
-3.3908 ASIA -0.2642
-2.9928 ASIL -0.2642
-3.2147 AT -0.3008
-2.9928 AUSTRALIA -0.2642
-3.0897 BAD -0.2642
-3.3908 BE -0.3009
-3.2147 BEER -0.2642
-3.3908 BELGIUM -0.2642
-3.0897 BYE -0.2642
-2.0583 CAKE -0.2642
-1.8226 CALL -0.2944
-3.3908 CAMEROON -0.2642
-2.6918 CAN -0.2579
-3.2147 CANNOT -0.2642
-3.3908 CANT -0.2642
-3.3908 CHINA -0.2642
-3.2147 CHRIS -0.2642
-3.6918 CLEAR -0.2642
-2.3494 COME -0.2967
-3.6918 CONSTANTIN -0.2642
-2.8467 CONVERSATION -0.2642
-2.8467 COULD -0.2579
-3.3908 COULDNT -0.2642
-3.6918 COURSE -0.2642
-3.3908 CUT -0.2972
-3.6918 DANIEL -0.2642
-2.6126 DID -0.2579
-3.3908 DIDNT -0.2641
-2.9136 DO -0.2953
-2.9928 DOMINIC -0.2642
-2.9928 DONT -0.2637
-3.0897 DRINK -0.2642
-2.7375 EIGHT -0.2914
-3.6918 EIGHTEEN -0.2939
-2.9136 EIGTHY -0.2908
-3.6918 ELEVEN -0.2939
-2.9928 ELIAS -0.2642
-3.3908 ENGLAND -0.2642
-3.3908 ENJOY -0.3008
-3.6918 EVERYTHING -0.2978
-2.7375 FEELING -0.2617
-3.3908 FERENC -0.2642
-3.3908 FERESHTA -0.2642
-2.8467 FEROZ -0.2642
-3.6918 FIFTEEN -0.2939
-2.8467 FIFTY -0.2961
-3.0897 FIND -0.3004
-2.6918 FIVE -0.2914
-2.5457 FORTY -0.2879
-2.6504 FOUR -0.2914
-2.8467 FRANKLIN -0.2642
-2.0016 FROM -0.2595
-2.8467 GAYANE -0.2642
-3.2147 GEORG -0.2642
-3.0897 GET -0.2970
-3.0897 GIVE -0.2972
-2.3494 GOOD -0.2628
-3.6918 GREECE -0.2642
-3.3908 HAGEN -0.2642
-3.6918 HEALTHY -0.2642
-2.9928 HELLO -0.2642
-3.2147 HENDRIK -0.2642
-2.6126 HOW -0.2907
-1.3553 I -0.2793
-3.3908 INDIAN -0.2642
-2.1236 IS -0.2512
-3.2147 IT -0.2975
-3.2147 ITALY -0.2642
-3.6918 KENYA -0.2642
-3.2147 KEVIN -0.2642
-3.6918 KOREA -0.2642
-3.3908 LATER -0.2642
-3.6918 LENA -0.2642
-2.4365 LIKE -0.2903
-3.6918 LISSET -0.2642
-3.3908 LUKAS -0.2642
-3.6918 MAKE -0.2642
-3.6918 MALIA -0.2642
-3.2147 MAY -0.2970
-1.8226 ME -0.2923
-3.6918 MENTION -0.2642
-2.8467 MICHAEL -0.2642
-2.9928 MIHAI -0.2642
-3.3908 MORE -0.3009
-3.2147 MORNING -0.2642
-3.2147 MOROCCO -0.2642
-2.1733 MY -0.2980
-2.1603 NAME -0.2606
-2.5778 NEED -0.2974
-3.3908 NETHERLANDS -0.2642
-3.6918 NICE -0.3008
-3.6918 NIGHT -0.2642
-2.5157 NINE -0.2914
-2.7375 NINETY -0.2892
-3.2147 NO -0.2642
-2.3908 NOT -0.2604
-2.2294 OF -0.2971
-2.9136 OFFER -0.2600
-2.9928 OK -0.2642
-1.7675 OLD -0.2631
-2.9928 ONE -0.2937
-3.3908 OTTHEIN -0.2642
-3.0897 OUR -0.3004
-3.6918 PASCALE -0.2642
-3.3908 PATRICK -0.2642
-3.6918 PEOLE -0.2944
-2.0685 PEOPLE -0.2944
-2.2446 PIECE -0.2985
-3.3908 PLEASURE -0.3008
-3.2147 POLAND -0.2642
-3.6918 RAFAEL -0.2642
-3.3908 REPEAT -0.2642
-3.6918 ROMANIA -0.2642
-3.3908 RUSSIA -0.2642
-3.3908 SASCHA -0.2642
-3.3908 SAY -0.3006
-3.2147 SEBASTIAN -0.2642
-3.2147 SEE -0.2970
-3.3908 SENEGAL -0.2642
-2.6504 SEVEN -0.2939
-2.7375 SEVENTY -0.2883
-3.6918 SICK -0.2642
-2.6504 SIX -0.2914
-3.6918 SIXTEEN -0.2939
-2.7375 SIXTY -0.2865
-3.3908 SOMETHING -0.2642
-3.6918 SPAIN -0.2642
-3.6918 SUD -0.3009
-3.6918 SWEDEN -0.2642
-3.3908 SWITZERLAND -0.2642
-3.3908 TEN -0.2986
-3.6918 THANK -0.2970
-3.2147 THE -0.3004
-3.3908 THIRD -0.2986
-3.6918 THIRTEEN -0.2939
-2.9928 THIRTY -0.2974
-2.9928 THREE -0.2914
-3.3908 TIME -0.2642
-3.2147 TO -0.3006
-3.6918 TOBIAS -0.2642
-3.6918 TOGO -0.2642
-3.6918 TURKEY -0.2642
-3.6918 TWELVE -0.2939
-2.9928 TWENTY -0.2911
-2.6918 TWO -0.2914
-3.3908 UKRAINE -0.2642
-3.6918 UNDERSTAND -0.2642
-2.7375 WANT -0.2925
-3.2147 WAS -0.3003
-3.2147 WELLCOME -0.2642
-3.0897 WHAT -0.2963
-3.6918 WHERE -0.3005
-3.6918 WHY -0.2993
-3.6918 WISH -0.3007
-3.3908 WITH -0.2970
-2.3908 WOULD -0.2954
-1.7887 YEARS -0.2935
-3.6918 YES -0.2642
-2.0386 YOU -0.2572
-3.3908 YOUR -0.2979

\2-grams:
-2.9031 <s> ABSOLUTELY 0.0000
-2.9031 <s> ARE -0.1047
-1.4117 <s> CALL 0.0000
-2.1249 <s> CAN -0.1139
-2.3010 <s> COULD -0.1549
-2.6021 <s> DID -0.1996
-2.9031 <s> DONT -0.2553
-2.9031 <s> EVERYTHING 0.0000
-1.7570 <s> GOOD -0.1347
-2.2041 <s> HELLO 0.0000
-1.8239 <s> HOW 0.0000
-0.5666 <s> I 0.0000
-2.4260 <s> IT 0.0000
-2.4260 <s> MAY 0.0000
-1.3846 <s> MY 0.0000
-2.9031 <s> NICE 0.0000
-2.4260 <s> NO 0.0000
-2.4260 <s> NOT -0.2672
-2.9031 <s> OF -0.2935
-2.9031 <s> PEOLE 0.0000
-1.2798 <s> PEOPLE 0.0000
-2.6021 <s> SEE 0.0000
-2.9031 <s> THANK 0.0000
-2.3010 <s> WHAT 0.0000
-2.9031 <s> WHERE 0.0000
-2.9031 <s> WHY 0.0000
-2.6021 <s> WOULD -0.2788
-2.9031 <s> YES 0.0000
-2.4260 <s> YOU -0.2863
-0.6021 A PIECE 0.0000
-0.6021 A PLEASURE 0.0000
-0.3010 ABSOLUTELY </s> -0.3010
-0.3010 ADRIAN </s> -0.3010
-0.3010 AFRICA </s> -0.3010
-0.3010 AFTERNOON </s> -0.3010
-0.3010 AGE </s> -0.3010
-0.3010 ALEXANDER </s> -0.3010
-0.3010 ALEXIS </s> -0.3010
-0.3010 ALINA </s> -0.3010
-0.3010 ALL </s> -0.3010
-2.4014 AM </s> -0.3010
-2.4014 AM BAD 0.0000
-2.4014 AM EIGHTEEN 0.0000
-1.6232 AM EIGTHY 0.0000
-2.4014 AM ELEVEN 0.0000
-1.7993 AM FEELING -0.1249
-2.4014 AM FIFTEEN 0.0000
-1.5563 AM FIFTY -0.0000
-2.1004 AM FIVE -0.0792
-1.2553 AM FORTY 0.0000
-2.1004 AM FOUR -0.1047
-0.9700 AM FROM -0.0880
-1.9243 AM GOOD -0.2139
-2.4014 AM HEALTHY 0.0000
-2.1004 AM NINE -0.1249
-1.4472 AM NINETY 0.0000
-1.7993 AM NOT -0.1303
-1.7993 AM OK 0.0000
-2.1004 AM SEVEN 0.0000
-1.4472 AM SEVENTY 0.0000
-2.4014 AM SICK 0.0000
-2.4014 AM SIX -0.0378
-2.4014 AM SIXTEEN 0.0000
-1.4472 AM SIXTY 0.0000
-2.4014 AM THIRTEEN 0.0000
-1.7024 AM THIRTY 0.0000
-2.4014 AM TWELVE 0.0000
-1.7024 AM TWENTY 0.0000
-2.4014 AM TWO -0.1761
-0.3010 AMERICA </s> -0.3010
-0.3010 ANDREI </s> -0.3010
-0.8653 ARE WELLCOME 0.0000
-0.4393 ARE YOU -0.2160
-0.3010 ARTHUR </s> -0.3010
-0.3010 ASIA </s> -0.3010
-0.3010 ASIL </s> -0.3010
-0.3010 AT ALL 0.0000
-0.3010 AUSTRALIA </s> -0.3010
-0.3010 BAD </s> -0.3010
-0.3010 BE WITH 0.0000
-0.3010 BEER </s> -0.3010
-0.3010 BELGIUM </s> -0.3010
-0.3010 BYE </s> -0.3010
-0.3010 CAKE </s> -0.3010
-0.3010 CALL ME 0.0000
-0.3010 CAMEROON </s> -0.3010
-1.0000 CAN </s> -0.3010
-1.3010 CAN NOT -0.1761
-0.4559 CAN YOU -0.2553
-0.3010 CANNOT </s> -0.3010
-0.3010 CANT </s> -0.3010
-0.3010 CHINA </s> -0.3010
-0.3010 CHRIS </s> -0.3010
-0.3010 CLEAR </s> -0.3010
-0.3010 COME FROM -0.1022
-0.3010 CONSTANTIN </s> -0.3010
-0.3010 CONVERSATION </s> -0.3010
-1.1461 COULD </s> -0.3010
-0.8451 COULD NOT -0.1761
-0.5441 COULD YOU -0.2389
-0.3010 COULDNT </s> -0.3010
-0.3010 COURSE </s> -0.3010
-0.3010 CUT CAKE 0.0000
-0.3010 DANIEL </s> -0.3010
-1.0792 DID </s> -0.3010
-0.6812 DID NOT -0.1303
-0.6812 DID YOU -0.2711
-0.6021 DIDNT </s> -0.3010
-0.6021 DIDNT UNDERSTAND 0.0000
-0.6021 DO NOT -0.1761
-0.6021 DO YOU -0.2444
-0.3010 DOMINIC </s> -0.3010
-0.5229 DONT </s> -0.3010
-1.0000 DONT GET 0.0000
-1.0000 DONT MENTION 0.0000
-0.3010 DRINK </s> -0.3010
-0.7782 EIGHT PIECE 0.0000
-0.4771 EIGHT YEARS 0.0000
-0.3010 EIGHTEEN YEARS 0.0000
-1.0792 EIGTHY EIGHT -0.1249
-1.0792 EIGTHY FOUR -0.1047
-1.0792 EIGTHY NINE -0.1249
-0.6021 EIGTHY YEARS 0.0000
-0.3010 ELEVEN YEARS 0.0000
-0.3010 ELIAS </s> -0.3010
-0.3010 ENGLAND </s> -0.3010
-0.3010 ENJOY THE 0.0000
-0.3010 EVERYTHING IS -0.2951
-0.7782 FEELING </s> -0.3010
-0.7782 FEELING BAD 0.0000
-0.7782 FEELING GOOD -0.2139
-0.3010 FERENC </s> -0.3010
-0.3010 FERESHTA </s> -0.3010
-0.3010 FEROZ </s> -0.3010
-0.3010 FIFTEEN YEARS 0.0000
-1.1461 FIFTY EIGHT -0.1249
-1.1461 FIFTY NINE -0.1249
-1.1461 FIFTY ONE -0.1461
-1.1461 FIFTY SEVEN 0.0000
-0.8451 FIFTY SIX -0.0378
-1.1461 FIFTY THREE -0.2041
-0.4260 FIND OUR 0.0000
-0.9031 FIND THE 0.0000
-1.0000 FIVE PIECE 0.0000
-0.3979 FIVE YEARS 0.0000
-1.4472 FORTY EIGHT -0.1249
-0.8451 FORTY FIVE -0.0792
-1.4472 FORTY FOUR -0.1047
-1.1461 FORTY NINE -0.1249
-1.1461 FORTY SEVEN 0.0000
-1.4472 FORTY SIX -0.0378
-0.9700 FORTY YEARS 0.0000
-0.8653 FOUR PIECE 0.0000
-0.4393 FOUR YEARS 0.0000
-0.3010 FRANKLIN </s> -0.3010
-1.9912 FROM </s> -0.3010
-1.9912 FROM AFRICA 0.0000
-1.6902 FROM AMERICA 0.0000
-1.6902 FROM ASIA 0.0000
-1.2923 FROM AUSTRALIA 0.0000
-1.6902 FROM BELGIUM 0.0000
-1.6902 FROM CAMEROON 0.0000
-1.6902 FROM CHINA 0.0000
-1.6902 FROM ENGLAND 0.0000
-1.9912 FROM GREECE 0.0000
-1.6902 FROM INDIAN 0.0000
-1.5141 FROM ITALY 0.0000
-1.9912 FROM KENYA 0.0000
-1.9912 FROM MALIA 0.0000
-1.5141 FROM MOROCCO 0.0000
-1.6902 FROM NETHERLANDS 0.0000
-1.5141 FROM POLAND 0.0000
-1.9912 FROM ROMANIA 0.0000
-1.6902 FROM RUSSIA 0.0000
-1.6902 FROM SENEGAL 0.0000
-1.9912 FROM SPAIN 0.0000
-1.9912 FROM SUD 0.0000
-1.9912 FROM SWEDEN 0.0000
-1.6902 FROM SWITZERLAND 0.0000
-1.9912 FROM TOGO 0.0000
-1.9912 FROM TURKEY 0.0000
-1.6902 FROM UKRAINE 0.0000
-0.3010 GAYANE </s> -0.3010
-0.3010 GEORG </s> -0.3010
-0.3010 GET YOU -0.2389
-0.3010 GIVE CAKE 0.0000
-0.7404 GOOD </s> -0.3010
-0.8653 GOOD AFTERNOON 0.0000
-1.0414 GOOD BYE 0.0000
-1.1663 GOOD MORNING 0.0000
-1.6435 GOOD NIGHT 0.0000
-0.3010 GREECE </s> -0.3010
-0.3010 HAGEN </s> -0.3010
-0.3010 HEALTHY </s> -0.3010
-0.3010 HELLO </s> -0.3010
-0.3010 HENDRIK </s> -0.3010
-0.9031 HOW ARE -0.1047
-0.9031 HOW DID -0.1996
-1.3802 HOW DO -0.1761
-0.7782 HOW OLD -0.2906
-1.3802 HOW WAS -0.2218
-0.5371 I AM -0.0000
-2.1604 I CAN -0.2304
-2.1604 I CANNOT 0.0000
-2.3365 I CANT 0.0000
-1.3153 I COME 0.0000
-2.1604 I COULD -0.1963
-2.3365 I COULDNT 0.0000
-1.7924 I DID -0.1513
-2.3365 I DIDNT 0.0000
-2.1604 I DO -0.1761
-2.0354 I DONT -0.0792
-1.5235 I NEED 0.0000
-1.6832 I WANT 0.0000
-2.6375 I WISH 0.0000
-1.3822 I WOULD -0.0414
-0.3010 INDIAN </s> -0.3010
-1.8692 IS </s> -0.3010
-1.8692 IS ALEXANDER 0.0000
-1.5682 IS ALINA 0.0000
-1.5682 IS ANDREI 0.0000
-1.5682 IS ARTHUR 0.0000
-1.8692 IS ASIL 0.0000
-1.8692 IS CHRIS 0.0000
-1.8692 IS CONSTANTIN 0.0000
-1.8692 IS DOMINIC 0.0000
-1.8692 IS ELIAS 0.0000
-1.5682 IS FERESHTA 0.0000
-1.5682 IS FEROZ 0.0000
-1.8692 IS FRANKLIN 0.0000
-1.8692 IS GAYANE 0.0000
-1.8692 IS GEORG 0.0000
-1.8692 IS GOOD -0.2139
-1.5682 IS HENDRIK 0.0000
-1.8692 IS KEVIN 0.0000
-1.3921 IS MICHAEL 0.0000
-1.8692 IS MIHAI 0.0000
-1.8692 IS NOT -0.2900
-1.8692 IS PASCALE 0.0000
-1.5682 IS PATRICK 0.0000
-1.5682 IS SASCHA 0.0000
-1.8692 IS SEBASTIAN 0.0000
-1.5682 IS YOUR 0.0000
-0.7782 IT IS -0.2951
-0.4771 IT WAS -0.1249
-0.3010 ITALY </s> -0.3010
-0.3010 KENYA </s> -0.3010
-0.3010 KEVIN </s> -0.3010
-0.3010 KOREA </s> -0.3010
-0.3010 LATER </s> -0.3010
-0.3010 LENA </s> -0.3010
-1.5563 LIKE A -0.1761
-1.0792 LIKE CAKE 0.0000
-1.5563 LIKE EIGHT -0.2218
-1.5563 LIKE FIVE -0.2553
-1.5563 LIKE FOUR -0.2374
-1.0792 LIKE NINE -0.2218
-1.5563 LIKE SIX -0.2808
-1.5563 LIKE TEN 0.0000
-1.2553 LIKE THREE -0.1461
-0.9542 LIKE TWO -0.1761
-0.3010 LISSET </s> -0.3010
-0.3010 LUKAS </s> -0.3010
-0.3010 MAKE </s> -0.3010
-0.3010 MALIA </s> -0.3010
-0.3010 MAY YOU -0.2606
-1.6931 ME ADRIAN 0.0000
-2.1703 ME ALEXANDER 0.0000
-2.1703 ME ALEXIS 0.0000
-1.4713 ME ALINA 0.0000
-2.1703 ME ANDREI 0.0000
-1.5682 ME ARTHUR 0.0000
-1.5682 ME ASIL 0.0000
-1.8692 ME CHRIS 0.0000
-2.1703 ME DANIEL 0.0000
-1.5682 ME DOMINIC 0.0000
-1.5682 ME ELIAS 0.0000
-1.8692 ME FERENC 0.0000
-1.4713 ME FEROZ 0.0000
-1.3921 ME FRANKLIN 0.0000
-1.3921 ME GAYANE 0.0000
-1.8692 ME GEORG 0.0000
-1.8692 ME HAGEN 0.0000
-2.1703 ME HENDRIK 0.0000
-1.8692 ME KEVIN 0.0000
-2.1703 ME LENA 0.0000
-2.1703 ME LISSET 0.0000
-1.8692 ME LUKAS 0.0000
-1.5682 ME MICHAEL 0.0000
-1.5682 ME MIHAI 0.0000
-1.8692 ME OTTHEIN 0.0000
-2.1703 ME RAFAEL 0.0000
-1.8692 ME SEBASTIAN 0.0000
-2.1703 ME TOBIAS 0.0000
-0.3010 MENTION </s> -0.3010
-0.3010 MICHAEL </s> -0.3010
-0.3010 MIHAI </s> -0.3010
-0.3010 MORE TIME 0.0000
-0.3010 MORNING </s> -0.3010
-0.3010 MOROCCO </s> -0.3010
-0.3010 MY NAME -0.0126
-1.8325 NAME </s> -0.3010
-0.3140 NAME IS -0.0446
-1.4150 NEED A -0.1761
-0.9379 NEED BEER 0.0000
-0.9379 NEED DRINK 0.0000
-1.1139 NEED FOUR -0.2374
-1.4150 NEED NINE -0.2218
-1.1139 NEED SOMETHING 0.0000
-1.4150 NEED THIRD 0.0000
-0.3010 NETHERLANDS </s> -0.3010
-0.3010 NICE TO -0.2218
-0.3010 NIGHT </s> -0.3010
-0.7782 NINE PIECE 0.0000
-0.4771 NINE YEARS 0.0000
-1.2553 NINETY EIGHT -0.1249
-1.2553 NINETY FOUR -0.1047
-0.7782 NINETY SEVEN 0.0000
-1.2553 NINETY SIX -0.0378
-1.2553 NINETY TWO -0.1761
-0.9542 NINETY YEARS 0.0000
-0.3010 NO </s> -0.3010
-0.6021 NOT </s> -0.3010
-1.1249 NOT AT 0.0000
-1.6021 NOT CLEAR 0.0000
-1.3010 NOT FEELING -0.2218
-1.1249 NOT GET 0.0000
-1.6021 NOT GOOD -0.2139
-0.3163 OF CAKE 0.0000
-1.7634 OF COURSE 0.0000
-1.0792 OFFER </s> -0.3010
-0.3802 OFFER CAKE 0.0000
-0.3010 OK </s> -0.3010
-0.3222 OLD </s> -0.3010
-1.6232 OLD ARE -0.1047
-0.6990 ONE MORE 0.0000
-0.5229 ONE YEARS 0.0000
-0.3010 OTTHEIN </s> -0.3010
-0.3010 OUR CONVERSATION 0.0000
-0.3010 PASCALE </s> -0.3010
-0.3010 PATRICK </s> -0.3010
-0.3010 PEOLE CALL 0.0000
-0.3010 PEOPLE CALL 0.0000
-0.3010 PIECE OF -0.0147
-0.3010 PLEASURE TO -0.1249
-0.3010 POLAND </s> -0.3010
-0.3010 RAFAEL </s> -0.3010
-0.3010 REPEAT </s> -0.3010
-0.3010 ROMANIA </s> -0.3010
-0.3010 RUSSIA </s> -0.3010
-0.3010 SASCHA </s> -0.3010
-0.3010 SAY ONE -0.2041
-0.3010 SEBASTIAN </s> -0.3010
-0.3010 SEE YOU -0.2276
-0.3010 SENEGAL </s> -0.3010
-0.3010 SEVEN YEARS 0.0000
-1.2553 SEVENTY FIVE -0.0792
-0.9542 SEVENTY FOUR -0.1047
-0.9542 SEVENTY NINE -0.1249
-1.2553 SEVENTY ONE -0.1461
-1.2553 SEVENTY SEVEN 0.0000
-1.2553 SEVENTY TWO -0.1761
-1.2553 SEVENTY YEARS 0.0000
-0.3010 SICK </s> -0.3010
-1.3424 SIX PIECE 0.0000
-0.3424 SIX YEARS 0.0000
-0.3010 SIXTEEN YEARS 0.0000
-1.2553 SIXTY EIGHT -0.1249
-1.2553 SIXTY FIVE -0.0792
-1.2553 SIXTY FOUR -0.1047
-1.2553 SIXTY NINE -0.1249
-1.2553 SIXTY SEVEN 0.0000
-1.2553 SIXTY SIX -0.0378
-1.2553 SIXTY THREE -0.2041
-1.2553 SIXTY TWO -0.1761
-1.2553 SIXTY YEARS 0.0000
-0.3010 SOMETHING </s> -0.3010
-0.3010 SPAIN </s> -0.3010
-0.3010 SUD KOREA 0.0000
-0.3010 SWEDEN </s> -0.3010
-0.3010 SWITZERLAND </s> -0.3010
-0.3010 TEN PIECE 0.0000
-0.3010 THANK YOU -0.2389
-0.3010 THE CONVERSATION 0.0000
-0.3010 THIRD PIECE 0.0000
-0.3010 THIRTEEN YEARS 0.0000
-1.0000 THIRTY EIGHT -0.1249
-1.0000 THIRTY SEVEN 0.0000
-0.6990 THIRTY SIX -0.0378
-1.0000 THIRTY TWO -0.1761
-0.5229 THREE PIECE 0.0000
-0.6990 THREE YEARS 0.0000
-0.3010 TIME </s> -0.3010
-0.4771 TO BE 0.0000
-0.7782 TO SEE 0.0000
-0.3010 TOBIAS </s> -0.3010
-0.3010 TOGO </s> -0.3010
-0.3010 TURKEY </s> -0.3010
-0.3010 TWELVE YEARS 0.0000
-1.0000 TWENTY NINE -0.1249
-1.0000 TWENTY ONE -0.1461
-0.6990 TWENTY SIX -0.0378
-1.0000 TWENTY YEARS 0.0000
-0.6021 TWO PIECE 0.0000
-0.6021 TWO YEARS 0.0000
-0.3010 UKRAINE </s> -0.3010
-0.3010 UNDERSTAND </s> -0.3010
-1.2553 WANT CAKE 0.0000
-0.9542 WANT EIGHT -0.2218
-1.2553 WANT FIVE -0.2553
-1.2553 WANT NINE -0.2218
-1.2553 WANT TEN 0.0000
-1.2553 WANT THIRD 0.0000
-1.2553 WANT THREE -0.1461
-1.2553 WANT TWO -0.1761
-0.4771 WAS A -0.1761
-0.7782 WAS OUR 0.0000
-0.3010 WELLCOME </s> -0.3010
-0.9031 WHAT CAN -0.1139
-0.9031 WHAT DO -0.1761
-0.6021 WHAT IS -0.2891
-0.3010 WHERE DO -0.1761
-0.3010 WHY NOT -0.1761
-0.3010 WISH DRINK 0.0000
-0.3010 WITH YOU -0.2389
-0.3468 WOULD LIKE 0.0000
-1.3010 WOULD YOU -0.2499
-0.3010 YEARS OLD -0.0202
-0.3010 YES </s> -0.3010
-0.8751 YOU </s> -0.3010
-1.4771 YOU ARE -0.2374
-1.9542 YOU COME 0.0000
-1.6532 YOU CUT 0.0000
-1.6532 YOU ENJOY 0.0000
-1.4771 YOU FEELING -0.2218
-1.3522 YOU FIND 0.0000
-1.3522 YOU GIVE 0.0000
-1.6532 YOU LATER 0.0000
-1.9542 YOU MAKE 0.0000
-1.1761 YOU OFFER 0.0000
-1.9542 YOU OK 0.0000
-1.6532 YOU REPEAT 0.0000
-1.6532 YOU SAY 0.0000
-0.6021 YOUR AGE 0.0000
-0.6021 YOUR NAME -0.2946

\3-grams:
-0.3010 <s> ABSOLUTELY </s>
-0.3010 <s> ARE YOU
-0.3010 <s> CALL ME
-0.3010 <s> CAN YOU
-0.3010 <s> COULD YOU
-0.3010 <s> DID YOU
-0.3010 <s> DONT MENTION
-0.3010 <s> EVERYTHING IS
-0.6690 <s> GOOD AFTERNOON
-0.8451 <s> GOOD BYE
-0.9700 <s> GOOD MORNING
-1.4472 <s> GOOD NIGHT
-0.3010 <s> HELLO </s>
-0.9031 <s> HOW ARE
-0.9031 <s> HOW DID
-1.3802 <s> HOW DO
-0.7782 <s> HOW OLD
-1.3802 <s> HOW WAS
-0.5371 <s> I AM
-2.1604 <s> I CAN
-2.1604 <s> I CANNOT
-2.3365 <s> I CANT
-1.3153 <s> I COME
-2.1604 <s> I COULD
-2.3365 <s> I COULDNT
-1.7924 <s> I DID
-2.3365 <s> I DIDNT
-2.1604 <s> I DO
-2.0354 <s> I DONT
-1.5235 <s> I NEED
-1.6832 <s> I WANT
-2.6375 <s> I WISH
-1.3822 <s> I WOULD
-0.7782 <s> IT IS
-0.4771 <s> IT WAS
-0.3010 <s> MAY YOU
-0.3010 <s> MY NAME
-0.3010 <s> NICE TO
-0.3010 <s> NO </s>
-0.3010 <s> NOT AT
-0.3010 <s> OF COURSE
-0.3010 <s> PEOLE CALL
-0.3010 <s> PEOPLE CALL
-0.3010 <s> SEE YOU
-0.3010 <s> THANK YOU
-0.9031 <s> WHAT CAN
-0.9031 <s> WHAT DO
-0.6021 <s> WHAT IS
-0.3010 <s> WHERE DO
-0.3010 <s> WHY NOT
-0.3010 <s> WOULD YOU
-0.3010 <s> YES </s>
-0.3010 <s> YOU ARE
-0.3010 A PIECE OF
-0.3010 A PLEASURE TO
-0.3010 AM BAD </s>
-0.3010 AM EIGHTEEN YEARS
-1.0792 AM EIGTHY EIGHT
-1.0792 AM EIGTHY FOUR
-1.0792 AM EIGTHY NINE
-0.6021 AM EIGTHY YEARS
-0.3010 AM ELEVEN YEARS
-0.4260 AM FEELING BAD
-0.9031 AM FEELING GOOD
-0.3010 AM FIFTEEN YEARS
-1.1461 AM FIFTY EIGHT
-1.1461 AM FIFTY NINE
-1.1461 AM FIFTY ONE
-1.1461 AM FIFTY SEVEN
-0.8451 AM FIFTY SIX
-1.1461 AM FIFTY THREE
-0.3010 AM FIVE YEARS
-1.4472 AM FORTY EIGHT
-0.8451 AM FORTY FIVE
-1.4472 AM FORTY FOUR
-1.1461 AM FORTY NINE
-1.1461 AM FORTY SEVEN
-1.4472 AM FORTY SIX
-0.9700 AM FORTY YEARS
-0.3010 AM FOUR YEARS
-1.7324 AM FROM AMERICA
-1.1303 AM FROM AUSTRALIA
-1.7324 AM FROM BELGIUM
-1.7324 AM FROM CAMEROON
-1.4314 AM FROM CHINA
-1.7324 AM FROM ENGLAND
-1.7324 AM FROM INDIAN
-1.7324 AM FROM ITALY
-1.7324 AM FROM KENYA
-1.4314 AM FROM MOROCCO
-1.4314 AM FROM NETHERLANDS
-1.2553 AM FROM POLAND
-1.4314 AM FROM SENEGAL
-1.7324 AM FROM SPAIN
-1.7324 AM FROM SWEDEN
-1.7324 AM FROM SWITZERLAND
-1.7324 AM FROM TURKEY
-1.7324 AM FROM UKRAINE
-0.3010 AM GOOD </s>
-0.3010 AM HEALTHY </s>
-0.3010 AM NINE YEARS
-1.2553 AM NINETY EIGHT
-1.2553 AM NINETY FOUR
-0.7782 AM NINETY SEVEN
-1.2553 AM NINETY SIX
-1.2553 AM NINETY TWO
-0.9542 AM NINETY YEARS
-0.9031 AM NOT </s>
-0.6021 AM NOT FEELING
-0.9031 AM NOT GOOD
-0.3010 AM OK </s>
-0.3010 AM SEVEN YEARS
-1.2553 AM SEVENTY FIVE
-0.9542 AM SEVENTY FOUR
-0.9542 AM SEVENTY NINE
-1.2553 AM SEVENTY ONE
-1.2553 AM SEVENTY SEVEN
-1.2553 AM SEVENTY TWO
-1.2553 AM SEVENTY YEARS
-0.3010 AM SICK </s>
-0.3010 AM SIX YEARS
-0.3010 AM SIXTEEN YEARS
-1.2553 AM SIXTY EIGHT
-1.2553 AM SIXTY FIVE
-1.2553 AM SIXTY FOUR
-1.2553 AM SIXTY NINE
-1.2553 AM SIXTY SEVEN
-1.2553 AM SIXTY SIX
-1.2553 AM SIXTY THREE
-1.2553 AM SIXTY TWO
-1.2553 AM SIXTY YEARS
-0.3010 AM THIRTEEN YEARS
-1.0000 AM THIRTY EIGHT
-1.0000 AM THIRTY SEVEN
-0.6990 AM THIRTY SIX
-1.0000 AM THIRTY TWO
-0.3010 AM TWELVE YEARS
-1.0000 AM TWENTY NINE
-1.0000 AM TWENTY ONE
-0.6990 AM TWENTY SIX
-1.0000 AM TWENTY YEARS
-0.3010 AM TWO YEARS
-0.3010 ARE WELLCOME </s>
-0.6021 ARE YOU </s>
-0.7270 ARE YOU FEELING
-1.2041 ARE YOU OK
-0.3010 AT ALL </s>
-0.3010 BE WITH YOU
-1.6931 CALL ME ADRIAN
-2.1703 CALL ME ALEXANDER
-2.1703 CALL ME ALEXIS
-1.4713 CALL ME ALINA
-2.1703 CALL ME ANDREI
-1.5682 CALL ME ARTHUR
-1.5682 CALL ME ASIL
-1.8692 CALL ME CHRIS
-2.1703 CALL ME DANIEL
-1.5682 CALL ME DOMINIC
-1.5682 CALL ME ELIAS
-1.8692 CALL ME FERENC
-1.4713 CALL ME FEROZ
-1.3921 CALL ME FRANKLIN
-1.3921 CALL ME GAYANE
-1.8692 CALL ME GEORG
-1.8692 CALL ME HAGEN
-2.1703 CALL ME HENDRIK
-1.8692 CALL ME KEVIN
-2.1703 CALL ME LENA
-2.1703 CALL ME LISSET
-1.8692 CALL ME LUKAS
-1.5682 CALL ME MICHAEL
-1.5682 CALL ME MIHAI
-1.8692 CALL ME OTTHEIN
-2.1703 CALL ME RAFAEL
-1.8692 CALL ME SEBASTIAN
-2.1703 CALL ME TOBIAS
-0.3010 CAN NOT </s>
-0.8451 CAN YOU GIVE
-1.1461 CAN YOU MAKE
-0.8451 CAN YOU REPEAT
-0.8451 CAN YOU SAY
-1.6435 COME FROM </s>
-1.6435 COME FROM AFRICA
-1.6435 COME FROM AMERICA
-1.3424 COME FROM ASIA
-1.6435 COME FROM AUSTRALIA
-1.6435 COME FROM BELGIUM
-1.6435 COME FROM CAMEROON
-1.6435 COME FROM ENGLAND
-1.6435 COME FROM GREECE
-1.6435 COME FROM INDIAN
-1.3424 COME FROM ITALY
-1.6435 COME FROM MALIA
-1.6435 COME FROM MOROCCO
-1.6435 COME FROM ROMANIA
-1.3424 COME FROM RUSSIA
-1.6435 COME FROM SUD
-1.6435 COME FROM SWITZERLAND
-1.6435 COME FROM TOGO
-1.6435 COME FROM UKRAINE
-0.3010 COULD NOT </s>
-0.9031 COULD YOU CUT
-0.9031 COULD YOU GIVE
-0.6021 COULD YOU OFFER
-0.3010 CUT CAKE </s>
-0.6990 DID NOT </s>
-0.5229 DID NOT GET
-0.6990 DID YOU ENJOY
-0.5229 DID YOU FIND
-0.3010 DIDNT UNDERSTAND </s>
-0.3010 DO NOT </s>
-0.7782 DO YOU COME
-0.7782 DO YOU FIND
-0.7782 DO YOU OFFER
-0.3010 DONT GET YOU
-0.3010 DONT MENTION </s>
-0.3010 EIGHT PIECE OF
-0.3010 EIGHT YEARS OLD
-0.3010 EIGHTEEN YEARS OLD
-0.3010 EIGTHY EIGHT YEARS
-0.3010 EIGTHY FOUR YEARS
-0.3010 EIGTHY NINE YEARS
-0.3010 EIGTHY YEARS OLD
-0.3010 ELEVEN YEARS OLD
-0.3010 ENJOY THE CONVERSATION
-0.3010 EVERYTHING IS GOOD
-0.3010 FEELING BAD </s>
-0.3010 FEELING GOOD </s>
-0.3010 FIFTEEN YEARS OLD
-0.3010 FIFTY EIGHT YEARS
-0.3010 FIFTY NINE YEARS
-0.3010 FIFTY ONE YEARS
-0.3010 FIFTY SEVEN YEARS
-0.3010 FIFTY SIX YEARS
-0.3010 FIFTY THREE YEARS
-0.3010 FIND OUR CONVERSATION
-0.3010 FIND THE CONVERSATION
-0.3010 FIVE PIECE OF
-0.3010 FIVE YEARS OLD
-0.3010 FORTY EIGHT YEARS
-0.3010 FORTY FIVE YEARS
-0.3010 FORTY FOUR YEARS
-0.3010 FORTY NINE YEARS
-0.3010 FORTY SEVEN YEARS
-0.3010 FORTY SIX YEARS
-0.3010 FORTY YEARS OLD
-0.3010 FOUR PIECE OF
-0.3010 FOUR YEARS OLD
-0.3010 FROM AFRICA </s>
-0.3010 FROM AMERICA </s>
-0.3010 FROM ASIA </s>
-0.3010 FROM AUSTRALIA </s>
-0.3010 FROM BELGIUM </s>
-0.3010 FROM CAMEROON </s>
-0.3010 FROM CHINA </s>
-0.3010 FROM ENGLAND </s>
-0.3010 FROM GREECE </s>
-0.3010 FROM INDIAN </s>
-0.3010 FROM ITALY </s>
-0.3010 FROM KENYA </s>
-0.3010 FROM MALIA </s>
-0.3010 FROM MOROCCO </s>
-0.3010 FROM NETHERLANDS </s>
-0.3010 FROM POLAND </s>
-0.3010 FROM ROMANIA </s>
-0.3010 FROM RUSSIA </s>
-0.3010 FROM SENEGAL </s>
-0.3010 FROM SPAIN </s>
-0.3010 FROM SUD KOREA
-0.3010 FROM SWEDEN </s>
-0.3010 FROM SWITZERLAND </s>
-0.3010 FROM TOGO </s>
-0.3010 FROM TURKEY </s>
-0.3010 FROM UKRAINE </s>
-0.3010 GET YOU </s>
-0.3010 GIVE CAKE </s>
-0.3010 GOOD AFTERNOON </s>
-0.3010 GOOD BYE </s>
-0.3010 GOOD MORNING </s>
-0.3010 GOOD NIGHT </s>
-0.3010 HOW ARE YOU
-0.3010 HOW DID YOU
-0.3010 HOW DO YOU
-0.3010 HOW OLD ARE
-0.3010 HOW WAS OUR
-2.4014 I AM </s>
-2.4014 I AM BAD
-2.4014 I AM EIGHTEEN
-1.6232 I AM EIGTHY
-2.4014 I AM ELEVEN
-1.7993 I AM FEELING
-2.4014 I AM FIFTEEN
-1.5563 I AM FIFTY
-2.1004 I AM FIVE
-1.2553 I AM FORTY
-2.1004 I AM FOUR
-0.9700 I AM FROM
-1.9243 I AM GOOD
-2.4014 I AM HEALTHY
-2.1004 I AM NINE
-1.4472 I AM NINETY
-1.7993 I AM NOT
-1.7993 I AM OK
-2.1004 I AM SEVEN
-1.4472 I AM SEVENTY
-2.4014 I AM SICK
-2.4014 I AM SIX
-2.4014 I AM SIXTEEN
-1.4472 I AM SIXTY
-2.4014 I AM THIRTEEN
-1.7024 I AM THIRTY
-2.4014 I AM TWELVE
-1.7024 I AM TWENTY
-2.4014 I AM TWO
-0.4771 I CAN </s>
-0.7782 I CAN NOT
-0.3010 I CANNOT </s>
-0.3010 I CANT </s>
-0.3010 I COME FROM
-0.7782 I COULD </s>
-0.4771 I COULD NOT
-0.3010 I COULDNT </s>
-0.8451 I DID </s>
-0.4472 I DID NOT
-0.6021 I DIDNT </s>
-0.6021 I DIDNT UNDERSTAND
-0.3010 I DO NOT
-0.4260 I DONT </s>
-0.9031 I DONT GET
-1.4150 I NEED A
-0.9379 I NEED BEER
-0.9379 I NEED DRINK
-1.1139 I NEED FOUR
-1.4150 I NEED NINE
-1.1139 I NEED SOMETHING
-1.4150 I NEED THIRD
-1.2553 I WANT CAKE
-0.9542 I WANT EIGHT
-1.2553 I WANT FIVE
-1.2553 I WANT NINE
-1.2553 I WANT TEN
-1.2553 I WANT THIRD
-1.2553 I WANT THREE
-1.2553 I WANT TWO
-0.3010 I WISH DRINK
-0.3010 I WOULD LIKE
-0.3010 IS ALEXANDER </s>
-0.3010 IS ALINA </s>
-0.3010 IS ANDREI </s>
-0.3010 IS ARTHUR </s>
-0.3010 IS ASIL </s>
-0.3010 IS CHRIS </s>
-0.3010 IS CONSTANTIN </s>
-0.3010 IS DOMINIC </s>
-0.3010 IS ELIAS </s>
-0.3010 IS FERESHTA </s>
-0.3010 IS FEROZ </s>
-0.3010 IS FRANKLIN </s>
-0.3010 IS GAYANE </s>
-0.3010 IS GEORG </s>
-0.3010 IS GOOD </s>
-0.3010 IS HENDRIK </s>
-0.3010 IS KEVIN </s>
-0.3010 IS MICHAEL </s>
-0.3010 IS MIHAI </s>
-0.3010 IS NOT CLEAR
-0.3010 IS PASCALE </s>
-0.3010 IS PATRICK </s>
-0.3010 IS SASCHA </s>
-0.3010 IS SEBASTIAN </s>
-0.6021 IS YOUR AGE
-0.6021 IS YOUR NAME
-0.3010 IT IS NOT
-0.3010 IT WAS A
-0.3010 LIKE A PIECE
-0.3010 LIKE CAKE </s>
-0.3010 LIKE EIGHT PIECE
-0.3010 LIKE FIVE PIECE
-0.3010 LIKE FOUR PIECE
-0.3010 LIKE NINE PIECE
-0.3010 LIKE SIX PIECE
-0.3010 LIKE TEN PIECE
-0.3010 LIKE THREE PIECE
-0.3010 LIKE TWO PIECE
-0.7782 MAY YOU CUT
-0.4771 MAY YOU OFFER
-0.3010 ME ADRIAN </s>
-0.3010 ME ALEXANDER </s>
-0.3010 ME ALEXIS </s>
-0.3010 ME ALINA </s>
-0.3010 ME ANDREI </s>
-0.3010 ME ARTHUR </s>
-0.3010 ME ASIL </s>
-0.3010 ME CHRIS </s>
-0.3010 ME DANIEL </s>
-0.3010 ME DOMINIC </s>
-0.3010 ME ELIAS </s>
-0.3010 ME FERENC </s>
-0.3010 ME FEROZ </s>
-0.3010 ME FRANKLIN </s>
-0.3010 ME GAYANE </s>
-0.3010 ME GEORG </s>
-0.3010 ME HAGEN </s>
-0.3010 ME HENDRIK </s>
-0.3010 ME KEVIN </s>
-0.3010 ME LENA </s>
-0.3010 ME LISSET </s>
-0.3010 ME LUKAS </s>
-0.3010 ME MICHAEL </s>
-0.3010 ME MIHAI </s>
-0.3010 ME OTTHEIN </s>
-0.3010 ME RAFAEL </s>
-0.3010 ME SEBASTIAN </s>
-0.3010 ME TOBIAS </s>
-0.3010 MORE TIME </s>
-0.3010 MY NAME IS
-1.8195 NAME IS </s>
-1.8195 NAME IS ALEXANDER
-1.5185 NAME IS ALINA
-1.5185 NAME IS ANDREI
-1.5185 NAME IS ARTHUR
-1.8195 NAME IS ASIL
-1.8195 NAME IS CHRIS
-1.8195 NAME IS CONSTANTIN
-1.8195 NAME IS DOMINIC
-1.8195 NAME IS ELIAS
-1.5185 NAME IS FERESHTA
-1.5185 NAME IS FEROZ
-1.8195 NAME IS FRANKLIN
-1.8195 NAME IS GAYANE
-1.8195 NAME IS GEORG
-1.5185 NAME IS HENDRIK
-1.8195 NAME IS KEVIN
-1.3424 NAME IS MICHAEL
-1.8195 NAME IS MIHAI
-1.8195 NAME IS PASCALE
-1.5185 NAME IS PATRICK
-1.5185 NAME IS SASCHA
-1.8195 NAME IS SEBASTIAN
-0.3010 NEED A PIECE
-0.3010 NEED BEER </s>
-0.3010 NEED DRINK </s>
-0.3010 NEED FOUR PIECE
-0.3010 NEED NINE PIECE
-0.3010 NEED SOMETHING </s>
-0.3010 NEED THIRD PIECE
-0.3010 NICE TO SEE
-0.3010 NINE PIECE OF
-0.3010 NINE YEARS OLD
-0.3010 NINETY EIGHT YEARS
-0.3010 NINETY FOUR YEARS
-0.3010 NINETY SEVEN YEARS
-0.3010 NINETY SIX YEARS
-0.3010 NINETY TWO YEARS
-0.3010 NINETY YEARS OLD
-0.3010 NOT AT ALL
-0.3010 NOT CLEAR </s>
-0.3010 NOT FEELING GOOD
-0.3010 NOT GET YOU
-0.3010 NOT GOOD </s>
-0.3010 OF CAKE </s>
-0.3010 OF COURSE </s>
-0.3010 OFFER CAKE </s>
-0.3010 OLD ARE YOU
-0.3010 ONE MORE TIME
-0.3010 ONE YEARS OLD
-0.3010 OUR CONVERSATION </s>
-0.3010 PEOLE CALL ME
-0.3010 PEOPLE CALL ME
-0.3010 PIECE OF CAKE
-0.3010 PLEASURE TO BE
-0.3010 SAY ONE MORE
-0.7782 SEE YOU </s>
-0.4771 SEE YOU LATER
-0.3010 SEVEN YEARS OLD
-0.3010 SEVENTY FIVE YEARS
-0.3010 SEVENTY FOUR YEARS
-0.3010 SEVENTY NINE YEARS
-0.3010 SEVENTY ONE YEARS
-0.3010 SEVENTY SEVEN YEARS
-0.3010 SEVENTY TWO YEARS
-0.3010 SEVENTY YEARS OLD
-0.3010 SIX PIECE OF
-0.3010 SIX YEARS OLD
-0.3010 SIXTEEN YEARS OLD
-0.3010 SIXTY EIGHT YEARS
-0.3010 SIXTY FIVE YEARS
-0.3010 SIXTY FOUR YEARS
-0.3010 SIXTY NINE YEARS
-0.3010 SIXTY SEVEN YEARS
-0.3010 SIXTY SIX YEARS
-0.3010 SIXTY THREE YEARS
-0.3010 SIXTY TWO YEARS
-0.3010 SIXTY YEARS OLD
-0.3010 SUD KOREA </s>
-0.3010 TEN PIECE OF
-0.3010 THANK YOU </s>
-0.3010 THE CONVERSATION </s>
-0.3010 THIRD PIECE OF
-0.3010 THIRTEEN YEARS OLD
-0.3010 THIRTY EIGHT YEARS
-0.3010 THIRTY SEVEN YEARS
-0.3010 THIRTY SIX YEARS
-0.3010 THIRTY TWO YEARS
-0.3010 THREE PIECE OF
-0.3010 THREE YEARS OLD
-0.3010 TO BE WITH
-0.3010 TO SEE YOU
-0.3010 TWELVE YEARS OLD
-0.3010 TWENTY NINE YEARS
-0.3010 TWENTY ONE YEARS
-0.3010 TWENTY SIX YEARS
-0.3010 TWENTY YEARS OLD
-0.3010 TWO PIECE OF
-0.3010 TWO YEARS OLD
-0.3010 WANT CAKE </s>
-0.3010 WANT EIGHT PIECE
-0.3010 WANT FIVE PIECE
-0.3010 WANT NINE PIECE
-0.3010 WANT TEN PIECE
-0.3010 WANT THIRD PIECE
-0.3010 WANT THREE PIECE
-0.3010 WANT TWO PIECE
-0.3010 WAS A PLEASURE
-0.3010 WAS OUR CONVERSATION
-0.3010 WHAT CAN YOU
-0.3010 WHAT DO YOU
-0.3010 WHAT IS YOUR
-0.3010 WHERE DO YOU
-0.3010 WHY NOT </s>
-0.3010 WISH DRINK </s>
-0.3010 WITH YOU </s>
-1.5563 WOULD LIKE A
-1.0792 WOULD LIKE CAKE
-1.5563 WOULD LIKE EIGHT
-1.5563 WOULD LIKE FIVE
-1.5563 WOULD LIKE FOUR
-1.0792 WOULD LIKE NINE
-1.5563 WOULD LIKE SIX
-1.5563 WOULD LIKE TEN
-1.2553 WOULD LIKE THREE
-0.9542 WOULD LIKE TWO
-0.6021 WOULD YOU GIVE
-0.6021 WOULD YOU OFFER
-0.3010 YEARS OLD </s>
-0.3010 YOU ARE WELLCOME
-0.3010 YOU COME FROM
-0.3010 YOU CUT CAKE
-0.3010 YOU ENJOY THE
-0.3010 YOU FEELING </s>
-0.4260 YOU FIND OUR
-0.9031 YOU FIND THE
-0.3010 YOU GIVE CAKE
-0.3010 YOU LATER </s>
-0.3010 YOU MAKE </s>
-1.0792 YOU OFFER </s>
-0.3802 YOU OFFER CAKE
-0.3010 YOU OK </s>
-0.3010 YOU REPEAT </s>
-0.3010 YOU SAY ONE
-0.3010 YOUR AGE </s>
-0.3010 YOUR NAME </s>

\end\

