Language model created by QuickLM on Sun May 28 10:41:59 EDT 2017
Copyright (c) 1996-2010 Carnegie Mellon University and Alexander I. Rudnicky

The model is in standard ARPA format, designed by Doug Paul while he was at MITRE.

The code that was used to produce this language model is available in Open Source.
Please visit http://www.speech.cs.cmu.edu/tools/ for more information

The (fixed) discount mass is 0.5. The backoffs are computed using the ratio method.
This model based on a corpus of 399 sentences and 174 words

\data\
ngram 1=174
ngram 2=435
ngram 3=548

\1-grams:
-1.0903 </s> -0.3010
-1.0903 <s> -0.2491
-2.9923 A -0.2976
-3.6913 ABSOLUTELY -0.2642
-3.0892 ADRIAN -0.2642
-3.0892 AFRICA -0.2642
-3.2141 AFTERNOON -0.2642
-3.3902 ALEXANDER -0.2642
-3.3902 ALEXIS -0.2642
-2.9923 ALINA -0.2642
-3.6913 ALL -0.2642
-1.6420 AM -0.2439
-3.2141 AMERICA -0.2642
-3.3902 ANDREA -0.2642
-2.8462 ANDREI -0.2642
-3.0892 ARE -0.2980
-3.2141 ARTHUR -0.2642
-3.0892 ASIL -0.2642
-3.6913 AT -0.3009
-3.3902 AUSTRALIA -0.2642
-2.9923 BAD -0.2642
-3.6913 BEER -0.2642
-3.6913 BYE -0.2642
-2.0011 CAKE -0.2642
-1.8104 CALL -0.2943
-2.6913 CAN -0.2597
-3.6913 CHINA -0.2642
-3.2141 CHRIS -0.2642
-3.6913 CLEAR -0.2642
-2.2599 COME -0.2969
-3.6913 CONSTANTIN -0.2642
-2.7882 CONVERSATION -0.2642
-3.2141 COULD -0.2969
-3.6913 COULDNT -0.2642
-3.6913 COURSE -0.2642
-2.9923 CUT -0.2967
-3.2141 DANIEL -0.2642
-2.6913 DID -0.2597
-2.9131 DIDNT -0.2634
-2.7882 DO -0.2597
-3.3902 DOES -0.3004
-2.9131 DOMINIC -0.2642
-2.7370 DONT -0.2634
-3.3902 DRINK -0.2642
-3.6913 EGYPT -0.2642
-2.7882 EIGHT -0.2912
-3.0892 EIGTHY -0.2979
-3.3902 ELIAS -0.2642
-3.3902 ENGLAND -0.2642
-3.6913 ENJOY -0.3007
-3.6913 EUROPE -0.2642
-3.6913 EVENING -0.2642
-3.6913 EVERYTHING -0.2957
-2.8462 FEELING -0.2623
-2.9131 FERENC -0.2642
-3.3902 FERESHTA -0.2642
-3.2141 FEROZ -0.2642
-3.6913 FIFTEEN -0.2946
-2.8462 FIFTY -0.2900
-2.9923 FIND -0.2998
-2.9131 FIVE -0.2912
-3.6913 FOOD -0.2642
-2.8462 FORTY -0.2968
-2.7882 FOUR -0.2912
-2.9131 FRANKLIN -0.2642
-2.0285 FROM -0.2597
-3.2141 GAYANE -0.2642
-3.3902 GEORG -0.2642
-3.0892 GET -0.2982
-3.6913 GHANA -0.2642
-3.3902 GIVE -0.2967
-2.5152 GOOD -0.2637
-3.3902 GREECE -0.2642
-3.2141 HAGEN -0.2642
-3.3902 HELLO -0.2642
-2.9923 HENDRIK -0.2642
-2.7370 HOW -0.2871
-3.6913 HUNDRED -0.2946
-1.3649 I -0.2798
-3.6913 ILL -0.2642
-3.3902 INDIAN -0.2642
-1.9131 IS -0.2887
-2.8462 IT -0.2954
-3.6913 JAPAN -0.2642
-3.2141 JASMINE -0.2642
-3.3902 KENYA -0.2642
-2.6913 KEVIN -0.2642
-3.6913 KIND -0.2642
-3.3902 KOREA -0.2642
-2.8462 LENA -0.2642
-2.9131 LIKE -0.2973
-3.6913 LISSET -0.2642
-2.8462 LUKAS -0.2642
-3.3902 MALIA -0.2642
-2.8462 MAREIKE -0.2642
-3.3902 MAY -0.2982
-1.8104 ME -0.2530
-3.6913 MEET -0.2982
-3.2141 MICHAEL -0.2642
-3.6913 MIHAI -0.2642
-3.3902 MORE -0.3007
-3.6913 MORNING -0.2642
-3.3902 MUCH -0.3007
-1.9753 MY -0.2963
-1.9670 NAME -0.2584
-2.3488 NEED -0.2936
-3.6913 NICE -0.3009
-2.9923 NINE -0.2912
-3.6913 NINETEEN -0.2946
-2.6913 NINETY -0.2877
-2.9923 NO -0.2642
-3.3902 NORWAY -0.2642
-2.5152 NOT -0.2612
-2.1002 OF -0.2966
-3.0892 OFFER -0.2967
-3.2141 OK -0.2642
-1.8279 OLD -0.2639
-2.5152 ONE -0.2944
-3.6913 OTTHEIN -0.2642
-3.3902 OUR -0.3003
-3.6913 PASCALE -0.2642
-3.2141 PATRICK -0.2642
-2.2441 PEOPLE -0.2943
-2.1115 PIECE -0.2976
-3.6913 PLEASURE -0.3009
-3.2141 POLAND -0.2642
-3.3902 POSSIBLE -0.2642
-3.3902 RAFAEL -0.2642
-3.2141 REPEAT -0.2642
-3.3902 ROMANIA -0.2642
-3.3902 RUSSIA -0.2642
-3.3902 SASCHA -0.2642
-3.6913 SAY -0.2997
-2.9923 SEBASTIAN -0.2642
-3.6913 SEE -0.2982
-2.5773 SEVEN -0.2912
-2.9131 SEVENTY -0.2921
-3.3902 SICK -0.2642
-2.5773 SIX -0.2912
-2.9923 SIXTY -0.2978
-3.3902 SOUTH -0.3007
-3.3902 SUD -0.3009
-3.3902 SWEDEN -0.2642
-3.6913 SWITZERLAND -0.2642
-3.3902 TAKE -0.3009
-2.9923 TEN -0.2977
-3.0892 THE -0.3003
-3.3902 THIRD -0.2977
-2.6913 THIRTY -0.2899
-2.7370 THREE -0.2912
-3.0892 TIME -0.2642
-3.3902 TO -0.3009
-3.3902 TOGO -0.2642
-3.3902 TOO -0.3009
-3.6913 TURKEY -0.2642
-3.2141 TWELVE -0.2946
-2.8462 TWENTY -0.2902
-2.6121 TWO -0.2912
-3.0892 UKRAINE -0.2642
-3.6913 UNCLEAR -0.2642
-2.9923 UNDERSTAND -0.2642
-2.5451 WANT -0.2952
-3.6913 WAS -0.3006
-3.3902 WATER -0.2642
-3.6913 WELLCOME -0.2642
-3.6913 WHAT -0.2957
-3.6913 WHERE -0.3003
-3.2141 WHY -0.2995
-3.3902 WISH -0.3008
-2.6913 WOULD -0.2977
-1.8339 YEARS -0.2945
-3.3902 YES -0.2642
-2.1861 YOU -0.2585
-3.6913 YOUR -0.2963

\2-grams:
-2.9020 <s> ABSOLUTELY 0.0000
-1.2208 <s> CALL 0.0000
-2.0569 <s> CAN -0.1139
-2.6010 <s> COULD -0.1249
-2.9020 <s> DID -0.2304
-2.9020 <s> EVERYTHING 0.0000
-2.1239 <s> GOOD -0.2041
-2.6010 <s> HELLO 0.0000
-1.9478 <s> HOW 0.0000
-0.5757 <s> I 0.0000
-2.2030 <s> IT -0.1091
-2.6010 <s> MAY 0.0000
-1.1860 <s> MY 0.0000
-2.9020 <s> NICE 0.0000
-2.2030 <s> NO 0.0000
-2.9020 <s> NOT -0.2863
-2.9020 <s> OF -0.2954
-2.9020 <s> ONE -0.2711
-1.4548 <s> PEOPLE 0.0000
-2.9020 <s> WHAT 0.0000
-2.9020 <s> WHERE 0.0000
-2.4249 <s> WHY 0.0000
-2.9020 <s> WISH -0.1761
-2.2999 <s> WOULD -0.2041
-2.6010 <s> YES 0.0000
-2.6010 <s> YOU -0.2872
-0.3979 A PIECE 0.0000
-1.0000 A PLEASURE 0.0000
-0.3010 ABSOLUTELY </s> -0.3010
-0.3010 ADRIAN </s> -0.3010
-0.3010 AFRICA </s> -0.3010
-0.3010 AFTERNOON </s> -0.3010
-0.3010 ALEXANDER </s> -0.3010
-0.3010 ALEXIS </s> -0.3010
-0.3010 ALINA </s> -0.3010
-0.3010 ALL </s> -0.3010
-2.3502 AM </s> -0.3010
-1.8731 AM BAD 0.0000
-2.0492 AM EIGHT -0.1761
-1.7482 AM EIGTHY 0.0000
-1.6513 AM FEELING -0.0580
-2.3502 AM FIFTEEN 0.0000
-1.5051 AM FIFTY -0.0000
-2.0492 AM FIVE -0.0669
-1.5051 AM FORTY 0.0000
-2.3502 AM FOUR -0.1383
-1.0715 AM FROM -0.1434
-1.7482 AM GOOD -0.1461
-2.3502 AM HUNDRED 0.0000
-2.3502 AM ILL 0.0000
-2.3502 AM NINETEEN 0.0000
-1.3502 AM NINETY 0.0000
-1.7482 AM NOT -0.1027
-2.3502 AM OK 0.0000
-1.8731 AM ONE -0.0544
-1.5721 AM SEVENTY 0.0000
-2.0492 AM SICK 0.0000
-2.0492 AM SIX -0.1648
-1.6513 AM SIXTY 0.0000
-1.3502 AM THIRTY 0.0000
-1.8731 AM TWELVE 0.0000
-1.5051 AM TWENTY 0.0000
-0.3010 AMERICA </s> -0.3010
-0.3010 ANDREA </s> -0.3010
-0.3010 ANDREI </s> -0.3010
-0.9031 ARE KIND 0.0000
-0.9031 ARE WELLCOME 0.0000
-0.6021 ARE YOU -0.2430
-0.3010 ARTHUR </s> -0.3010
-0.3010 ASIL </s> -0.3010
-0.3010 AT ALL 0.0000
-0.3010 AUSTRALIA </s> -0.3010
-0.3010 BAD </s> -0.3010
-0.3010 BEER </s> -0.3010
-0.3010 BYE </s> -0.3010
-0.3010 CAKE </s> -0.3010
-0.3010 CALL ME -0.0000
-1.0000 CAN </s> -0.3010
-1.3010 CAN NOT -0.1663
-0.4559 CAN YOU -0.1850
-0.3010 CHINA </s> -0.3010
-0.3010 CHRIS </s> -0.3010
-0.3010 CLEAR </s> -0.3010
-0.3010 COME FROM -0.0854
-0.3010 CONSTANTIN </s> -0.3010
-0.3010 CONVERSATION </s> -0.3010
-0.7782 COULD NOT -0.1663
-0.4771 COULD YOU -0.2507
-0.3010 COULDNT </s> -0.3010
-0.3010 COURSE </s> -0.3010
-0.3010 CUT CAKE 0.0000
-0.3010 DANIEL </s> -0.3010
-0.6990 DID </s> -0.3010
-0.8239 DID NOT -0.1249
-0.8239 DID YOU -0.2583
-0.6021 DIDNT </s> -0.3010
-1.0792 DIDNT GET 0.0000
-0.7782 DIDNT UNDERSTAND 0.0000
-1.2041 DO </s> -0.3010
-0.7270 DO NOT -0.1663
-0.6021 DO YOU -0.2583
-0.3010 DOES IT -0.2341
-0.3010 DOMINIC </s> -0.3010
-0.5563 DONT </s> -0.3010
-1.2553 DONT GET 0.0000
-0.7782 DONT UNDERSTAND 0.0000
-0.3010 DRINK </s> -0.3010
-0.3010 EGYPT </s> -0.3010
-0.6021 EIGHT PIECE 0.0000
-0.6021 EIGHT YEARS 0.0000
-0.9031 EIGTHY FOUR -0.1383
-0.9031 EIGTHY NINE -0.0792
-0.9031 EIGTHY SEVEN -0.1165
-0.9031 EIGTHY THREE -0.0872
-0.3010 ELIAS </s> -0.3010
-0.3010 ENGLAND </s> -0.3010
-0.3010 ENJOY THE 0.0000
-0.3010 EUROPE </s> -0.3010
-0.3010 EVENING </s> -0.3010
-0.3010 EVERYTHING IS -0.2974
-1.1461 FEELING </s> -0.3010
-0.8451 FEELING BAD 0.0000
-0.5441 FEELING GOOD -0.1461
-0.3010 FERENC </s> -0.3010
-0.3010 FERESHTA </s> -0.3010
-0.3010 FEROZ </s> -0.3010
-0.3010 FIFTEEN YEARS 0.0000
-1.1461 FIFTY EIGHT -0.1761
-0.8451 FIFTY FIVE -0.0669
-1.1461 FIFTY ONE -0.0544
-1.1461 FIFTY SIX -0.1648
-1.1461 FIFTY THREE -0.0872
-1.1461 FIFTY YEARS 0.0000
-0.6990 FIND CONVERSATION 0.0000
-1.0000 FIND OUR 0.0000
-0.6990 FIND THE 0.0000
-1.0792 FIVE PIECE 0.0000
-0.3802 FIVE YEARS 0.0000
-0.3010 FOOD </s> -0.3010
-1.1461 FORTY FOUR -0.1383
-0.5441 FORTY ONE -0.0544
-1.1461 FORTY SEVEN -0.1165
-1.1461 FORTY TWO -0.1761
-0.7270 FOUR PIECE 0.0000
-0.5051 FOUR YEARS 0.0000
-0.3010 FRANKLIN </s> -0.3010
-1.9638 FROM </s> -0.3010
-1.6628 FROM AFRICA 0.0000
-1.4867 FROM AMERICA 0.0000
-1.6628 FROM AUSTRALIA 0.0000
-1.9638 FROM CHINA 0.0000
-1.9638 FROM EGYPT 0.0000
-1.6628 FROM ENGLAND 0.0000
-1.9638 FROM EUROPE 0.0000
-1.9638 FROM GHANA 0.0000
-1.6628 FROM GREECE 0.0000
-1.6628 FROM INDIAN 0.0000
-1.9638 FROM JAPAN 0.0000
-1.6628 FROM KENYA 0.0000
-1.6628 FROM MALIA 0.0000
-1.6628 FROM NORWAY 0.0000
-1.4867 FROM POLAND 0.0000
-1.6628 FROM ROMANIA 0.0000
-1.6628 FROM RUSSIA 0.0000
-1.6628 FROM SOUTH 0.0000
-1.6628 FROM SUD 0.0000
-1.6628 FROM SWEDEN 0.0000
-1.9638 FROM SWITZERLAND 0.0000
-1.6628 FROM TOGO 0.0000
-1.9638 FROM TURKEY 0.0000
-1.3617 FROM UKRAINE 0.0000
-0.3010 GAYANE </s> -0.3010
-0.3010 GEORG </s> -0.3010
-0.3010 GET YOU -0.2507
-0.3010 GHANA </s> -0.3010
-0.3010 GIVE CAKE 0.0000
-0.5229 GOOD </s> -0.3010
-1.0000 GOOD AFTERNOON 0.0000
-1.4771 GOOD BYE 0.0000
-1.4771 GOOD EVENING 0.0000
-1.4771 GOOD MORNING 0.0000
-0.3010 GREECE </s> -0.3010
-0.3010 HAGEN </s> -0.3010
-0.3010 HELLO </s> -0.3010
-0.3010 HENDRIK </s> -0.3010
-1.2553 HOW ARE -0.1761
-0.9542 HOW DID -0.2304
-0.7782 HOW DO -0.1761
-0.9542 HOW IS -0.2937
-1.2553 HOW OLD -0.2980
-0.3010 HUNDRED YEARS 0.0000
-0.5781 I AM 0.0000
-2.1502 I CAN -0.2304
-1.2124 I COME 0.0000
-2.6274 I COULD -0.2218
-2.6274 I COULDNT 0.0000
-1.7823 I DID -0.1139
-1.8492 I DIDNT 0.0000
-2.0253 I DO -0.1761
-1.6731 I DONT 0.0000
-1.2849 I NEED 0.0000
-1.4812 I WANT -0.0000
-2.6274 I WISH -0.1761
-1.8492 I WOULD -0.1461
-0.3010 ILL </s> -0.3010
-0.3010 INDIAN </s> -0.3010
-1.7782 IS ADRIAN 0.0000
-1.7782 IS ALEXIS 0.0000
-1.6021 IS ALINA 0.0000
-2.0792 IS ANDREA 0.0000
-2.0792 IS ANDREI 0.0000
-2.0792 IS ARTHUR 0.0000
-1.7782 IS ASIL 0.0000
-2.0792 IS CONSTANTIN 0.0000
-2.0792 IS DANIEL 0.0000
-1.7782 IS DOMINIC 0.0000
-2.0792 IS ELIAS 0.0000
-1.6021 IS FERENC 0.0000
-1.7782 IS FERESHTA 0.0000
-1.6021 IS FEROZ 0.0000
-1.7782 IS FRANKLIN 0.0000
-1.7782 IS GEORG 0.0000
-1.6021 IS HENDRIK 0.0000
-2.0792 IS JASMINE 0.0000
-1.7782 IS KEVIN 0.0000
-1.6021 IS LENA 0.0000
-1.7782 IS LUKAS 0.0000
-1.4771 IS MAREIKE 0.0000
-1.7782 IS MICHAEL 0.0000
-2.0792 IS NOT -0.2863
-2.0792 IS OK 0.0000
-2.0792 IS OUR 0.0000
-1.7782 IS POSSIBLE 0.0000
-2.0792 IS RAFAEL 0.0000
-1.7782 IS SASCHA 0.0000
-1.6021 IS SEBASTIAN 0.0000
-2.0792 IS THE 0.0000
-2.0792 IS UNCLEAR 0.0000
-2.0792 IS YOUR 0.0000
-0.5441 IT IS -0.2863
-0.8451 IT TAKE 0.0000
-1.1461 IT WAS 0.0000
-0.3010 JAPAN </s> -0.3010
-0.3010 JASMINE </s> -0.3010
-0.3010 KENYA </s> -0.3010
-0.3010 KEVIN </s> -0.3010
-0.3010 KIND </s> -0.3010
-0.3010 KOREA </s> -0.3010
-0.3010 LENA </s> -0.3010
-1.0792 LIKE FOUR -0.2109
-1.0792 LIKE SEVEN -0.2285
-1.0792 LIKE THREE -0.2499
-0.6021 LIKE TWO -0.1761
-0.3010 LISSET </s> -0.3010
-0.3010 LUKAS </s> -0.3010
-0.3010 MALIA </s> -0.3010
-0.3010 MAREIKE </s> -0.3010
-0.3010 MAY YOU -0.2657
-2.1818 ME </s> -0.3010
-1.8808 ME ADRIAN 0.0000
-1.8808 ME ALEXANDER 0.0000
-1.8808 ME ALINA 0.0000
-2.1818 ME ANDREA 0.0000
-1.4037 ME ANDREI 0.0000
-1.8808 ME ARTHUR 0.0000
-1.8808 ME ASIL 0.0000
-1.7047 ME CHRIS 0.0000
-1.8808 ME DANIEL 0.0000
-1.5798 ME DOMINIC 0.0000
-2.1818 ME ELIAS 0.0000
-1.7047 ME FERENC 0.0000
-1.5798 ME FRANKLIN 0.0000
-1.7047 ME GAYANE 0.0000
-1.7047 ME HAGEN 0.0000
-1.8808 ME HENDRIK 0.0000
-1.8808 ME JASMINE 0.0000
-1.2788 ME KEVIN 0.0000
-1.5798 ME LENA 0.0000
-2.1818 ME LISSET 0.0000
-1.4829 ME LUKAS 0.0000
-1.7047 ME MAREIKE 0.0000
-2.1818 ME MICHAEL 0.0000
-2.1818 ME MIHAI 0.0000
-2.1818 ME OTTHEIN 0.0000
-2.1818 ME PASCALE 0.0000
-1.7047 ME PATRICK 0.0000
-2.1818 ME RAFAEL 0.0000
-1.8808 ME SEBASTIAN 0.0000
-0.3010 MEET YOU -0.2507
-0.3010 MICHAEL </s> -0.3010
-0.3010 MIHAI </s> -0.3010
-0.3010 MORE TIME 0.0000
-0.3010 MORNING </s> -0.3010
-0.3010 MUCH TIME 0.0000
-0.3010 MY NAME -0.0081
-2.0253 NAME </s> -0.3010
-0.3093 NAME IS -0.0544
-1.6435 NEED A -0.0792
-1.6435 NEED BEER 0.0000
-1.6435 NEED DRINK 0.0000
-1.1663 NEED EIGHT -0.1761
-1.6435 NEED FIVE -0.2632
-1.6435 NEED NINE -0.2553
-1.3424 NEED SEVEN -0.2285
-1.0414 NEED SIX -0.1871
-1.1663 NEED TEN 0.0000
-1.6435 NEED THIRD 0.0000
-1.6435 NEED THREE -0.2499
-1.6435 NEED TWO -0.1761
-1.3424 NEED WATER 0.0000
-0.3010 NICE TO -0.1761
-1.0000 NINE PIECE 0.0000
-0.3979 NINE YEARS 0.0000
-0.3010 NINETEEN YEARS 0.0000
-1.3010 NINETY EIGHT -0.1761
-1.3010 NINETY FIVE -0.0669
-1.3010 NINETY FOUR -0.1383
-1.3010 NINETY NINE -0.0792
-1.3010 NINETY ONE -0.0544
-1.3010 NINETY SIX -0.1648
-1.3010 NINETY THREE -0.0872
-1.3010 NINETY TWO -0.1761
-1.0000 NINETY YEARS 0.0000
-0.3010 NO </s> -0.3010
-0.3010 NORWAY </s> -0.3010
-0.5740 NOT </s> -0.3010
-1.4771 NOT AT 0.0000
-1.4771 NOT CLEAR 0.0000
-1.4771 NOT FEELING -0.1549
-1.1761 NOT GET 0.0000
-1.4771 NOT GOOD -0.1461
-1.4771 NOT OK 0.0000
-0.3123 OF CAKE 0.0000
-1.8921 OF COURSE 0.0000
-0.3010 OFFER CAKE 0.0000
-0.3010 OK </s> -0.3010
-0.3070 OLD </s> -0.3010
-2.1644 OLD ARE -0.1761
-1.1761 ONE MORE 0.0000
-0.3632 ONE YEARS 0.0000
-0.3010 OTTHEIN </s> -0.3010
-0.3010 OUR CONVERSATION 0.0000
-0.3010 PASCALE </s> -0.3010
-0.3010 PATRICK </s> -0.3010
-0.3010 PEOPLE CALL 0.0000
-0.3010 PIECE OF -0.0110
-0.3010 PLEASURE TO -0.1761
-0.3010 POLAND </s> -0.3010
-0.3010 POSSIBLE </s> -0.3010
-0.3010 RAFAEL </s> -0.3010
-0.3010 REPEAT </s> -0.3010
-0.3010 ROMANIA </s> -0.3010
-0.3010 RUSSIA </s> -0.3010
-0.3010 SASCHA </s> -0.3010
-0.3010 SAY ONE -0.2711
-0.3010 SEBASTIAN </s> -0.3010
-0.3010 SEE YOU -0.2507
-0.8129 SEVEN PIECE 0.0000
-0.4607 SEVEN YEARS 0.0000
-1.0792 SEVENTY ONE -0.0544
-0.4771 SEVENTY SEVEN -0.1165
-1.0792 SEVENTY YEARS 0.0000
-0.3010 SICK </s> -0.3010
-0.6368 SIX PIECE 0.0000
-0.5699 SIX YEARS 0.0000
-0.6990 SIXTY ONE -0.0544
-1.0000 SIXTY THREE -0.0872
-0.6990 SIXTY TWO -0.1761
-0.3010 SOUTH AFRICA 0.0000
-0.3010 SUD KOREA 0.0000
-0.3010 SWEDEN </s> -0.3010
-0.3010 SWITZERLAND </s> -0.3010
-0.3010 TAKE TOO 0.0000
-0.3010 TEN PIECE 0.0000
-0.3010 THE CONVERSATION 0.0000
-0.3010 THIRD PIECE 0.0000
-1.3010 THIRTY NINE -0.0792
-0.8239 THIRTY SEVEN -0.1165
-0.8239 THIRTY SIX -0.1648
-1.3010 THIRTY THREE -0.0872
-1.3010 THIRTY TWO -0.1761
-1.3010 THIRTY YEARS 0.0000
-0.9542 THREE PIECE 0.0000
-0.4102 THREE YEARS 0.0000
-0.3010 TIME </s> -0.3010
-0.6021 TO MEET 0.0000
-0.6021 TO SEE 0.0000
-0.3010 TOGO </s> -0.3010
-0.3010 TOO MUCH 0.0000
-0.3010 TURKEY </s> -0.3010
-0.3010 TWELVE YEARS 0.0000
-1.1461 TWENTY FOUR -0.1383
-1.1461 TWENTY NINE -0.0792
-1.1461 TWENTY ONE -0.0544
-0.8451 TWENTY THREE -0.0872
-1.1461 TWENTY TWO -0.1761
-1.1461 TWENTY YEARS 0.0000
-0.6021 TWO PIECE 0.0000
-0.6021 TWO YEARS 0.0000
-0.3010 UKRAINE </s> -0.3010
-0.3010 UNCLEAR </s> -0.3010
-0.3010 UNDERSTAND </s> -0.3010
-0.9700 WANT A -0.0792
-1.4472 WANT EIGHT -0.1761
-1.1461 WANT FOUR -0.2109
-1.4472 WANT SEVEN -0.2285
-1.1461 WANT SIX -0.1871
-1.1461 WANT TEN 0.0000
-1.4472 WANT THIRD 0.0000
-1.1461 WANT TWO -0.1761
-0.3010 WAS A -0.2553
-0.3010 WATER </s> -0.3010
-0.3010 WELLCOME </s> -0.3010
-0.3010 WHAT IS -0.2974
-0.3010 WHERE DO -0.1761
-0.4771 WHY DOES 0.0000
-0.7782 WHY NOT -0.1663
-0.6021 WISH DRINK 0.0000
-0.6021 WISH FOOD 0.0000
-0.5229 WOULD LIKE 0.0000
-0.6990 WOULD YOU -0.2191
-0.3010 YEARS OLD -0.0059
-0.3010 YES </s> -0.3010
-0.9611 YOU </s> -0.3010
-1.5051 YOU ARE -0.1761
-1.8062 YOU COME 0.0000
-1.1072 YOU CUT 0.0000
-1.8062 YOU ENJOY 0.0000
-1.8062 YOU FEELING -0.2688
-1.1072 YOU FIND 0.0000
-1.5051 YOU GIVE 0.0000
-1.2041 YOU OFFER 0.0000
-1.3291 YOU REPEAT 0.0000
-1.8062 YOU SAY 0.0000
-0.3010 YOUR NAME -0.2969

\3-grams:
-0.3010 <s> ABSOLUTELY </s>
-0.3010 <s> CALL ME
-0.3010 <s> CAN YOU
-0.3010 <s> COULD YOU
-0.3010 <s> DID YOU
-0.3010 <s> EVERYTHING IS
-0.6021 <s> GOOD AFTERNOON
-1.0792 <s> GOOD BYE
-1.0792 <s> GOOD EVENING
-1.0792 <s> GOOD MORNING
-0.3010 <s> HELLO </s>
-1.2553 <s> HOW ARE
-0.9542 <s> HOW DID
-0.7782 <s> HOW DO
-0.9542 <s> HOW IS
-1.2553 <s> HOW OLD
-0.5781 <s> I AM
-2.1502 <s> I CAN
-1.2124 <s> I COME
-2.6274 <s> I COULD
-2.6274 <s> I COULDNT
-1.7823 <s> I DID
-1.8492 <s> I DIDNT
-2.0253 <s> I DO
-1.6731 <s> I DONT
-1.2849 <s> I NEED
-1.4812 <s> I WANT
-2.6274 <s> I WISH
-1.8492 <s> I WOULD
-0.3979 <s> IT IS
-1.0000 <s> IT WAS
-0.3010 <s> MAY YOU
-0.3010 <s> MY NAME
-0.3010 <s> NICE TO
-0.3010 <s> NO </s>
-0.3010 <s> NOT AT
-0.3010 <s> OF COURSE
-0.3010 <s> ONE MORE
-0.3010 <s> PEOPLE CALL
-0.3010 <s> WHAT IS
-0.3010 <s> WHERE DO
-0.4771 <s> WHY DOES
-0.7782 <s> WHY NOT
-0.3010 <s> WISH FOOD
-0.3010 <s> WOULD YOU
-0.3010 <s> YES </s>
-0.3010 <s> YOU ARE
-0.3010 A PIECE OF
-0.3010 A PLEASURE TO
-0.3010 AM BAD </s>
-0.3010 AM EIGHT YEARS
-0.9031 AM EIGTHY FOUR
-0.9031 AM EIGTHY NINE
-0.9031 AM EIGTHY SEVEN
-0.9031 AM EIGTHY THREE
-0.6990 AM FEELING BAD
-0.5229 AM FEELING GOOD
-0.3010 AM FIFTEEN YEARS
-1.1461 AM FIFTY EIGHT
-0.8451 AM FIFTY FIVE
-1.1461 AM FIFTY ONE
-1.1461 AM FIFTY SIX
-1.1461 AM FIFTY THREE
-1.1461 AM FIFTY YEARS
-0.3010 AM FIVE YEARS
-1.1461 AM FORTY FOUR
-0.5441 AM FORTY ONE
-1.1461 AM FORTY SEVEN
-1.1461 AM FORTY TWO
-0.3010 AM FOUR YEARS
-1.5798 AM FROM AFRICA
-1.5798 AM FROM EGYPT
-1.5798 AM FROM ENGLAND
-1.5798 AM FROM GHANA
-1.5798 AM FROM INDIAN
-1.5798 AM FROM KENYA
-1.2788 AM FROM NORWAY
-1.1027 AM FROM POLAND
-1.2788 AM FROM ROMANIA
-1.5798 AM FROM RUSSIA
-1.5798 AM FROM SOUTH
-1.5798 AM FROM SWITZERLAND
-1.5798 AM FROM TOGO
-1.2788 AM FROM UKRAINE
-0.3010 AM GOOD </s>
-0.3010 AM HUNDRED YEARS
-0.3010 AM ILL </s>
-0.3010 AM NINETEEN YEARS
-1.3010 AM NINETY EIGHT
-1.3010 AM NINETY FIVE
-1.3010 AM NINETY FOUR
-1.3010 AM NINETY NINE
-1.3010 AM NINETY ONE
-1.3010 AM NINETY SIX
-1.3010 AM NINETY THREE
-1.3010 AM NINETY TWO
-1.0000 AM NINETY YEARS
-0.9031 AM NOT </s>
-0.9031 AM NOT FEELING
-0.9031 AM NOT GOOD
-0.9031 AM NOT OK
-0.3010 AM OK </s>
-0.3010 AM ONE YEARS
-1.0792 AM SEVENTY ONE
-0.4771 AM SEVENTY SEVEN
-1.0792 AM SEVENTY YEARS
-0.3010 AM SICK </s>
-0.3010 AM SIX YEARS
-0.6990 AM SIXTY ONE
-1.0000 AM SIXTY THREE
-0.6990 AM SIXTY TWO
-1.3010 AM THIRTY NINE
-0.8239 AM THIRTY SEVEN
-0.8239 AM THIRTY SIX
-1.3010 AM THIRTY THREE
-1.3010 AM THIRTY TWO
-1.3010 AM THIRTY YEARS
-0.3010 AM TWELVE YEARS
-1.1461 AM TWENTY FOUR
-1.1461 AM TWENTY NINE
-1.1461 AM TWENTY ONE
-0.8451 AM TWENTY THREE
-1.1461 AM TWENTY TWO
-1.1461 AM TWENTY YEARS
-0.3010 ARE KIND </s>
-0.3010 ARE WELLCOME </s>
-0.6021 ARE YOU </s>
-0.6021 ARE YOU FEELING
-0.3010 AT ALL </s>
-2.1818 CALL ME </s>
-1.8808 CALL ME ADRIAN
-1.8808 CALL ME ALEXANDER
-1.8808 CALL ME ALINA
-2.1818 CALL ME ANDREA
-1.4037 CALL ME ANDREI
-1.8808 CALL ME ARTHUR
-1.8808 CALL ME ASIL
-1.7047 CALL ME CHRIS
-1.8808 CALL ME DANIEL
-1.5798 CALL ME DOMINIC
-2.1818 CALL ME ELIAS
-1.7047 CALL ME FERENC
-1.5798 CALL ME FRANKLIN
-1.7047 CALL ME GAYANE
-1.7047 CALL ME HAGEN
-1.8808 CALL ME HENDRIK
-1.8808 CALL ME JASMINE
-1.2788 CALL ME KEVIN
-1.5798 CALL ME LENA
-2.1818 CALL ME LISSET
-1.4829 CALL ME LUKAS
-1.7047 CALL ME MAREIKE
-2.1818 CALL ME MICHAEL
-2.1818 CALL ME MIHAI
-2.1818 CALL ME OTTHEIN
-2.1818 CALL ME PASCALE
-1.7047 CALL ME PATRICK
-2.1818 CALL ME RAFAEL
-1.8808 CALL ME SEBASTIAN
-0.3010 CAN NOT </s>
-1.1461 CAN YOU CUT
-1.1461 CAN YOU GIVE
-0.8451 CAN YOU OFFER
-0.8451 CAN YOU REPEAT
-1.1461 CAN YOU SAY
-1.7324 COME FROM </s>
-1.7324 COME FROM AFRICA
-1.2553 COME FROM AMERICA
-1.4314 COME FROM AUSTRALIA
-1.7324 COME FROM CHINA
-1.7324 COME FROM ENGLAND
-1.7324 COME FROM EUROPE
-1.4314 COME FROM GREECE
-1.7324 COME FROM INDIAN
-1.7324 COME FROM JAPAN
-1.7324 COME FROM KENYA
-1.4314 COME FROM MALIA
-1.7324 COME FROM RUSSIA
-1.7324 COME FROM SOUTH
-1.4314 COME FROM SUD
-1.4314 COME FROM SWEDEN
-1.7324 COME FROM TOGO
-1.7324 COME FROM TURKEY
-1.4314 COME FROM UKRAINE
-0.3010 COULD NOT </s>
-0.6021 COULD YOU OFFER
-0.6021 COULD YOU REPEAT
-0.3010 CUT CAKE </s>
-0.7782 DID NOT </s>
-0.4771 DID NOT GET
-0.7782 DID YOU ENJOY
-0.4771 DID YOU FIND
-0.3010 DIDNT GET YOU
-0.3010 DIDNT UNDERSTAND </s>
-0.3010 DO NOT </s>
-0.9031 DO YOU COME
-0.4260 DO YOU FIND
-0.3010 DOES IT TAKE
-0.3010 DONT GET YOU
-0.3010 DONT UNDERSTAND </s>
-0.3010 EIGHT PIECE OF
-0.3010 EIGHT YEARS OLD
-0.3010 EIGTHY FOUR YEARS
-0.3010 EIGTHY NINE YEARS
-0.3010 EIGTHY SEVEN YEARS
-0.3010 EIGTHY THREE YEARS
-0.3010 ENJOY THE CONVERSATION
-0.3010 EVERYTHING IS OK
-0.3010 FEELING BAD </s>
-0.3010 FEELING GOOD </s>
-0.3010 FIFTEEN YEARS OLD
-0.3010 FIFTY EIGHT YEARS
-0.3010 FIFTY FIVE YEARS
-0.3010 FIFTY ONE YEARS
-0.3010 FIFTY SIX YEARS
-0.3010 FIFTY THREE YEARS
-0.3010 FIFTY YEARS OLD
-0.3010 FIND CONVERSATION </s>
-0.3010 FIND OUR CONVERSATION
-0.3010 FIND THE CONVERSATION
-0.3010 FIVE PIECE OF
-0.3010 FIVE YEARS OLD
-0.3010 FORTY FOUR YEARS
-0.3010 FORTY ONE YEARS
-0.3010 FORTY SEVEN YEARS
-0.3010 FORTY TWO YEARS
-0.3010 FOUR PIECE OF
-0.3010 FOUR YEARS OLD
-0.3010 FROM AFRICA </s>
-0.3010 FROM AMERICA </s>
-0.3010 FROM AUSTRALIA </s>
-0.3010 FROM CHINA </s>
-0.3010 FROM EGYPT </s>
-0.3010 FROM ENGLAND </s>
-0.3010 FROM EUROPE </s>
-0.3010 FROM GHANA </s>
-0.3010 FROM GREECE </s>
-0.3010 FROM INDIAN </s>
-0.3010 FROM JAPAN </s>
-0.3010 FROM KENYA </s>
-0.3010 FROM MALIA </s>
-0.3010 FROM NORWAY </s>
-0.3010 FROM POLAND </s>
-0.3010 FROM ROMANIA </s>
-0.3010 FROM RUSSIA </s>
-0.3010 FROM SOUTH AFRICA
-0.3010 FROM SUD KOREA
-0.3010 FROM SWEDEN </s>
-0.3010 FROM SWITZERLAND </s>
-0.3010 FROM TOGO </s>
-0.3010 FROM TURKEY </s>
-0.3010 FROM UKRAINE </s>
-0.3010 GET YOU </s>
-0.3010 GIVE CAKE </s>
-0.3010 GOOD AFTERNOON </s>
-0.3010 GOOD BYE </s>
-0.3010 GOOD EVENING </s>
-0.3010 GOOD MORNING </s>
-0.3010 HOW ARE YOU
-0.3010 HOW DID YOU
-0.3010 HOW DO YOU
-0.6021 HOW IS OUR
-0.6021 HOW IS THE
-0.3010 HOW OLD ARE
-0.3010 HUNDRED YEARS OLD
-2.3502 I AM </s>
-1.8731 I AM BAD
-2.0492 I AM EIGHT
-1.7482 I AM EIGTHY
-1.6513 I AM FEELING
-2.3502 I AM FIFTEEN
-1.5051 I AM FIFTY
-2.0492 I AM FIVE
-1.5051 I AM FORTY
-2.3502 I AM FOUR
-1.0715 I AM FROM
-1.7482 I AM GOOD
-2.3502 I AM HUNDRED
-2.3502 I AM ILL
-2.3502 I AM NINETEEN
-1.3502 I AM NINETY
-1.7482 I AM NOT
-2.3502 I AM OK
-1.8731 I AM ONE
-1.5721 I AM SEVENTY
-2.0492 I AM SICK
-2.0492 I AM SIX
-1.6513 I AM SIXTY
-1.3502 I AM THIRTY
-1.8731 I AM TWELVE
-1.5051 I AM TWENTY
-0.4771 I CAN </s>
-0.7782 I CAN NOT
-0.3010 I COME FROM
-0.3010 I COULD NOT
-0.3010 I COULDNT </s>
-0.5441 I DID </s>
-0.6690 I DID NOT
-0.6021 I DIDNT </s>
-1.0792 I DIDNT GET
-0.7782 I DIDNT UNDERSTAND
-0.9031 I DO </s>
-0.4260 I DO NOT
-0.5563 I DONT </s>
-1.2553 I DONT GET
-0.7782 I DONT UNDERSTAND
-1.6435 I NEED A
-1.6435 I NEED BEER
-1.6435 I NEED DRINK
-1.1663 I NEED EIGHT
-1.6435 I NEED FIVE
-1.6435 I NEED NINE
-1.3424 I NEED SEVEN
-1.0414 I NEED SIX
-1.1663 I NEED TEN
-1.6435 I NEED THIRD
-1.6435 I NEED THREE
-1.6435 I NEED TWO
-1.3424 I NEED WATER
-0.9700 I WANT A
-1.4472 I WANT EIGHT
-1.1461 I WANT FOUR
-1.4472 I WANT SEVEN
-1.1461 I WANT SIX
-1.1461 I WANT TEN
-1.4472 I WANT THIRD
-1.1461 I WANT TWO
-0.3010 I WISH DRINK
-0.3010 I WOULD LIKE
-0.3010 IS ADRIAN </s>
-0.3010 IS ALEXIS </s>
-0.3010 IS ALINA </s>
-0.3010 IS ANDREA </s>
-0.3010 IS ANDREI </s>
-0.3010 IS ARTHUR </s>
-0.3010 IS ASIL </s>
-0.3010 IS CONSTANTIN </s>
-0.3010 IS DANIEL </s>
-0.3010 IS DOMINIC </s>
-0.3010 IS ELIAS </s>
-0.3010 IS FERENC </s>
-0.3010 IS FERESHTA </s>
-0.3010 IS FEROZ </s>
-0.3010 IS FRANKLIN </s>
-0.3010 IS GEORG </s>
-0.3010 IS HENDRIK </s>
-0.3010 IS JASMINE </s>
-0.3010 IS KEVIN </s>
-0.3010 IS LENA </s>
-0.3010 IS LUKAS </s>
-0.3010 IS MAREIKE </s>
-0.3010 IS MICHAEL </s>
-0.3010 IS NOT CLEAR
-0.3010 IS OK </s>
-0.3010 IS OUR CONVERSATION
-0.3010 IS POSSIBLE </s>
-0.3010 IS RAFAEL </s>
-0.3010 IS SASCHA </s>
-0.3010 IS SEBASTIAN </s>
-0.3010 IS THE CONVERSATION
-0.3010 IS UNCLEAR </s>
-0.3010 IS YOUR NAME
-0.9031 IT IS NOT
-0.6021 IT IS POSSIBLE
-0.9031 IT IS UNCLEAR
-0.3010 IT TAKE TOO
-0.3010 IT WAS A
-0.3010 LIKE FOUR PIECE
-0.3010 LIKE SEVEN PIECE
-0.3010 LIKE THREE PIECE
-0.3010 LIKE TWO PIECE
-0.3010 MAY YOU CUT
-0.3010 ME ADRIAN </s>
-0.3010 ME ALEXANDER </s>
-0.3010 ME ALINA </s>
-0.3010 ME ANDREA </s>
-0.3010 ME ANDREI </s>
-0.3010 ME ARTHUR </s>
-0.3010 ME ASIL </s>
-0.3010 ME CHRIS </s>
-0.3010 ME DANIEL </s>
-0.3010 ME DOMINIC </s>
-0.3010 ME ELIAS </s>
-0.3010 ME FERENC </s>
-0.3010 ME FRANKLIN </s>
-0.3010 ME GAYANE </s>
-0.3010 ME HAGEN </s>
-0.3010 ME HENDRIK </s>
-0.3010 ME JASMINE </s>
-0.3010 ME KEVIN </s>
-0.3010 ME LENA </s>
-0.3010 ME LISSET </s>
-0.3010 ME LUKAS </s>
-0.3010 ME MAREIKE </s>
-0.3010 ME MICHAEL </s>
-0.3010 ME MIHAI </s>
-0.3010 ME OTTHEIN </s>
-0.3010 ME PASCALE </s>
-0.3010 ME PATRICK </s>
-0.3010 ME RAFAEL </s>
-0.3010 ME SEBASTIAN </s>
-0.3010 MEET YOU </s>
-0.3010 MORE TIME </s>
-0.3010 MUCH TIME </s>
-0.3010 MY NAME IS
-1.7160 NAME IS ADRIAN
-1.7160 NAME IS ALEXIS
-1.5399 NAME IS ALINA
-2.0170 NAME IS ANDREA
-2.0170 NAME IS ANDREI
-2.0170 NAME IS ARTHUR
-1.7160 NAME IS ASIL
-2.0170 NAME IS CONSTANTIN
-2.0170 NAME IS DANIEL
-1.7160 NAME IS DOMINIC
-2.0170 NAME IS ELIAS
-1.5399 NAME IS FERENC
-1.7160 NAME IS FERESHTA
-1.5399 NAME IS FEROZ
-1.7160 NAME IS FRANKLIN
-1.7160 NAME IS GEORG
-1.5399 NAME IS HENDRIK
-2.0170 NAME IS JASMINE
-1.7160 NAME IS KEVIN
-1.5399 NAME IS LENA
-1.7160 NAME IS LUKAS
-1.4150 NAME IS MAREIKE
-1.7160 NAME IS MICHAEL
-2.0170 NAME IS RAFAEL
-1.7160 NAME IS SASCHA
-1.5399 NAME IS SEBASTIAN
-0.3010 NEED A PIECE
-0.3010 NEED BEER </s>
-0.3010 NEED DRINK </s>
-0.3010 NEED EIGHT PIECE
-0.3010 NEED FIVE PIECE
-0.3010 NEED NINE PIECE
-0.3010 NEED SEVEN PIECE
-0.3010 NEED SIX PIECE
-0.3010 NEED TEN PIECE
-0.3010 NEED THIRD PIECE
-0.3010 NEED THREE PIECE
-0.3010 NEED TWO PIECE
-0.3010 NEED WATER </s>
-0.3010 NICE TO SEE
-0.3010 NINE PIECE OF
-0.3010 NINE YEARS OLD
-0.3010 NINETEEN YEARS OLD
-0.3010 NINETY EIGHT YEARS
-0.3010 NINETY FIVE YEARS
-0.3010 NINETY FOUR YEARS
-0.3010 NINETY NINE YEARS
-0.3010 NINETY ONE YEARS
-0.3010 NINETY SIX YEARS
-0.3010 NINETY THREE YEARS
-0.3010 NINETY TWO YEARS
-0.3010 NINETY YEARS OLD
-0.3010 NOT AT ALL
-0.3010 NOT CLEAR </s>
-0.3010 NOT FEELING GOOD
-0.3010 NOT GET YOU
-0.3010 NOT GOOD </s>
-0.3010 NOT OK </s>
-0.3010 OF CAKE </s>
-0.3010 OF COURSE </s>
-0.3010 OFFER CAKE </s>
-0.3010 OLD ARE YOU
-0.3010 ONE MORE TIME
-0.3010 ONE YEARS OLD
-0.3010 OUR CONVERSATION </s>
-0.3010 PEOPLE CALL ME
-0.3010 PIECE OF CAKE
-0.3010 PLEASURE TO MEET
-0.3010 SAY ONE MORE
-0.3010 SEE YOU </s>
-0.3010 SEVEN PIECE OF
-0.3010 SEVEN YEARS OLD
-0.3010 SEVENTY ONE YEARS
-0.3010 SEVENTY SEVEN YEARS
-0.3010 SEVENTY YEARS OLD
-0.3010 SIX PIECE OF
-0.3010 SIX YEARS OLD
-0.3010 SIXTY ONE YEARS
-0.3010 SIXTY THREE YEARS
-0.3010 SIXTY TWO YEARS
-0.3010 SOUTH AFRICA </s>
-0.3010 SUD KOREA </s>
-0.3010 TAKE TOO MUCH
-0.3010 TEN PIECE OF
-0.3010 THE CONVERSATION </s>
-0.3010 THIRD PIECE OF
-0.3010 THIRTY NINE YEARS
-0.3010 THIRTY SEVEN YEARS
-0.3010 THIRTY SIX YEARS
-0.3010 THIRTY THREE YEARS
-0.3010 THIRTY TWO YEARS
-0.3010 THIRTY YEARS OLD
-0.3010 THREE PIECE OF
-0.3010 THREE YEARS OLD
-0.3010 TO MEET YOU
-0.3010 TO SEE YOU
-0.3010 TOO MUCH TIME
-0.3010 TWELVE YEARS OLD
-0.3010 TWENTY FOUR YEARS
-0.3010 TWENTY NINE YEARS
-0.3010 TWENTY ONE YEARS
-0.3010 TWENTY THREE YEARS
-0.3010 TWENTY TWO YEARS
-0.3010 TWENTY YEARS OLD
-0.3010 TWO PIECE OF
-0.3010 TWO YEARS OLD
-0.3010 WANT A PIECE
-0.3010 WANT EIGHT PIECE
-0.3010 WANT FOUR PIECE
-0.3010 WANT SEVEN PIECE
-0.3010 WANT SIX PIECE
-0.3010 WANT TEN PIECE
-0.3010 WANT THIRD PIECE
-0.3010 WANT TWO PIECE
-0.3010 WAS A PLEASURE
-0.3010 WHAT IS YOUR
-0.3010 WHERE DO YOU
-0.3010 WHY DOES IT
-0.3010 WHY NOT </s>
-0.3010 WISH DRINK </s>
-0.3010 WISH FOOD </s>
-1.0792 WOULD LIKE FOUR
-1.0792 WOULD LIKE SEVEN
-1.0792 WOULD LIKE THREE
-0.6021 WOULD LIKE TWO
-0.6021 WOULD YOU CUT
-0.9031 WOULD YOU GIVE
-0.9031 WOULD YOU OFFER
-0.3010 YEARS OLD </s>
-0.6021 YOU ARE KIND
-0.6021 YOU ARE WELLCOME
-0.3010 YOU COME FROM
-0.3010 YOU CUT CAKE
-0.3010 YOU ENJOY THE
-0.3010 YOU FEELING </s>
-0.6990 YOU FIND CONVERSATION
-1.0000 YOU FIND OUR
-0.6990 YOU FIND THE
-0.3010 YOU GIVE CAKE
-0.3010 YOU OFFER CAKE
-0.3010 YOU REPEAT </s>
-0.3010 YOU SAY ONE
-0.3010 YOUR NAME </s>

\end\

